<?xml version="1.0"?>
<opencv_storage>
<stage11>
  <maxWeakCount>11</maxWeakCount>
  <stageThreshold>-1.0363521575927734e+00</stageThreshold>
  <weakClassifiers>
    <_>
      <internalNodes>
        0 -1 17598 -1.2841816060245037e-02</internalNodes>
      <leafValues>
        5.7812500000000000e-01 -3.3333334326744080e-01</leafValues></_>
    <_>
      <internalNodes>
        0 -1 3894 2.2199241357157007e-05</internalNodes>
      <leafValues>
        1.7571803927421570e-01 -9.5524549484252930e-01</leafValues></_>
    <_>
      <internalNodes>
        0 -1 17031 -2.1562702022492886e-04</internalNodes>
      <leafValues>
        5.3426671028137207e-01 -3.3257234096527100e-01</leafValues></_>
    <_>
      <internalNodes>
        0 -1 31480 1.0085008107125759e-02</internalNodes>
      <leafValues>
        -3.4585544466972351e-01 4.2087775468826294e-01</leafValues></_>
    <_>
      <internalNodes>
        0 -1 31871 -2.1554367776843719e-05</internalNodes>
      <leafValues>
        -6.3589864969253540e-01 2.1980206668376923e-01</leafValues></_>
    <_>
      <internalNodes>
        0 -1 9630 3.6869235336780548e-02</internalNodes>
      <leafValues>
        -3.4521746635437012e-01 4.1345471143722534e-01</leafValues></_>
    <_>
      <internalNodes>
        0 -1 30214 -2.4675091844983399e-04</internalNodes>
      <leafValues>
        3.9459559321403503e-01 -3.4914633631706238e-01</leafValues></_>
    <_>
      <internalNodes>
        0 -1 15758 -6.6952079534530640e-02</internalNodes>
      <leafValues>
        -4.6097433567047119e-01 2.8466415405273438e-01</leafValues></_>
    <_>
      <internalNodes>
        0 -1 19559 -3.5574180074036121e-03</internalNodes>
      <leafValues>
        2.6190361380577087e-01 -4.7119009494781494e-01</leafValues></_>
    <_>
      <internalNodes>
        0 -1 32383 -2.1367512090364471e-05</internalNodes>
      <leafValues>
        -8.4141379594802856e-01 1.4737035334110260e-01</leafValues></_>
    <_>
      <internalNodes>
        0 -1 15941 -1.4193445444107056e-02</internalNodes>
      <leafValues>
        3.2595294713973999e-01 -3.7588644027709961e-01</leafValues></_></weakClassifiers></stage11>
</opencv_storage>
