<?xml version="1.0"?>
<opencv_storage>
<stage12>
  <maxWeakCount>11</maxWeakCount>
  <stageThreshold>-1.1088165044784546e+00</stageThreshold>
  <weakClassifiers>
    <_>
      <internalNodes>
        0 -1 8400 -1.1133756488561630e-03</internalNodes>
      <leafValues>
        5.1851850748062134e-01 -4.4680851697921753e-01</leafValues></_>
    <_>
      <internalNodes>
        0 -1 2 -2.1351212126319297e-05</internalNodes>
      <leafValues>
        -6.9626355171203613e-01 2.6107394695281982e-01</leafValues></_>
    <_>
      <internalNodes>
        0 -1 31799 1.7578805272933096e-04</internalNodes>
      <leafValues>
        -2.9067859053611755e-01 6.3688707351684570e-01</leafValues></_>
    <_>
      <internalNodes>
        0 -1 7273 2.2843110491521657e-04</internalNodes>
      <leafValues>
        -2.2799007594585419e-01 5.5790472030639648e-01</leafValues></_>
    <_>
      <internalNodes>
        0 -1 875 -2.8105243109166622e-04</internalNodes>
      <leafValues>
        2.5008910894393921e-01 -4.4884875416755676e-01</leafValues></_>
    <_>
      <internalNodes>
        0 -1 239 -1.0968227684497833e-01</internalNodes>
      <leafValues>
        -7.3454558849334717e-01 1.4332263171672821e-01</leafValues></_>
    <_>
      <internalNodes>
        0 -1 27334 2.1705597464460880e-04</internalNodes>
      <leafValues>
        -3.3779233694076538e-01 4.1014432907104492e-01</leafValues></_>
    <_>
      <internalNodes>
        0 -1 27878 7.3801041580736637e-03</internalNodes>
      <leafValues>
        -2.8876534104347229e-01 4.3364652991294861e-01</leafValues></_>
    <_>
      <internalNodes>
        0 -1 4838 -1.8247895641252398e-03</internalNodes>
      <leafValues>
        3.3111938834190369e-01 -3.9252528548240662e-01</leafValues></_>
    <_>
      <internalNodes>
        0 -1 13068 -3.0977256596088409e-02</internalNodes>
      <leafValues>
        2.8677934408187866e-01 -4.9003347754478455e-01</leafValues></_>
    <_>
      <internalNodes>
        0 -1 21602 8.3422585157677531e-04</internalNodes>
      <leafValues>
        -2.4098101258277893e-01 5.2881282567977905e-01</leafValues></_></weakClassifiers></stage12>
</opencv_storage>
