<?xml version="1.0"?>
<opencv_storage>
<stage9>
  <maxWeakCount>10</maxWeakCount>
  <stageThreshold>-1.5426143407821655e+00</stageThreshold>
  <weakClassifiers>
    <_>
      <internalNodes>
        0 -1 441 2.3330684751272202e-02</internalNodes>
      <leafValues>
        -3.6703297495841980e-01 6.8163263797760010e-01</leafValues></_>
    <_>
      <internalNodes>
        0 -1 1375 2.2202797234058380e-02</internalNodes>
      <leafValues>
        -3.2902517914772034e-01 7.2116655111312866e-01</leafValues></_>
    <_>
      <internalNodes>
        0 -1 30181 4.4624888687394559e-04</internalNodes>
      <leafValues>
        -2.5572669506072998e-01 6.1497235298156738e-01</leafValues></_>
    <_>
      <internalNodes>
        0 -1 32335 -1.1734136933228001e-04</internalNodes>
      <leafValues>
        2.7351349592208862e-01 -5.6437915563583374e-01</leafValues></_>
    <_>
      <internalNodes>
        0 -1 13494 -2.7361820684745908e-04</internalNodes>
      <leafValues>
        5.1367056369781494e-01 -2.6803046464920044e-01</leafValues></_>
    <_>
      <internalNodes>
        0 -1 32281 -2.1042904336354695e-05</internalNodes>
      <leafValues>
        -6.1299717426300049e-01 2.5031989812850952e-01</leafValues></_>
    <_>
      <internalNodes>
        0 -1 15172 3.6440178751945496e-02</internalNodes>
      <leafValues>
        -3.1076273322105408e-01 4.8330366611480713e-01</leafValues></_>
    <_>
      <internalNodes>
        0 -1 31751 1.2214963498990983e-04</internalNodes>
      <leafValues>
        -1.8742878735065460e-01 6.2527143955230713e-01</leafValues></_>
    <_>
      <internalNodes>
        0 -1 16128 -3.9605872007086873e-04</internalNodes>
      <leafValues>
        6.8188053369522095e-01 -1.8212473392486572e-01</leafValues></_>
    <_>
      <internalNodes>
        0 -1 31813 1.4044131967239082e-04</internalNodes>
      <leafValues>
        -1.9242878258228302e-01 6.5080636739730835e-01</leafValues></_></weakClassifiers></stage9>
</opencv_storage>
