<?xml version="1.0"?>
<opencv_storage>
<stage14>
  <maxWeakCount>12</maxWeakCount>
  <stageThreshold>-1.1017423868179321e+00</stageThreshold>
  <weakClassifiers>
    <_>
      <internalNodes>
        0 -1 974 4.5078172115609050e-04</internalNodes>
      <leafValues>
        -3.8144329190254211e-01 4.7435897588729858e-01</leafValues></_>
    <_>
      <internalNodes>
        0 -1 277 4.0663043037056923e-03</internalNodes>
      <leafValues>
        -5.5645608901977539e-01 3.2416266202926636e-01</leafValues></_>
    <_>
      <internalNodes>
        0 -1 3375 4.2751029832288623e-04</internalNodes>
      <leafValues>
        -2.8861340880393982e-01 4.8027130961418152e-01</leafValues></_>
    <_>
      <internalNodes>
        0 -1 4 -2.2124013412394561e-05</internalNodes>
      <leafValues>
        -8.8608103990554810e-01 1.5409566462039948e-01</leafValues></_>
    <_>
      <internalNodes>
        0 -1 3890 2.2030390027794056e-05</internalNodes>
      <leafValues>
        1.4970754086971283e-01 -7.4248528480529785e-01</leafValues></_>
    <_>
      <internalNodes>
        0 -1 21224 -1.0052737779915333e-02</internalNodes>
      <leafValues>
        2.1453855931758881e-01 -5.5714261531829834e-01</leafValues></_>
    <_>
      <internalNodes>
        0 -1 29165 1.1338228068780154e-04</internalNodes>
      <leafValues>
        -1.9096557796001434e-01 6.6043299436569214e-01</leafValues></_>
    <_>
      <internalNodes>
        0 -1 5863 -1.5227434050757438e-04</internalNodes>
      <leafValues>
        6.1860013008117676e-01 -1.8065537512302399e-01</leafValues></_>
    <_>
      <internalNodes>
        0 -1 30220 2.4072053201962262e-04</internalNodes>
      <leafValues>
        -1.8083865940570831e-01 6.6861265897750854e-01</leafValues></_>
    <_>
      <internalNodes>
        0 -1 23206 -1.5596857701893896e-04</internalNodes>
      <leafValues>
        4.8223471641540527e-01 -2.5598579645156860e-01</leafValues></_>
    <_>
      <internalNodes>
        0 -1 3885 -2.4305136321345344e-05</internalNodes>
      <leafValues>
        -9.7874939441680908e-01 1.3317339122295380e-01</leafValues></_>
    <_>
      <internalNodes>
        0 -1 10897 -1.0757993441075087e-03</internalNodes>
      <leafValues>
        2.8170070052146912e-01 -4.6352058649063110e-01</leafValues></_></weakClassifiers></stage14>
</opencv_storage>
