<?xml version="1.0"?>
<opencv_storage>
<stage10>
  <maxWeakCount>10</maxWeakCount>
  <stageThreshold>-1.0683259963989258e+00</stageThreshold>
  <weakClassifiers>
    <_>
      <internalNodes>
        0 -1 222 1.5796316787600517e-02</internalNodes>
      <leafValues>
        -6.1029410362243652e-01 3.8785046339035034e-01</leafValues></_>
    <_>
      <internalNodes>
        0 -1 5891 -1.8098086584359407e-03</internalNodes>
      <leafValues>
        3.2422560453414917e-01 -4.7691458463668823e-01</leafValues></_>
    <_>
      <internalNodes>
        0 -1 22058 -4.3876841664314270e-04</internalNodes>
      <leafValues>
        2.5774550437927246e-01 -6.4126807451248169e-01</leafValues></_>
    <_>
      <internalNodes>
        0 -1 29589 -3.3889955375343561e-04</internalNodes>
      <leafValues>
        4.6681877970695496e-01 -3.5314902663230896e-01</leafValues></_>
    <_>
      <internalNodes>
        0 -1 18770 -7.9704103991389275e-03</internalNodes>
      <leafValues>
        2.7521482110023499e-01 -5.2491098642349243e-01</leafValues></_>
    <_>
      <internalNodes>
        0 -1 23911 -2.3373769363388419e-04</internalNodes>
      <leafValues>
        5.8952838182449341e-01 -2.4077703058719635e-01</leafValues></_>
    <_>
      <internalNodes>
        0 -1 17190 -7.4412720277905464e-04</internalNodes>
      <leafValues>
        1.9430579245090485e-01 -6.6855680942535400e-01</leafValues></_>
    <_>
      <internalNodes>
        0 -1 31300 3.1946897506713867e-02</internalNodes>
      <leafValues>
        -3.9315050840377808e-01 4.0133780241012573e-01</leafValues></_>
    <_>
      <internalNodes>
        0 -1 31508 3.4105699160136282e-04</internalNodes>
      <leafValues>
        -2.2895471751689911e-01 7.0908653736114502e-01</leafValues></_>
    <_>
      <internalNodes>
        0 -1 16320 -9.0748106595128775e-04</internalNodes>
      <leafValues>
        6.0552120208740234e-01 -2.1101121604442596e-01</leafValues></_></weakClassifiers></stage10>
</opencv_storage>
