<?xml version="1.0"?>
<opencv_storage>
<stage16>
  <maxWeakCount>12</maxWeakCount>
  <stageThreshold>-7.4433547258377075e-01</stageThreshold>
  <weakClassifiers>
    <_>
      <internalNodes>
        0 -1 31445 -2.4738011416047812e-04</internalNodes>
      <leafValues>
        6.1971831321716309e-01 -1.5770609676837921e-01</leafValues></_>
    <_>
      <internalNodes>
        0 -1 31135 -4.7016819007694721e-04</internalNodes>
      <leafValues>
        5.4090774059295654e-01 -1.6683885455131531e-01</leafValues></_>
    <_>
      <internalNodes>
        0 -1 16493 9.5807976322248578e-05</internalNodes>
      <leafValues>
        -2.1507023274898529e-01 4.8313006758689880e-01</leafValues></_>
    <_>
      <internalNodes>
        0 -1 31445 1.0502550867386162e-04</internalNodes>
      <leafValues>
        -2.3702348768711090e-01 4.9517181515693665e-01</leafValues></_>
    <_>
      <internalNodes>
        0 -1 5526 -1.5571626136079431e-04</internalNodes>
      <leafValues>
        7.5678455829620361e-01 -9.4143167138099670e-02</leafValues></_>
    <_>
      <internalNodes>
        0 -1 22800 -6.0973450308665633e-04</internalNodes>
      <leafValues>
        5.3563904762268066e-01 -1.5594141185283661e-01</leafValues></_>
    <_>
      <internalNodes>
        0 -1 22800 1.0423049388919026e-04</internalNodes>
      <leafValues>
        -2.9030987620353699e-01 3.9521932601928711e-01</leafValues></_>
    <_>
      <internalNodes>
        0 -1 17781 3.9280228316783905e-02</internalNodes>
      <leafValues>
        1.5738144516944885e-01 -6.5905493497848511e-01</leafValues></_>
    <_>
      <internalNodes>
        0 -1 17781 -3.8379520177841187e-02</internalNodes>
      <leafValues>
        -6.8604123592376709e-01 1.6841797530651093e-01</leafValues></_>
    <_>
      <internalNodes>
        0 -1 16122 -2.8505956288427114e-04</internalNodes>
      <leafValues>
        4.5434537529945374e-01 -2.5690209865570068e-01</leafValues></_>
    <_>
      <internalNodes>
        0 -1 2506 4.6397238969802856e-02</internalNodes>
      <leafValues>
        1.2433426827192307e-01 -6.8523132801055908e-01</leafValues></_>
    <_>
      <internalNodes>
        0 -1 19458 9.6443109214305878e-05</internalNodes>
      <leafValues>
        -1.8782706558704376e-01 4.9299439787864685e-01</leafValues></_></weakClassifiers></stage16>
</opencv_storage>
