<?xml version="1.0"?>
<opencv_storage>
<stage18>
  <maxWeakCount>15</maxWeakCount>
  <stageThreshold>-9.7153699398040771e-01</stageThreshold>
  <weakClassifiers>
    <_>
      <internalNodes>
        0 -1 14586 -1.6719935834407806e-01</internalNodes>
      <leafValues>
        3.0729165673255920e-01 -3.7341773509979248e-01</leafValues></_>
    <_>
      <internalNodes>
        0 -1 20639 -3.7778157740831375e-02</internalNodes>
      <leafValues>
        4.7025349736213684e-01 -1.8506579101085663e-01</leafValues></_>
    <_>
      <internalNodes>
        0 -1 18429 -2.0355872809886932e-02</internalNodes>
      <leafValues>
        -8.0401498079299927e-01 1.2355236709117889e-01</leafValues></_>
    <_>
      <internalNodes>
        0 -1 8737 -1.1022468097507954e-03</internalNodes>
      <leafValues>
        7.2541743516921997e-01 -1.3556884229183197e-01</leafValues></_>
    <_>
      <internalNodes>
        0 -1 24227 4.4959277147427201e-04</internalNodes>
      <leafValues>
        -3.2903429865837097e-01 2.4251426756381989e-01</leafValues></_>
    <_>
      <internalNodes>
        0 -1 23372 -2.6819302001968026e-04</internalNodes>
      <leafValues>
        3.8459178805351257e-01 -2.1657687425613403e-01</leafValues></_>
    <_>
      <internalNodes>
        0 -1 21832 1.8813222413882613e-04</internalNodes>
      <leafValues>
        -1.7904992401599884e-01 4.7987064719200134e-01</leafValues></_>
    <_>
      <internalNodes>
        0 -1 19278 1.8589748651720583e-04</internalNodes>
      <leafValues>
        -2.2099415957927704e-01 4.4656094908714294e-01</leafValues></_>
    <_>
      <internalNodes>
        0 -1 18857 1.6705086454749107e-02</internalNodes>
      <leafValues>
        1.5990109741687775e-01 -6.6101795434951782e-01</leafValues></_>
    <_>
      <internalNodes>
        0 -1 30175 2.3895286722108722e-04</internalNodes>
      <leafValues>
        -1.9586236774921417e-01 4.6013951301574707e-01</leafValues></_>
    <_>
      <internalNodes>
        0 -1 339 2.7606835588812828e-02</internalNodes>
      <leafValues>
        9.2118717730045319e-02 -8.3479392528533936e-01</leafValues></_>
    <_>
      <internalNodes>
        0 -1 23679 -2.7977151330560446e-04</internalNodes>
      <leafValues>
        3.7638008594512939e-01 -2.3548530042171478e-01</leafValues></_>
    <_>
      <internalNodes>
        0 -1 196 -1.0826041921973228e-02</internalNodes>
      <leafValues>
        -6.4813858270645142e-01 1.4447671175003052e-01</leafValues></_>
    <_>
      <internalNodes>
        0 -1 3377 6.7717465572059155e-04</internalNodes>
      <leafValues>
        -1.1686605215072632e-01 8.0683457851409912e-01</leafValues></_>
    <_>
      <internalNodes>
        0 -1 18755 5.5443368852138519e-02</internalNodes>
      <leafValues>
        1.4068624377250671e-01 -6.6668361425399780e-01</leafValues></_></weakClassifiers></stage18>
</opencv_storage>
