<?xml version="1.0"?>
<opencv_storage>
<stage6>
  <maxWeakCount>7</maxWeakCount>
  <stageThreshold>-1.2530235052108765e+00</stageThreshold>
  <weakClassifiers>
    <_>
      <internalNodes>
        0 -1 30341 -3.8838258478790522e-03</internalNodes>
      <leafValues>
        6.2637364864349365e-01 -4.0046837925910950e-01</leafValues></_>
    <_>
      <internalNodes>
        0 -1 3861 -6.1372329946607351e-04</internalNodes>
      <leafValues>
        4.1152766346931458e-01 -6.0312664508819580e-01</leafValues></_>
    <_>
      <internalNodes>
        0 -1 2006 1.0892136394977570e-01</internalNodes>
      <leafValues>
        2.4139454960823059e-01 -8.9366406202316284e-01</leafValues></_>
    <_>
      <internalNodes>
        0 -1 19135 2.0672791288234293e-04</internalNodes>
      <leafValues>
        -3.4381201863288879e-01 6.0039174556732178e-01</leafValues></_>
    <_>
      <internalNodes>
        0 -1 22281 1.1674534529447556e-02</internalNodes>
      <leafValues>
        -2.5686129927635193e-01 7.9978919029235840e-01</leafValues></_>
    <_>
      <internalNodes>
        0 -1 6186 3.7422543391585350e-04</internalNodes>
      <leafValues>
        -2.8723031282424927e-01 6.5145111083984375e-01</leafValues></_>
    <_>
      <internalNodes>
        0 -1 7395 -1.1889338493347168e-03</internalNodes>
      <leafValues>
        3.7610888481140137e-01 -6.1757373809814453e-01</leafValues></_></weakClassifiers></stage6>
</opencv_storage>
