<?xml version="1.0"?>
<opencv_storage>
<stage4>
  <maxWeakCount>8</maxWeakCount>
  <stageThreshold>-1.2897833585739136e+00</stageThreshold>
  <weakClassifiers>
    <_>
      <internalNodes>
        0 -1 30058 -2.1374232601374388e-03</internalNodes>
      <leafValues>
        4.1043084859848022e-01 -6.9884169101715088e-01</leafValues></_>
    <_>
      <internalNodes>
        0 -1 22342 -3.3132886164821684e-04</internalNodes>
      <leafValues>
        6.9397795200347900e-01 -3.3680558204650879e-01</leafValues></_>
    <_>
      <internalNodes>
        0 -1 18183 -1.7585343448445201e-04</internalNodes>
      <leafValues>
        8.1604677438735962e-01 -2.1668078005313873e-01</leafValues></_>
    <_>
      <internalNodes>
        0 -1 18183 3.0795962084084749e-04</internalNodes>
      <leafValues>
        -3.1435877084732056e-01 7.2650992870330811e-01</leafValues></_>
    <_>
      <internalNodes>
        0 -1 3783 -2.6765497401356697e-02</internalNodes>
      <leafValues>
        6.6468256711959839e-01 -3.1602713465690613e-01</leafValues></_>
    <_>
      <internalNodes>
        0 -1 631 -3.9358285721391439e-04</internalNodes>
      <leafValues>
        6.6348892450332642e-01 -2.8508141636848450e-01</leafValues></_>
    <_>
      <internalNodes>
        0 -1 8554 -9.7762078046798706e-02</internalNodes>
      <leafValues>
        -9.0689593553543091e-01 3.1956684589385986e-01</leafValues></_>
    <_>
      <internalNodes>
        0 -1 21141 1.2798060197383165e-04</internalNodes>
      <leafValues>
        -4.3651148676872253e-01 5.5844521522521973e-01</leafValues></_></weakClassifiers></stage4>
</opencv_storage>
