<?xml version="1.0"?>
<opencv_storage>
<cascade>
  <stageType>BOOST</stageType>
  <featureType>HAAR</featureType>
  <height>24</height>
  <width>24</width>
  <stageParams>
    <boostType>GAB</boostType>
    <minHitRate>9.9500000476837158e-01</minHitRate>
    <maxFalseAlarm>5.0000000000000000e-01</maxFalseAlarm>
    <weightTrimRate>9.4999999999999996e-01</weightTrimRate>
    <maxDepth>1</maxDepth>
    <maxWeakCount>100</maxWeakCount></stageParams>
  <featureParams>
    <maxCatCount>0</maxCatCount>
    <featSize>1</featSize>
    <mode>BASIC</mode></featureParams>
  <stageNum>10</stageNum>
  <stages>
    <!-- stage 0 -->
    <_>
      <maxWeakCount>6</maxWeakCount>
      <stageThreshold>-1.4064046144485474e+00</stageThreshold>
      <weakClassifiers>
        <_>
          <internalNodes>
            0 -1 31 4.7259861603379250e-03</internalNodes>
          <leafValues>
            -7.7064222097396851e-01 4.5772594213485718e-01</leafValues></_>
        <_>
          <internalNodes>
            0 -1 5 5.1249610260128975e-03</internalNodes>
          <leafValues>
            -6.4475566148757935e-01 4.2486953735351563e-01</leafValues></_>
        <_>
          <internalNodes>
            0 -1 69 -5.4669100791215897e-02</internalNodes>
          <leafValues>
            7.2239434719085693e-01 -3.4617111086845398e-01</leafValues></_>
        <_>
          <internalNodes>
            0 -1 105 -9.2983851209282875e-04</internalNodes>
          <leafValues>
            4.2102679610252380e-01 -5.2036613225936890e-01</leafValues></_>
        <_>
          <internalNodes>
            0 -1 35 -1.1324802413582802e-02</internalNodes>
          <leafValues>
            4.9090576171875000e-01 -4.2892152070999146e-01</leafValues></_>
        <_>
          <internalNodes>
            0 -1 106 -1.3949764892458916e-02</internalNodes>
          <leafValues>
            -4.9515154957771301e-01 3.6305910348892212e-01</leafValues></_></weakClassifiers></_>
    <!-- stage 1 -->
    <_>
      <maxWeakCount>9</maxWeakCount>
      <stageThreshold>-1.5401195287704468e+00</stageThreshold>
      <weakClassifiers>
        <_>
          <internalNodes>
            0 -1 23 -2.7374533936381340e-02</internalNodes>
          <leafValues>
            4.6520146727561951e-01 -6.0474306344985962e-01</leafValues></_>
        <_>
          <internalNodes>
            0 -1 27 -7.3047587648034096e-03</internalNodes>
          <leafValues>
            4.8563933372497559e-01 -5.2008301019668579e-01</leafValues></_>
        <_>
          <internalNodes>
            0 -1 44 9.0907979756593704e-04</internalNodes>
          <leafValues>
            -5.1841193437576294e-01 4.9379134178161621e-01</leafValues></_>
        <_>
          <internalNodes>
            0 -1 25 -5.1688957959413528e-02</internalNodes>
          <leafValues>
            -7.8674286603927612e-01 2.3449598252773285e-01</leafValues></_>
        <_>
          <internalNodes>
            0 -1 40 -4.5893009519204497e-04</internalNodes>
          <leafValues>
            4.4274261593818665e-01 -4.4905596971511841e-01</leafValues></_>
        <_>
          <internalNodes>
            0 -1 101 -2.6596132665872574e-03</internalNodes>
          <leafValues>
            2.4170921742916107e-01 -7.1913421154022217e-01</leafValues></_>
        <_>
          <internalNodes>
            0 -1 9 -5.7244129478931427e-02</internalNodes>
          <leafValues>
            -6.8464916944503784e-01 2.3283362388610840e-01</leafValues></_>
        <_>
          <internalNodes>
            0 -1 43 5.5664510000497103e-04</internalNodes>
          <leafValues>
            -4.1350257396697998e-01 3.4232506155967712e-01</leafValues></_>
        <_>
          <internalNodes>
            0 -1 93 -1.5195790678262711e-02</internalNodes>
          <leafValues>
            3.4119957685470581e-01 -4.4464486837387085e-01</leafValues></_></weakClassifiers></_>
    <!-- stage 2 -->
    <_>
      <maxWeakCount>9</maxWeakCount>
      <stageThreshold>-1.2719202041625977e+00</stageThreshold>
      <weakClassifiers>
        <_>
          <internalNodes>
            0 -1 15 7.8835207968950272e-03</internalNodes>
          <leafValues>
            -6.4573991298675537e-01 3.2732734084129333e-01</leafValues></_>
        <_>
          <internalNodes>
            0 -1 110 -2.8926390223205090e-04</internalNodes>
          <leafValues>
            3.6569434404373169e-01 -5.9869480133056641e-01</leafValues></_>
        <_>
          <internalNodes>
            0 -1 11 3.5221304278820753e-03</internalNodes>
          <leafValues>
            -5.4460638761520386e-01 3.3830222487449646e-01</leafValues></_>
        <_>
          <internalNodes>
            0 -1 60 1.9035459263250232e-04</internalNodes>
          <leafValues>
            -2.8548374772071838e-01 6.2856292724609375e-01</leafValues></_>
        <_>
          <internalNodes>
            0 -1 51 -3.1762202270328999e-03</internalNodes>
          <leafValues>
            5.6157088279724121e-01 -2.8374609351158142e-01</leafValues></_>
        <_>
          <internalNodes>
            0 -1 84 1.0592631588224322e-04</internalNodes>
          <leafValues>
            -2.1401882171630859e-01 7.6442968845367432e-01</leafValues></_>
        <_>
          <internalNodes>
            0 -1 12 -1.5455059707164764e-02</internalNodes>
          <leafValues>
            -6.0712260007858276e-01 2.6127028465270996e-01</leafValues></_>
        <_>
          <internalNodes>
            0 -1 54 -1.0377545549999923e-05</internalNodes>
          <leafValues>
            4.0849921107292175e-01 -3.6899796128273010e-01</leafValues></_>
        <_>
          <internalNodes>
            0 -1 88 8.9031906099990010e-05</internalNodes>
          <leafValues>
            -2.8344658017158508e-01 6.0114520788192749e-01</leafValues></_></weakClassifiers></_>
    <!-- stage 3 -->
    <_>
      <maxWeakCount>9</maxWeakCount>
      <stageThreshold>-8.7505489587783813e-01</stageThreshold>
      <weakClassifiers>
        <_>
          <internalNodes>
            0 -1 62 -1.0596811771392822e-02</internalNodes>
          <leafValues>
            2.3076923191547394e-01 -5.5947136878967285e-01</leafValues></_>
        <_>
          <internalNodes>
            0 -1 30 2.3632677039131522e-04</internalNodes>
          <leafValues>
            -5.0992470979690552e-01 3.3874943852424622e-01</leafValues></_>
        <_>
          <internalNodes>
            0 -1 18 2.0836031762883067e-04</internalNodes>
          <leafValues>
            -4.3581813573837280e-01 4.0147060155868530e-01</leafValues></_>
        <_>
          <internalNodes>
            0 -1 109 -2.2822088794782758e-04</internalNodes>
          <leafValues>
            5.0710952281951904e-01 -2.7863755822181702e-01</leafValues></_>
        <_>
          <internalNodes>
            0 -1 3 -1.2985445559024811e-02</internalNodes>
          <leafValues>
            -4.3284836411476135e-01 3.2918789982795715e-01</leafValues></_>
        <_>
          <internalNodes>
            0 -1 34 6.4675614703446627e-04</internalNodes>
          <leafValues>
            -4.2250564694404602e-01 3.9699268341064453e-01</leafValues></_>
        <_>
          <internalNodes>
            0 -1 83 -8.3726622164249420e-02</internalNodes>
          <leafValues>
            5.3186374902725220e-01 -2.5116312503814697e-01</leafValues></_>
        <_>
          <internalNodes>
            0 -1 8 -4.3684776872396469e-02</internalNodes>
          <leafValues>
            -7.3217421770095825e-01 1.4698642492294312e-01</leafValues></_>
        <_>
          <internalNodes>
            0 -1 49 2.2317620459944010e-04</internalNodes>
          <leafValues>
            -3.5405123233795166e-01 3.2326450943946838e-01</leafValues></_></weakClassifiers></_>
    <!-- stage 4 -->
    <_>
      <maxWeakCount>10</maxWeakCount>
      <stageThreshold>-9.5938366651535034e-01</stageThreshold>
      <weakClassifiers>
        <_>
          <internalNodes>
            0 -1 0 2.6018153221230023e-05</internalNodes>
          <leafValues>
            -5.6310677528381348e-01 1.4441417157649994e-01</leafValues></_>
        <_>
          <internalNodes>
            0 -1 16 4.5291378046385944e-04</internalNodes>
          <leafValues>
            -3.8098582625389099e-01 3.6307618021965027e-01</leafValues></_>
        <_>
          <internalNodes>
            0 -1 100 -9.9988542497158051e-03</internalNodes>
          <leafValues>
            3.1373339891433716e-01 -4.6716088056564331e-01</leafValues></_>
        <_>
          <internalNodes>
            0 -1 20 -2.0452500879764557e-01</internalNodes>
          <leafValues>
            -6.9998824596405029e-01 1.9992300868034363e-01</leafValues></_>
        <_>
          <internalNodes>
            0 -1 63 -5.0424598157405853e-05</internalNodes>
          <leafValues>
            7.0497906208038330e-01 -1.6977377235889435e-01</leafValues></_>
        <_>
          <internalNodes>
            0 -1 77 1.1378312774468213e-04</internalNodes>
          <leafValues>
            -1.6131435334682465e-01 6.4773797988891602e-01</leafValues></_>
        <_>
          <internalNodes>
            0 -1 77 -1.1046724102925509e-04</internalNodes>
          <leafValues>
            6.1948525905609131e-01 -1.9340787827968597e-01</leafValues></_>
        <_>
          <internalNodes>
            0 -1 65 -1.9070110283792019e-03</internalNodes>
          <leafValues>
            4.6627131104469299e-01 -2.1557572484016418e-01</leafValues></_>
        <_>
          <internalNodes>
            0 -1 81 1.3055227696895599e-01</internalNodes>
          <leafValues>
            1.3123531639575958e-01 -7.9384905099868774e-01</leafValues></_>
        <_>
          <internalNodes>
            0 -1 12 -1.2858499772846699e-02</internalNodes>
          <leafValues>
            -5.1544082164764404e-01 2.3852515220642090e-01</leafValues></_></weakClassifiers></_>
    <!-- stage 5 -->
    <_>
      <maxWeakCount>13</maxWeakCount>
      <stageThreshold>-1.2257045507431030e+00</stageThreshold>
      <weakClassifiers>
        <_>
          <internalNodes>
            0 -1 111 -2.9241028241813183e-03</internalNodes>
          <leafValues>
            1.8713450431823730e-01 -5.5606406927108765e-01</leafValues></_>
        <_>
          <internalNodes>
            0 -1 53 -1.9314786186441779e-05</internalNodes>
          <leafValues>
            3.4365925192832947e-01 -4.2512390017509460e-01</leafValues></_>
        <_>
          <internalNodes>
            0 -1 29 -6.3865032279863954e-04</internalNodes>
          <leafValues>
            2.9470121860504150e-01 -4.2599400877952576e-01</leafValues></_>
        <_>
          <internalNodes>
            0 -1 99 -7.6577096479013562e-05</internalNodes>
          <leafValues>
            3.7024223804473877e-01 -3.0481708049774170e-01</leafValues></_>
        <_>
          <internalNodes>
            0 -1 76 -2.2507121320813894e-03</internalNodes>
          <leafValues>
            1.7701679468154907e-01 -5.8720123767852783e-01</leafValues></_>
        <_>
          <internalNodes>
            0 -1 94 1.1761097994167358e-04</internalNodes>
          <leafValues>
            -2.3770210146903992e-01 4.1810211539268494e-01</leafValues></_>
        <_>
          <internalNodes>
            0 -1 112 1.9361083104740828e-05</internalNodes>
          <leafValues>
            1.0395631194114685e-01 -7.6489490270614624e-01</leafValues></_>
        <_>
          <internalNodes>
            0 -1 66 2.8568528592586517e-02</internalNodes>
          <leafValues>
            -2.3925133049488068e-01 3.4464019536972046e-01</leafValues></_>
        <_>
          <internalNodes>
            0 -1 68 -2.8143435716629028e-02</internalNodes>
          <leafValues>
            2.0200110971927643e-01 -5.2194887399673462e-01</leafValues></_>
        <_>
          <internalNodes>
            0 -1 102 -4.6646286500617862e-04</internalNodes>
          <leafValues>
            3.0742081999778748e-01 -3.1390184164047241e-01</leafValues></_>
        <_>
          <internalNodes>
            0 -1 90 -5.8494135737419128e-02</internalNodes>
          <leafValues>
            -9.4210648536682129e-01 1.0160367190837860e-01</leafValues></_>
        <_>
          <internalNodes>
            0 -1 19 2.7773823239840567e-04</internalNodes>
          <leafValues>
            -2.4387834966182709e-01 3.6845499277114868e-01</leafValues></_>
        <_>
          <internalNodes>
            0 -1 59 -1.0512693734199274e-05</internalNodes>
          <leafValues>
            -2.1625183522701263e-01 5.9298068284988403e-01</leafValues></_></weakClassifiers></_>
    <!-- stage 6 -->
    <_>
      <maxWeakCount>15</maxWeakCount>
      <stageThreshold>-1.0366697311401367e+00</stageThreshold>
      <weakClassifiers>
        <_>
          <internalNodes>
            0 -1 55 2.0636492408812046e-03</internalNodes>
          <leafValues>
            -5.2752292156219482e-01 1.4868804812431335e-01</leafValues></_>
        <_>
          <internalNodes>
            0 -1 39 -1.9420112948864698e-03</internalNodes>
          <leafValues>
            3.3011409640312195e-01 -3.1434088945388794e-01</leafValues></_>
        <_>
          <internalNodes>
            0 -1 26 -6.0734480619430542e-02</internalNodes>
          <leafValues>
            -8.7447899580001831e-01 1.2810739874839783e-01</leafValues></_>
        <_>
          <internalNodes>
            0 -1 22 1.2725180713459849e-03</internalNodes>
          <leafValues>
            -2.5457173585891724e-01 4.0520393848419189e-01</leafValues></_>
        <_>
          <internalNodes>
            0 -1 108 -1.2157964520156384e-03</internalNodes>
          <leafValues>
            2.4947184324264526e-01 -3.5650819540023804e-01</leafValues></_>
        <_>
          <internalNodes>
            0 -1 42 -2.6193025405518711e-05</internalNodes>
          <leafValues>
            3.0119881033897400e-01 -3.2641628384590149e-01</leafValues></_>
        <_>
          <internalNodes>
            0 -1 97 -1.1583066952880472e-04</internalNodes>
          <leafValues>
            6.3776409626007080e-01 -1.6075745224952698e-01</leafValues></_>
        <_>
          <internalNodes>
            0 -1 14 -1.4405811205506325e-02</internalNodes>
          <leafValues>
            -4.1640001535415649e-01 2.2612175345420837e-01</leafValues></_>
        <_>
          <internalNodes>
            0 -1 10 -8.0864261835813522e-03</internalNodes>
          <leafValues>
            -3.5125118494033813e-01 2.6611611247062683e-01</leafValues></_>
        <_>
          <internalNodes>
            0 -1 58 6.9668807554990053e-05</internalNodes>
          <leafValues>
            -2.1357256174087524e-01 5.8274030685424805e-01</leafValues></_>
        <_>
          <internalNodes>
            0 -1 36 8.6933860075077973e-06</internalNodes>
          <leafValues>
            2.1974991261959076e-01 -4.2639905214309692e-01</leafValues></_>
        <_>
          <internalNodes>
            0 -1 52 -2.2224037820706144e-05</internalNodes>
          <leafValues>
            3.0217897891998291e-01 -3.1981375813484192e-01</leafValues></_>
        <_>
          <internalNodes>
            0 -1 21 9.0507986024022102e-03</internalNodes>
          <leafValues>
            9.7164191305637360e-02 -7.3458749055862427e-01</leafValues></_>
        <_>
          <internalNodes>
            0 -1 67 6.9933161139488220e-02</internalNodes>
          <leafValues>
            1.0056545585393906e-01 -8.1021058559417725e-01</leafValues></_>
        <_>
          <internalNodes>
            0 -1 70 7.6888594776391983e-05</internalNodes>
          <leafValues>
            -1.8474774062633514e-01 5.2978175878524780e-01</leafValues></_></weakClassifiers></_>
    <!-- stage 7 -->
    <_>
      <maxWeakCount>16</maxWeakCount>
      <stageThreshold>-1.4214702844619751e+00</stageThreshold>
      <weakClassifiers>
        <_>
          <internalNodes>
            0 -1 110 -1.1961723212152719e-03</internalNodes>
          <leafValues>
            1.0213776677846909e-01 -6.2011170387268066e-01</leafValues></_>
        <_>
          <internalNodes>
            0 -1 74 -9.0799154713749886e-04</internalNodes>
          <leafValues>
            1.4103393256664276e-01 -6.5110534429550171e-01</leafValues></_>
        <_>
          <internalNodes>
            0 -1 6 1.6926791518926620e-02</internalNodes>
          <leafValues>
            -3.7644234299659729e-01 3.3357435464859009e-01</leafValues></_>
        <_>
          <internalNodes>
            0 -1 13 4.6265381388366222e-03</internalNodes>
          <leafValues>
            -4.4906714558601379e-01 2.3408991098403931e-01</leafValues></_>
        <_>
          <internalNodes>
            0 -1 12 -1.3325468637049198e-02</internalNodes>
          <leafValues>
            -4.5492407679557800e-01 1.9041340053081512e-01</leafValues></_>
        <_>
          <internalNodes>
            0 -1 98 -2.6189713389612734e-04</internalNodes>
          <leafValues>
            3.7770846486091614e-01 -2.8097042441368103e-01</leafValues></_>
        <_>
          <internalNodes>
            0 -1 82 3.2804779708385468e-02</internalNodes>
          <leafValues>
            1.2877757847309113e-01 -8.0777662992477417e-01</leafValues></_>
        <_>
          <internalNodes>
            0 -1 64 -7.7933780848979950e-03</internalNodes>
          <leafValues>
            2.5165036320686340e-01 -4.2854759097099304e-01</leafValues></_>
        <_>
          <internalNodes>
            0 -1 72 -1.7742571234703064e-01</internalNodes>
          <leafValues>
            -8.9161574840545654e-01 9.4247154891490936e-02</leafValues></_>
        <_>
          <internalNodes>
            0 -1 103 -1.1958512914134189e-04</internalNodes>
          <leafValues>
            8.0210842192173004e-02 -8.3741194009780884e-01</leafValues></_>
        <_>
          <internalNodes>
            0 -1 32 -1.3732224702835083e-02</internalNodes>
          <leafValues>
            1.2268853187561035e-01 -6.3768053054809570e-01</leafValues></_>
        <_>
          <internalNodes>
            0 -1 107 -3.4361690282821655e-02</internalNodes>
          <leafValues>
            -6.9455403089523315e-01 1.0312578082084656e-01</leafValues></_>
        <_>
          <internalNodes>
            0 -1 95 1.0313788516214117e-04</internalNodes>
          <leafValues>
            -1.4687325060367584e-01 5.5768018960952759e-01</leafValues></_>
        <_>
          <internalNodes>
            0 -1 37 -4.8824608325958252e-02</internalNodes>
          <leafValues>
            -6.5417945384979248e-01 9.7219124436378479e-02</leafValues></_>
        <_>
          <internalNodes>
            0 -1 86 -3.7643348332494497e-04</internalNodes>
          <leafValues>
            3.8577416539192200e-01 -2.1473127603530884e-01</leafValues></_>
        <_>
          <internalNodes>
            0 -1 56 -8.7662019723211415e-06</internalNodes>
          <leafValues>
            -5.4600960016250610e-01 1.3755714893341064e-01</leafValues></_></weakClassifiers></_>
    <!-- stage 8 -->
    <_>
      <maxWeakCount>16</maxWeakCount>
      <stageThreshold>-1.2736568450927734e+00</stageThreshold>
      <weakClassifiers>
        <_>
          <internalNodes>
            0 -1 4 6.3086678273975849e-03</internalNodes>
          <leafValues>
            -6.0946744680404663e-01 6.1224490404129028e-02</leafValues></_>
        <_>
          <internalNodes>
            0 -1 85 -5.5041266605257988e-03</internalNodes>
          <leafValues>
            -7.7683067321777344e-01 1.0975468903779984e-01</leafValues></_>
        <_>
          <internalNodes>
            0 -1 1 -4.0597887709736824e-03</internalNodes>
          <leafValues>
            -7.3577284812927246e-01 1.4350348711013794e-01</leafValues></_>
        <_>
          <internalNodes>
            0 -1 17 -2.1405587904155254e-04</internalNodes>
          <leafValues>
            1.1361812055110931e-01 -8.0159467458724976e-01</leafValues></_>
        <_>
          <internalNodes>
            0 -1 78 -3.6559376167133451e-04</internalNodes>
          <leafValues>
            5.7916682958602905e-01 -1.8672657012939453e-01</leafValues></_>
        <_>
          <internalNodes>
            0 -1 92 2.3848577402532101e-03</internalNodes>
          <leafValues>
            1.4486055076122284e-01 -8.5602986812591553e-01</leafValues></_>
        <_>
          <internalNodes>
            0 -1 111 -7.6271290890872478e-04</internalNodes>
          <leafValues>
            1.9404117763042450e-01 -4.1844159364700317e-01</leafValues></_>
        <_>
          <internalNodes>
            0 -1 89 -8.5615378338843584e-05</internalNodes>
          <leafValues>
            5.4450362920761108e-01 -1.6898404061794281e-01</leafValues></_>
        <_>
          <internalNodes>
            0 -1 24 -8.7814414655440487e-06</internalNodes>
          <leafValues>
            -6.8905037641525269e-01 1.3744373619556427e-01</leafValues></_>
        <_>
          <internalNodes>
            0 -1 50 5.3747147321701050e-02</internalNodes>
          <leafValues>
            8.3300910890102386e-02 -8.1434726715087891e-01</leafValues></_>
        <_>
          <internalNodes>
            0 -1 41 -9.2429839074611664e-02</internalNodes>
          <leafValues>
            -7.8202491998672485e-01 8.8007919490337372e-02</leafValues></_>
        <_>
          <internalNodes>
            0 -1 78 8.5036357631906867e-05</internalNodes>
          <leafValues>
            -1.7811977863311768e-01 5.5294024944305420e-01</leafValues></_>
        <_>
          <internalNodes>
            0 -1 61 -7.2622701525688171e-02</internalNodes>
          <leafValues>
            -6.2094157934188843e-01 1.2609732151031494e-01</leafValues></_>
        <_>
          <internalNodes>
            0 -1 47 -4.4446485117077827e-04</internalNodes>
          <leafValues>
            2.8410285711288452e-01 -3.2981562614440918e-01</leafValues></_>
        <_>
          <internalNodes>
            0 -1 71 -1.7429045692551881e-04</internalNodes>
          <leafValues>
            5.4758530855178833e-01 -1.5216790139675140e-01</leafValues></_>
        <_>
          <internalNodes>
            0 -1 33 -3.1313691288232803e-03</internalNodes>
          <leafValues>
            2.0112064480781555e-01 -4.2942997813224792e-01</leafValues></_></weakClassifiers></_>
    <!-- stage 9 -->
    <_>
      <maxWeakCount>16</maxWeakCount>
      <stageThreshold>-1.1885941028594971e+00</stageThreshold>
      <weakClassifiers>
        <_>
          <internalNodes>
            0 -1 38 -6.8045617081224918e-03</internalNodes>
          <leafValues>
            8.1967212259769440e-02 -6.0795456171035767e-01</leafValues></_>
        <_>
          <internalNodes>
            0 -1 48 -5.8535709977149963e-03</internalNodes>
          <leafValues>
            3.7051483988761902e-01 -2.2900186479091644e-01</leafValues></_>
        <_>
          <internalNodes>
            0 -1 28 -1.8915891647338867e-02</internalNodes>
          <leafValues>
            -5.5550879240036011e-01 1.4722289144992828e-01</leafValues></_>
        <_>
          <internalNodes>
            0 -1 45 -3.4270063042640686e-02</internalNodes>
          <leafValues>
            2.3237858712673187e-01 -3.9132493734359741e-01</leafValues></_>
        <_>
          <internalNodes>
            0 -1 79 -1.5299952065106481e-04</internalNodes>
          <leafValues>
            3.8256457448005676e-01 -2.1650750935077667e-01</leafValues></_>
        <_>
          <internalNodes>
            0 -1 57 -1.3364496827125549e-01</internalNodes>
          <leafValues>
            -6.7690747976303101e-01 1.0333061963319778e-01</leafValues></_>
        <_>
          <internalNodes>
            0 -1 87 -3.8037040212657303e-05</internalNodes>
          <leafValues>
            5.5011767148971558e-01 -1.6723963618278503e-01</leafValues></_>
        <_>
          <internalNodes>
            0 -1 75 -6.2357027083635330e-02</internalNodes>
          <leafValues>
            -5.2305442094802856e-01 1.5641443431377411e-01</leafValues></_>
        <_>
          <internalNodes>
            0 -1 80 -5.2828807383775711e-03</internalNodes>
          <leafValues>
            -5.8334183692932129e-01 1.0379535704851151e-01</leafValues></_>
        <_>
          <internalNodes>
            0 -1 7 -2.8846479952335358e-02</internalNodes>
          <leafValues>
            2.4988022446632385e-01 -3.3090859651565552e-01</leafValues></_>
        <_>
          <internalNodes>
            0 -1 104 -5.3406134247779846e-03</internalNodes>
          <leafValues>
            2.3575620353221893e-01 -3.9207878708839417e-01</leafValues></_>
        <_>
          <internalNodes>
            0 -1 91 -6.4771658799145371e-05</internalNodes>
          <leafValues>
            5.4400414228439331e-01 -1.4155822992324829e-01</leafValues></_>
        <_>
          <internalNodes>
            0 -1 96 8.0798892304301262e-04</internalNodes>
          <leafValues>
            1.4265850186347961e-01 -5.2704542875289917e-01</leafValues></_>
        <_>
          <internalNodes>
            0 -1 73 2.7812860935227945e-05</internalNodes>
          <leafValues>
            1.3522736728191376e-01 -5.9880834817886353e-01</leafValues></_>
        <_>
          <internalNodes>
            0 -1 46 -2.1159002184867859e-01</internalNodes>
          <leafValues>
            -8.8363933563232422e-01 7.8316241502761841e-02</leafValues></_>
        <_>
          <internalNodes>
            0 -1 2 3.9483690634369850e-03</internalNodes>
          <leafValues>
            -2.2703818976879120e-01 3.4579619765281677e-01</leafValues></_></weakClassifiers></_></stages>
  <features>
    <_>
      <rects>
        <_>
          0 0 1 20 -1.</_>
        <_>
          0 10 1 10 2.</_></rects>
      <tilted>0</tilted></_>
    <_>
      <rects>
        <_>
          0 0 1 22 -1.</_>
        <_>
          0 11 1 11 2.</_></rects>
      <tilted>0</tilted></_>
    <_>
      <rects>
        <_>
          0 0 2 17 -1.</_>
        <_>
          1 0 1 17 2.</_></rects>
      <tilted>0</tilted></_>
    <_>
      <rects>
        <_>
          0 0 3 24 -1.</_>
        <_>
          1 0 1 24 2.</_></rects>
      <tilted>0</tilted></_>
    <_>
      <rects>
        <_>
          0 0 4 21 -1.</_>
        <_>
          2 0 2 21 2.</_></rects>
      <tilted>0</tilted></_>
    <_>
      <rects>
        <_>
          0 0 4 24 -1.</_>
        <_>
          2 0 2 24 2.</_></rects>
      <tilted>0</tilted></_>
    <_>
      <rects>
        <_>
          0 0 6 24 -1.</_>
        <_>
          3 0 3 24 2.</_></rects>
      <tilted>0</tilted></_>
    <_>
      <rects>
        <_>
          0 0 12 11 -1.</_>
        <_>
          4 0 4 11 2.</_></rects>
      <tilted>0</tilted></_>
    <_>
      <rects>
        <_>
          0 0 24 4 -1.</_>
        <_>
          8 0 8 4 2.</_></rects>
      <tilted>0</tilted></_>
    <_>
      <rects>
        <_>
          0 0 24 6 -1.</_>
        <_>
          8 0 8 6 2.</_></rects>
      <tilted>0</tilted></_>
    <_>
      <rects>
        <_>
          0 0 20 3 -1.</_>
        <_>
          0 1 20 1 2.</_></rects>
      <tilted>0</tilted></_>
    <_>
      <rects>
        <_>
          0 0 22 4 -1.</_>
        <_>
          0 2 22 2 2.</_></rects>
      <tilted>0</tilted></_>
    <_>
      <rects>
        <_>
          0 0 24 3 -1.</_>
        <_>
          0 1 24 1 2.</_></rects>
      <tilted>0</tilted></_>
    <_>
      <rects>
        <_>
          0 0 24 4 -1.</_>
        <_>
          0 2 24 2 2.</_></rects>
      <tilted>0</tilted></_>
    <_>
      <rects>
        <_>
          0 1 3 23 -1.</_>
        <_>
          1 1 1 23 2.</_></rects>
      <tilted>0</tilted></_>
    <_>
      <rects>
        <_>
          0 1 4 19 -1.</_>
        <_>
          2 1 2 19 2.</_></rects>
      <tilted>0</tilted></_>
    <_>
      <rects>
        <_>
          0 1 15 2 -1.</_>
        <_>
          0 2 15 1 2.</_></rects>
      <tilted>0</tilted></_>
    <_>
      <rects>
        <_>
          0 1 22 3 -1.</_>
        <_>
          0 2 22 1 2.</_></rects>
      <tilted>0</tilted></_>
    <_>
      <rects>
        <_>
          0 3 2 17 -1.</_>
        <_>
          1 3 1 17 2.</_></rects>
      <tilted>0</tilted></_>
    <_>
      <rects>
        <_>
          0 5 11 2 -1.</_>
        <_>
          0 6 11 1 2.</_></rects>
      <tilted>0</tilted></_>
    <_>
      <rects>
        <_>
          0 6 21 18 -1.</_>
        <_>
          0 12 21 6 2.</_></rects>
      <tilted>0</tilted></_>
    <_>
      <rects>
        <_>
          0 8 15 6 -1.</_>
        <_>
          5 8 5 6 2.</_></rects>
      <tilted>0</tilted></_>
    <_>
      <rects>
        <_>
          0 10 2 12 -1.</_>
        <_>
          1 10 1 12 2.</_></rects>
      <tilted>0</tilted></_>
    <_>
      <rects>
        <_>
          0 10 23 3 -1.</_>
        <_>
          0 11 23 1 2.</_></rects>
      <tilted>0</tilted></_>
    <_>
      <rects>
        <_>
          0 19 4 3 -1.</_>
        <_>
          2 19 2 3 2.</_></rects>
      <tilted>0</tilted></_>
    <_>
      <rects>
        <_>
          0 19 24 4 -1.</_>
        <_>
          8 19 8 4 2.</_></rects>
      <tilted>0</tilted></_>
    <_>
      <rects>
        <_>
          0 20 24 4 -1.</_>
        <_>
          8 20 8 4 2.</_></rects>
      <tilted>0</tilted></_>
    <_>
      <rects>
        <_>
          0 20 22 4 -1.</_>
        <_>
          0 22 22 2 2.</_></rects>
      <tilted>0</tilted></_>
    <_>
      <rects>
        <_>
          0 21 24 2 -1.</_>
        <_>
          8 21 8 2 2.</_></rects>
      <tilted>0</tilted></_>
    <_>
      <rects>
        <_>
          0 22 24 2 -1.</_>
        <_>
          0 23 24 1 2.</_></rects>
      <tilted>0</tilted></_>
    <_>
      <rects>
        <_>
          1 0 21 2 -1.</_>
        <_>
          1 1 21 1 2.</_></rects>
      <tilted>0</tilted></_>
    <_>
      <rects>
        <_>
          1 0 23 4 -1.</_>
        <_>
          1 2 23 2 2.</_></rects>
      <tilted>0</tilted></_>
    <_>
      <rects>
        <_>
          1 1 18 9 -1.</_>
        <_>
          1 4 18 3 2.</_></rects>
      <tilted>0</tilted></_>
    <_>
      <rects>
        <_>
          1 2 5 15 -1.</_>
        <_>
          1 7 5 5 2.</_></rects>
      <tilted>0</tilted></_>
    <_>
      <rects>
        <_>
          1 3 2 21 -1.</_>
        <_>
          2 3 1 21 2.</_></rects>
      <tilted>0</tilted></_>
    <_>
      <rects>
        <_>
          1 16 18 8 -1.</_>
        <_>
          1 20 18 4 2.</_></rects>
      <tilted>0</tilted></_>
    <_>
      <rects>
        <_>
          1 17 9 4 -1.</_>
        <_>
          1 19 9 2 2.</_></rects>
      <tilted>0</tilted></_>
    <_>
      <rects>
        <_>
          1 18 15 4 -1.</_>
        <_>
          6 18 5 4 2.</_></rects>
      <tilted>0</tilted></_>
    <_>
      <rects>
        <_>
          1 20 21 4 -1.</_>
        <_>
          1 22 21 2 2.</_></rects>
      <tilted>0</tilted></_>
    <_>
      <rects>
        <_>
          1 21 14 2 -1.</_>
        <_>
          1 22 14 1 2.</_></rects>
      <tilted>0</tilted></_>
    <_>
      <rects>
        <_>
          1 22 18 2 -1.</_>
        <_>
          1 23 18 1 2.</_></rects>
      <tilted>0</tilted></_>
    <_>
      <rects>
        <_>
          2 0 8 15 -1.</_>
        <_>
          2 5 8 5 2.</_></rects>
      <tilted>0</tilted></_>
    <_>
      <rects>
        <_>
          2 0 22 1 -1.</_>
        <_>
          13 0 11 1 2.</_></rects>
      <tilted>0</tilted></_>
    <_>
      <rects>
        <_>
          2 0 13 8 -1.</_>
        <_>
          2 4 13 4 2.</_></rects>
      <tilted>0</tilted></_>
    <_>
      <rects>
        <_>
          2 0 22 2 -1.</_>
        <_>
          2 1 22 1 2.</_></rects>
      <tilted>0</tilted></_>
    <_>
      <rects>
        <_>
          2 7 15 9 -1.</_>
        <_>
          7 7 5 9 2.</_></rects>
      <tilted>0</tilted></_>
    <_>
      <rects>
        <_>
          2 7 22 15 -1.</_>
        <_>
          13 7 11 15 2.</_></rects>
      <tilted>0</tilted></_>
    <_>
      <rects>
        <_>
          2 18 19 2 -1.</_>
        <_>
          2 19 19 1 2.</_></rects>
      <tilted>0</tilted></_>
    <_>
      <rects>
        <_>
          2 22 21 2 -1.</_>
        <_>
          2 23 21 1 2.</_></rects>
      <tilted>0</tilted></_>
    <_>
      <rects>
        <_>
          3 4 15 2 -1.</_>
        <_>
          3 5 15 1 2.</_></rects>
      <tilted>0</tilted></_>
    <_>
      <rects>
        <_>
          3 10 12 4 -1.</_>
        <_>
          9 10 6 4 2.</_></rects>
      <tilted>0</tilted></_>
    <_>
      <rects>
        <_>
          3 22 18 2 -1.</_>
        <_>
          3 23 18 1 2.</_></rects>
      <tilted>0</tilted></_>
    <_>
      <rects>
        <_>
          3 23 21 1 -1.</_>
        <_>
          10 23 7 1 2.</_></rects>
      <tilted>0</tilted></_>
    <_>
      <rects>
        <_>
          4 0 18 1 -1.</_>
        <_>
          13 0 9 1 2.</_></rects>
      <tilted>0</tilted></_>
    <_>
      <rects>
        <_>
          4 0 20 1 -1.</_>
        <_>
          14 0 10 1 2.</_></rects>
      <tilted>0</tilted></_>
    <_>
      <rects>
        <_>
          4 0 19 2 -1.</_>
        <_>
          4 1 19 1 2.</_></rects>
      <tilted>0</tilted></_>
    <_>
      <rects>
        <_>
          4 3 2 3 -1.</_>
        <_>
          5 3 1 3 2.</_></rects>
      <tilted>0</tilted></_>
    <_>
      <rects>
        <_>
          4 8 13 12 -1.</_>
        <_>
          4 12 13 4 2.</_></rects>
      <tilted>0</tilted></_>
    <_>
      <rects>
        <_>
          4 9 2 2 -1.</_>
        <_>
          5 9 1 2 2.</_></rects>
      <tilted>0</tilted></_>
    <_>
      <rects>
        <_>
          4 10 8 6 -1.</_>
        <_>
          4 12 8 2 2.</_></rects>
      <tilted>0</tilted></_>
    <_>
      <rects>
        <_>
          5 8 2 7 -1.</_>
        <_>
          6 8 1 7 2.</_></rects>
      <tilted>0</tilted></_>
    <_>
      <rects>
        <_>
          5 12 15 5 -1.</_>
        <_>
          10 12 5 5 2.</_></rects>
      <tilted>0</tilted></_>
    <_>
      <rects>
        <_>
          5 20 19 4 -1.</_>
        <_>
          5 22 19 2 2.</_></rects>
      <tilted>0</tilted></_>
    <_>
      <rects>
        <_>
          6 9 1 2 -1.</_>
        <_>
          6 10 1 1 2.</_></rects>
      <tilted>0</tilted></_>
    <_>
      <rects>
        <_>
          6 11 7 3 -1.</_>
        <_>
          6 12 7 1 2.</_></rects>
      <tilted>0</tilted></_>
    <_>
      <rects>
        <_>
          6 22 11 2 -1.</_>
        <_>
          6 23 11 1 2.</_></rects>
      <tilted>0</tilted></_>
    <_>
      <rects>
        <_>
          7 0 5 22 -1.</_>
        <_>
          7 11 5 11 2.</_></rects>
      <tilted>0</tilted></_>
    <_>
      <rects>
        <_>
          7 0 8 10 -1.</_>
        <_>
          7 5 8 5 2.</_></rects>
      <tilted>0</tilted></_>
    <_>
      <rects>
        <_>
          7 7 9 12 -1.</_>
        <_>
          7 11 9 4 2.</_></rects>
      <tilted>0</tilted></_>
    <_>
      <rects>
        <_>
          8 4 6 17 -1.</_>
        <_>
          10 4 2 17 2.</_></rects>
      <tilted>0</tilted></_>
    <_>
      <rects>
        <_>
          8 5 2 2 -1.</_>
        <_>
          8 6 2 1 2.</_></rects>
      <tilted>0</tilted></_>
    <_>
      <rects>
        <_>
          8 6 2 2 -1.</_>
        <_>
          8 6 1 1 2.</_>
        <_>
          9 7 1 1 2.</_></rects>
      <tilted>0</tilted></_>
    <_>
      <rects>
        <_>
          8 6 15 16 -1.</_>
        <_>
          13 6 5 16 2.</_></rects>
      <tilted>0</tilted></_>
    <_>
      <rects>
        <_>
          8 16 15 3 -1.</_>
        <_>
          13 16 5 3 2.</_></rects>
      <tilted>0</tilted></_>
    <_>
      <rects>
        <_>
          9 0 7 12 -1.</_>
        <_>
          9 4 7 4 2.</_></rects>
      <tilted>0</tilted></_>
    <_>
      <rects>
        <_>
          9 4 6 12 -1.</_>
        <_>
          9 8 6 4 2.</_></rects>
      <tilted>0</tilted></_>
    <_>
      <rects>
        <_>
          9 8 15 5 -1.</_>
        <_>
          14 8 5 5 2.</_></rects>
      <tilted>0</tilted></_>
    <_>
      <rects>
        <_>
          9 10 2 2 -1.</_>
        <_>
          9 10 1 1 2.</_>
        <_>
          10 11 1 1 2.</_></rects>
      <tilted>0</tilted></_>
    <_>
      <rects>
        <_>
          9 14 2 2 -1.</_>
        <_>
          9 14 1 1 2.</_>
        <_>
          10 15 1 1 2.</_></rects>
      <tilted>0</tilted></_>
    <_>
      <rects>
        <_>
          9 19 6 2 -1.</_>
        <_>
          9 20 6 1 2.</_></rects>
      <tilted>0</tilted></_>
    <_>
      <rects>
        <_>
          10 0 9 1 -1.</_>
        <_>
          13 0 3 1 2.</_></rects>
      <tilted>0</tilted></_>
    <_>
      <rects>
        <_>
          10 0 9 22 -1.</_>
        <_>
          10 11 9 11 2.</_></rects>
      <tilted>0</tilted></_>
    <_>
      <rects>
        <_>
          10 3 3 10 -1.</_>
        <_>
          10 8 3 5 2.</_></rects>
      <tilted>0</tilted></_>
    <_>
      <rects>
        <_>
          10 6 12 12 -1.</_>
        <_>
          10 10 12 4 2.</_></rects>
      <tilted>0</tilted></_>
    <_>
      <rects>
        <_>
          10 13 2 2 -1.</_>
        <_>
          10 13 1 1 2.</_>
        <_>
          11 14 1 1 2.</_></rects>
      <tilted>0</tilted></_>
    <_>
      <rects>
        <_>
          12 0 12 1 -1.</_>
        <_>
          16 0 4 1 2.</_></rects>
      <tilted>0</tilted></_>
    <_>
      <rects>
        <_>
          12 20 11 2 -1.</_>
        <_>
          12 21 11 1 2.</_></rects>
      <tilted>0</tilted></_>
    <_>
      <rects>
        <_>
          13 7 1 2 -1.</_>
        <_>
          13 8 1 1 2.</_></rects>
      <tilted>0</tilted></_>
    <_>
      <rects>
        <_>
          13 8 4 2 -1.</_>
        <_>
          13 9 4 1 2.</_></rects>
      <tilted>0</tilted></_>
    <_>
      <rects>
        <_>
          13 12 2 1 -1.</_>
        <_>
          14 12 1 1 2.</_></rects>
      <tilted>0</tilted></_>
    <_>
      <rects>
        <_>
          14 11 10 5 -1.</_>
        <_>
          19 11 5 5 2.</_></rects>
      <tilted>0</tilted></_>
    <_>
      <rects>
        <_>
          14 14 2 1 -1.</_>
        <_>
          15 14 1 1 2.</_></rects>
      <tilted>0</tilted></_>
    <_>
      <rects>
        <_>
          14 23 10 1 -1.</_>
        <_>
          19 23 5 1 2.</_></rects>
      <tilted>0</tilted></_>
    <_>
      <rects>
        <_>
          16 0 8 22 -1.</_>
        <_>
          20 0 4 22 2.</_></rects>
      <tilted>0</tilted></_>
    <_>
      <rects>
        <_>
          16 8 2 6 -1.</_>
        <_>
          16 11 2 3 2.</_></rects>
      <tilted>0</tilted></_>
    <_>
      <rects>
        <_>
          16 13 1 2 -1.</_>
        <_>
          16 14 1 1 2.</_></rects>
      <tilted>0</tilted></_>
    <_>
      <rects>
        <_>
          16 15 6 7 -1.</_>
        <_>
          19 15 3 7 2.</_></rects>
      <tilted>0</tilted></_>
    <_>
      <rects>
        <_>
          17 13 2 1 -1.</_>
        <_>
          18 13 1 1 2.</_></rects>
      <tilted>0</tilted></_>
    <_>
      <rects>
        <_>
          18 0 2 13 -1.</_>
        <_>
          19 0 1 13 2.</_></rects>
      <tilted>0</tilted></_>
    <_>
      <rects>
        <_>
          18 0 2 24 -1.</_>
        <_>
          19 0 1 24 2.</_></rects>
      <tilted>0</tilted></_>
    <_>
      <rects>
        <_>
          18 1 6 23 -1.</_>
        <_>
          21 1 3 23 2.</_></rects>
      <tilted>0</tilted></_>
    <_>
      <rects>
        <_>
          18 4 3 13 -1.</_>
        <_>
          19 4 1 13 2.</_></rects>
      <tilted>0</tilted></_>
    <_>
      <rects>
        <_>
          19 2 2 21 -1.</_>
        <_>
          20 2 1 21 2.</_></rects>
      <tilted>0</tilted></_>
    <_>
      <rects>
        <_>
          20 0 3 24 -1.</_>
        <_>
          21 0 1 24 2.</_></rects>
      <tilted>0</tilted></_>
    <_>
      <rects>
        <_>
          20 0 4 24 -1.</_>
        <_>
          22 0 2 24 2.</_></rects>
      <tilted>0</tilted></_>
    <_>
      <rects>
        <_>
          20 1 4 23 -1.</_>
        <_>
          22 1 2 23 2.</_></rects>
      <tilted>0</tilted></_>
    <_>
      <rects>
        <_>
          21 0 3 24 -1.</_>
        <_>
          22 0 1 24 2.</_></rects>
      <tilted>0</tilted></_>
    <_>
      <rects>
        <_>
          21 0 3 24 -1.</_>
        <_>
          21 8 3 8 2.</_></rects>
      <tilted>0</tilted></_>
    <_>
      <rects>
        <_>
          21 1 2 21 -1.</_>
        <_>
          22 1 1 21 2.</_></rects>
      <tilted>0</tilted></_>
    <_>
      <rects>
        <_>
          21 9 2 6 -1.</_>
        <_>
          22 9 1 6 2.</_></rects>
      <tilted>0</tilted></_>
    <_>
      <rects>
        <_>
          22 0 2 23 -1.</_>
        <_>
          23 0 1 23 2.</_></rects>
      <tilted>0</tilted></_>
    <_>
      <rects>
        <_>
          22 0 2 24 -1.</_>
        <_>
          23 0 1 24 2.</_></rects>
      <tilted>0</tilted></_>
    <_>
      <rects>
        <_>
          22 19 2 2 -1.</_>
        <_>
          22 20 2 1 2.</_></rects>
      <tilted>0</tilted></_></features></cascade>
</opencv_storage>
