<?xml version="1.0"?>
<opencv_storage>
<stage7>
  <maxWeakCount>16</maxWeakCount>
  <stageThreshold>-1.4214702844619751e+00</stageThreshold>
  <weakClassifiers>
    <_>
      <internalNodes>
        0 -1 161238 -1.1961723212152719e-03</internalNodes>
      <leafValues>
        1.0213776677846909e-01 -6.2011170387268066e-01</leafValues></_>
    <_>
      <internalNodes>
        0 -1 99122 -9.0799154713749886e-04</internalNodes>
      <leafValues>
        1.4103393256664276e-01 -6.5110534429550171e-01</leafValues></_>
    <_>
      <internalNodes>
        0 -1 238 1.6926791518926620e-02</internalNodes>
      <leafValues>
        -3.7644234299659729e-01 3.3357435464859009e-01</leafValues></_>
    <_>
      <internalNodes>
        0 -1 1086 4.6265381388366222e-03</internalNodes>
      <leafValues>
        -4.4906714558601379e-01 2.3408991098403931e-01</leafValues></_>
    <_>
      <internalNodes>
        0 -1 1085 -1.3325468637049198e-02</internalNodes>
      <leafValues>
        -4.5492407679557800e-01 1.9041340053081512e-01</leafValues></_>
    <_>
      <internalNodes>
        0 -1 151940 -2.6189713389612734e-04</internalNodes>
      <leafValues>
        3.7770846486091614e-01 -2.8097042441368103e-01</leafValues></_>
    <_>
      <internalNodes>
        0 -1 108740 3.2804779708385468e-02</internalNodes>
      <leafValues>
        1.2877757847309113e-01 -8.0777662992477417e-01</leafValues></_>
    <_>
      <internalNodes>
        0 -1 78047 -7.7933780848979950e-03</internalNodes>
      <leafValues>
        2.5165036320686340e-01 -4.2854759097099304e-01</leafValues></_>
    <_>
      <internalNodes>
        0 -1 93964 -1.7742571234703064e-01</internalNodes>
      <leafValues>
        -8.9161574840545654e-01 9.4247154891490936e-02</leafValues></_>
    <_>
      <internalNodes>
        0 -1 157679 -1.1958512914134189e-04</internalNodes>
      <leafValues>
        8.0210842192173004e-02 -8.3741194009780884e-01</leafValues></_>
    <_>
      <internalNodes>
        0 -1 15262 -1.3732224702835083e-02</internalNodes>
      <leafValues>
        1.2268853187561035e-01 -6.3768053054809570e-01</leafValues></_>
    <_>
      <internalNodes>
        0 -1 159847 -3.4361690282821655e-02</internalNodes>
      <leafValues>
        -6.9455403089523315e-01 1.0312578082084656e-01</leafValues></_>
    <_>
      <internalNodes>
        0 -1 147401 1.0313788516214117e-04</internalNodes>
      <leafValues>
        -1.4687325060367584e-01 5.5768018960952759e-01</leafValues></_>
    <_>
      <internalNodes>
        0 -1 25100 -4.8824608325958252e-02</internalNodes>
      <leafValues>
        -6.5417945384979248e-01 9.7219124436378479e-02</leafValues></_>
    <_>
      <internalNodes>
        0 -1 127926 -3.7643348332494497e-04</internalNodes>
      <leafValues>
        3.8577416539192200e-01 -2.1473127603530884e-01</leafValues></_>
    <_>
      <internalNodes>
        0 -1 52050 -8.7662019723211415e-06</internalNodes>
      <leafValues>
        -5.4600960016250610e-01 1.3755714893341064e-01</leafValues></_></weakClassifiers></stage7>
</opencv_storage>
