<?xml version="1.0"?>
<opencv_storage>
<stage6>
  <maxWeakCount>15</maxWeakCount>
  <stageThreshold>-1.0366697311401367e+00</stageThreshold>
  <weakClassifiers>
    <_>
      <internalNodes>
        0 -1 50340 2.0636492408812046e-03</internalNodes>
      <leafValues>
        -5.2752292156219482e-01 1.4868804812431335e-01</leafValues></_>
    <_>
      <internalNodes>
        0 -1 25696 -1.9420112948864698e-03</internalNodes>
      <leafValues>
        3.3011409640312195e-01 -3.1434088945388794e-01</leafValues></_>
    <_>
      <internalNodes>
        0 -1 13103 -6.0734480619430542e-02</internalNodes>
      <leafValues>
        -8.7447899580001831e-01 1.2810739874839783e-01</leafValues></_>
    <_>
      <internalNodes>
        0 -1 8848 1.2725180713459849e-03</internalNodes>
      <leafValues>
        -2.5457173585891724e-01 4.0520393848419189e-01</leafValues></_>
    <_>
      <internalNodes>
        0 -1 159921 -1.2157964520156384e-03</internalNodes>
      <leafValues>
        2.4947184324264526e-01 -3.5650819540023804e-01</leafValues></_>
    <_>
      <internalNodes>
        0 -1 26532 -2.6193025405518711e-05</internalNodes>
      <leafValues>
        3.0119881033897400e-01 -3.2641628384590149e-01</leafValues></_>
    <_>
      <internalNodes>
        0 -1 151128 -1.1583066952880472e-04</internalNodes>
      <leafValues>
        6.3776409626007080e-01 -1.6075745224952698e-01</leafValues></_>
    <_>
      <internalNodes>
        0 -1 1178 -1.4405811205506325e-02</internalNodes>
      <leafValues>
        -4.1640001535415649e-01 2.2612175345420837e-01</leafValues></_>
    <_>
      <internalNodes>
        0 -1 1005 -8.0864261835813522e-03</internalNodes>
      <leafValues>
        -3.5125118494033813e-01 2.6611611247062683e-01</leafValues></_>
    <_>
      <internalNodes>
        0 -1 56141 6.9668807554990053e-05</internalNodes>
      <leafValues>
        -2.1357256174087524e-01 5.8274030685424805e-01</leafValues></_>
    <_>
      <internalNodes>
        0 -1 24905 8.6933860075077973e-06</internalNodes>
      <leafValues>
        2.1974991261959076e-01 -4.2639905214309692e-01</leafValues></_>
    <_>
      <internalNodes>
        0 -1 49472 -2.2224037820706144e-05</internalNodes>
      <leafValues>
        3.0217897891998291e-01 -3.1981375813484192e-01</leafValues></_>
    <_>
      <internalNodes>
        0 -1 7647 9.0507986024022102e-03</internalNodes>
      <leafValues>
        9.7164191305637360e-02 -7.3458749055862427e-01</leafValues></_>
    <_>
      <internalNodes>
        0 -1 81289 6.9933161139488220e-02</internalNodes>
      <leafValues>
        1.0056545585393906e-01 -8.1021058559417725e-01</leafValues></_>
    <_>
      <internalNodes>
        0 -1 93173 7.6888594776391983e-05</internalNodes>
      <leafValues>
        -1.8474774062633514e-01 5.2978175878524780e-01</leafValues></_></weakClassifiers></stage6>
</opencv_storage>
