<?xml version="1.0"?>
<opencv_storage>
<stage9>
  <maxWeakCount>16</maxWeakCount>
  <stageThreshold>-1.1885941028594971e+00</stageThreshold>
  <weakClassifiers>
    <_>
      <internalNodes>
        0 -1 25598 -6.8045617081224918e-03</internalNodes>
      <leafValues>
        8.1967212259769440e-02 -6.0795456171035767e-01</leafValues></_>
    <_>
      <internalNodes>
        0 -1 37960 -5.8535709977149963e-03</internalNodes>
      <leafValues>
        3.7051483988761902e-01 -2.2900186479091644e-01</leafValues></_>
    <_>
      <internalNodes>
        0 -1 13245 -1.8915891647338867e-02</internalNodes>
      <leafValues>
        -5.5550879240036011e-01 1.4722289144992828e-01</leafValues></_>
    <_>
      <internalNodes>
        0 -1 32118 -3.4270063042640686e-02</internalNodes>
      <leafValues>
        2.3237858712673187e-01 -3.9132493734359741e-01</leafValues></_>
    <_>
      <internalNodes>
        0 -1 106519 -1.5299952065106481e-04</internalNodes>
      <leafValues>
        3.8256457448005676e-01 -2.1650750935077667e-01</leafValues></_>
    <_>
      <internalNodes>
        0 -1 56039 -1.3364496827125549e-01</internalNodes>
      <leafValues>
        -6.7690747976303101e-01 1.0333061963319778e-01</leafValues></_>
    <_>
      <internalNodes>
        0 -1 130886 -3.8037040212657303e-05</internalNodes>
      <leafValues>
        5.5011767148971558e-01 -1.6723963618278503e-01</leafValues></_>
    <_>
      <internalNodes>
        0 -1 101479 -6.2357027083635330e-02</internalNodes>
      <leafValues>
        -5.2305442094802856e-01 1.5641443431377411e-01</leafValues></_>
    <_>
      <internalNodes>
        0 -1 106962 -5.2828807383775711e-03</internalNodes>
      <leafValues>
        -5.8334183692932129e-01 1.0379535704851151e-01</leafValues></_>
    <_>
      <internalNodes>
        0 -1 290 -2.8846479952335358e-02</internalNodes>
      <leafValues>
        2.4988022446632385e-01 -3.3090859651565552e-01</leafValues></_>
    <_>
      <internalNodes>
        0 -1 157735 -5.3406134247779846e-03</internalNodes>
      <leafValues>
        2.3575620353221893e-01 -3.9207878708839417e-01</leafValues></_>
    <_>
      <internalNodes>
        0 -1 138271 -6.4771658799145371e-05</internalNodes>
      <leafValues>
        5.4400414228439331e-01 -1.4155822992324829e-01</leafValues></_>
    <_>
      <internalNodes>
        0 -1 147769 8.0798892304301262e-04</internalNodes>
      <leafValues>
        1.4265850186347961e-01 -5.2704542875289917e-01</leafValues></_>
    <_>
      <internalNodes>
        0 -1 97772 2.7812860935227945e-05</internalNodes>
      <leafValues>
        1.3522736728191376e-01 -5.9880834817886353e-01</leafValues></_>
    <_>
      <internalNodes>
        0 -1 32394 -2.1159002184867859e-01</internalNodes>
      <leafValues>
        -8.8363933563232422e-01 7.8316241502761841e-02</leafValues></_>
    <_>
      <internalNodes>
        0 -1 64 3.9483690634369850e-03</internalNodes>
      <leafValues>
        -2.2703818976879120e-01 3.4579619765281677e-01</leafValues></_></weakClassifiers></stage9>
</opencv_storage>
