<?xml version="1.0"?>
<opencv_storage>
<stage8>
  <maxWeakCount>15</maxWeakCount>
  <stageThreshold>-1.1337430477142334e+00</stageThreshold>
  <weakClassifiers>
    <_>
      <internalNodes>
        0 -1 119385 -8.8229071479872800e-06</internalNodes>
      <leafValues>
        -4.2631578445434570e-01 2.4117647111415863e-01</leafValues></_>
    <_>
      <internalNodes>
        0 -1 2111 -1.6262993216514587e-02</internalNodes>
      <leafValues>
        -5.0571262836456299e-01 1.9164909422397614e-01</leafValues></_>
    <_>
      <internalNodes>
        0 -1 61146 6.9073005579411983e-04</internalNodes>
      <leafValues>
        -4.0356460213661194e-01 2.4191585183143616e-01</leafValues></_>
    <_>
      <internalNodes>
        0 -1 2193 6.4767652656883001e-04</internalNodes>
      <leafValues>
        -3.7478122115135193e-01 2.4107195436954498e-01</leafValues></_>
    <_>
      <internalNodes>
        0 -1 14396 1.6684625297784805e-03</internalNodes>
      <leafValues>
        -3.6289459466934204e-01 2.8301253914833069e-01</leafValues></_>
    <_>
      <internalNodes>
        0 -1 157734 -4.4447109103202820e-03</internalNodes>
      <leafValues>
        2.1512411534786224e-01 -4.6293082833290100e-01</leafValues></_>
    <_>
      <internalNodes>
        0 -1 159801 -9.4194468110799789e-03</internalNodes>
      <leafValues>
        -5.3633731603622437e-01 1.7739254236221313e-01</leafValues></_>
    <_>
      <internalNodes>
        0 -1 108988 -7.0107437670230865e-02</internalNodes>
      <leafValues>
        -6.4117425680160522e-01 1.3028743863105774e-01</leafValues></_>
    <_>
      <internalNodes>
        0 -1 22648 -3.8228854537010193e-02</internalNodes>
      <leafValues>
        3.9194774627685547e-01 -3.0265635251998901e-01</leafValues></_>
    <_>
      <internalNodes>
        0 -1 18700 -3.2138556241989136e-02</internalNodes>
      <leafValues>
        5.8321362733840942e-01 -2.4500709772109985e-01</leafValues></_>
    <_>
      <internalNodes>
        0 -1 1087 -2.4643059819936752e-02</internalNodes>
      <leafValues>
        -3.5063800215721130e-01 3.1139963865280151e-01</leafValues></_>
    <_>
      <internalNodes>
        0 -1 60691 8.9979800395667553e-04</internalNodes>
      <leafValues>
        -2.2117969393730164e-01 3.9479681849479675e-01</leafValues></_>
    <_>
      <internalNodes>
        0 -1 56560 -1.2837129831314087e-01</internalNodes>
      <leafValues>
        -8.9688503742218018e-01 9.6770189702510834e-02</leafValues></_>
    <_>
      <internalNodes>
        0 -1 3234 -2.1829474717378616e-02</internalNodes>
      <leafValues>
        -8.7684690952301025e-01 6.3565261662006378e-02</leafValues></_>
    <_>
      <internalNodes>
        0 -1 12995 -2.6616087416186929e-04</internalNodes>
      <leafValues>
        8.1778295338153839e-02 -7.9663205146789551e-01</leafValues></_></weakClassifiers></stage8>
</opencv_storage>
