<?xml version="1.0"?>
<opencv_storage>
<stage3>
  <maxWeakCount>11</maxWeakCount>
  <stageThreshold>-1.1053427457809448e+00</stageThreshold>
  <weakClassifiers>
    <_>
      <internalNodes>
        0 -1 3929 -6.6214462276548147e-04</internalNodes>
      <leafValues>
        4.1288784146308899e-01 -6.1565834283828735e-01</leafValues></_>
    <_>
      <internalNodes>
        0 -1 31952 -6.3831539591774344e-04</internalNodes>
      <leafValues>
        3.3539155125617981e-01 -4.8627525568008423e-01</leafValues></_>
    <_>
      <internalNodes>
        0 -1 31274 -2.8056684881448746e-02</internalNodes>
      <leafValues>
        -6.1808502674102783e-01 3.5444900393486023e-01</leafValues></_>
    <_>
      <internalNodes>
        0 -1 9899 -4.9077540636062622e-02</internalNodes>
      <leafValues>
        5.2974474430084229e-01 -3.3242821693420410e-01</leafValues></_>
    <_>
      <internalNodes>
        0 -1 2939 1.3633087277412415e-02</internalNodes>
      <leafValues>
        -2.4351201951503754e-01 7.9173284769058228e-01</leafValues></_>
    <_>
      <internalNodes>
        0 -1 503 -1.6826819628477097e-02</internalNodes>
      <leafValues>
        -8.0533927679061890e-01 2.1436856687068939e-01</leafValues></_>
    <_>
      <internalNodes>
        0 -1 624 5.9243485331535339e-02</internalNodes>
      <leafValues>
        -1.7444396018981934e-01 8.2189697027206421e-01</leafValues></_>
    <_>
      <internalNodes>
        0 -1 19856 -1.2086561322212219e-01</internalNodes>
      <leafValues>
        5.5224686861038208e-01 -2.6112779974937439e-01</leafValues></_>
    <_>
      <internalNodes>
        0 -1 32312 6.2632389017380774e-05</internalNodes>
      <leafValues>
        -2.1559618413448334e-01 5.7007747888565063e-01</leafValues></_>
    <_>
      <internalNodes>
        0 -1 31299 -9.5778517425060272e-04</internalNodes>
      <leafValues>
        3.2192784547805786e-01 -3.9962142705917358e-01</leafValues></_>
    <_>
      <internalNodes>
        0 -1 469 3.5280650481581688e-03</internalNodes>
      <leafValues>
        -4.0858796238899231e-01 2.6140448451042175e-01</leafValues></_></weakClassifiers></stage3>
</opencv_storage>
