<?xml version="1.0"?>
<opencv_storage>
<stage4>
  <maxWeakCount>10</maxWeakCount>
  <stageThreshold>-8.8525795936584473e-01</stageThreshold>
  <weakClassifiers>
    <_>
      <internalNodes>
        0 -1 79 -1.1089762672781944e-02</internalNodes>
      <leafValues>
        -6.7968750000000000e-01 2.0258620381355286e-01</leafValues></_>
    <_>
      <internalNodes>
        0 -1 13295 -1.4022201299667358e-02</internalNodes>
      <leafValues>
        -6.3581395149230957e-01 2.0952369272708893e-01</leafValues></_>
    <_>
      <internalNodes>
        0 -1 37771 -3.8295524427667260e-04</internalNodes>
      <leafValues>
        3.7115663290023804e-01 -6.2403523921966553e-01</leafValues></_>
    <_>
      <internalNodes>
        0 -1 20309 3.7018980947323143e-04</internalNodes>
      <leafValues>
        -4.0589445829391479e-01 3.6073979735374451e-01</leafValues></_>
    <_>
      <internalNodes>
        0 -1 5871 -4.8712274292483926e-05</internalNodes>
      <leafValues>
        4.2819878458976746e-01 -3.0254274606704712e-01</leafValues></_>
    <_>
      <internalNodes>
        0 -1 71504 1.6973903402686119e-03</internalNodes>
      <leafValues>
        -3.6866003274917603e-01 3.9300799369812012e-01</leafValues></_>
    <_>
      <internalNodes>
        0 -1 9989 -8.0929603427648544e-03</internalNodes>
      <leafValues>
        -2.3639070987701416e-01 5.8107846975326538e-01</leafValues></_>
    <_>
      <internalNodes>
        0 -1 1085 -1.0038727894425392e-02</internalNodes>
      <leafValues>
        -5.0348246097564697e-01 2.0480650663375854e-01</leafValues></_>
    <_>
      <internalNodes>
        0 -1 27703 5.4052140330895782e-04</internalNodes>
      <leafValues>
        -3.8793694972991943e-01 4.1773304343223572e-01</leafValues></_>
    <_>
      <internalNodes>
        0 -1 159805 -1.1121676303446293e-02</internalNodes>
      <leafValues>
        -5.4503750801086426e-01 2.0818369090557098e-01</leafValues></_></weakClassifiers></stage4>
</opencv_storage>
