<?xml version="1.0"?>
<opencv_storage>
<stage6>
  <maxWeakCount>15</maxWeakCount>
  <stageThreshold>-1.0528171062469482e+00</stageThreshold>
  <weakClassifiers>
    <_>
      <internalNodes>
        0 -1 31998 -8.3081441698595881e-04</internalNodes>
      <leafValues>
        2.8859061002731323e-01 -5.0988143682479858e-01</leafValues></_>
    <_>
      <internalNodes>
        0 -1 4374 1.2815489899367094e-03</internalNodes>
      <leafValues>
        -5.2603310346603394e-01 1.9156086444854736e-01</leafValues></_>
    <_>
      <internalNodes>
        0 -1 51 5.9896567836403847e-04</internalNodes>
      <leafValues>
        -5.3183746337890625e-01 2.8803613781929016e-01</leafValues></_>
    <_>
      <internalNodes>
        0 -1 150 7.3223255574703217e-02</internalNodes>
      <leafValues>
        -1.7734903097152710e-01 8.1963098049163818e-01</leafValues></_>
    <_>
      <internalNodes>
        0 -1 7795 -5.1389578729867935e-02</internalNodes>
      <leafValues>
        -3.0126076936721802e-01 4.4602587819099426e-01</leafValues></_>
    <_>
      <internalNodes>
        0 -1 23598 -3.0468450859189034e-05</internalNodes>
      <leafValues>
        -2.2420880198478699e-01 4.4463148713111877e-01</leafValues></_>
    <_>
      <internalNodes>
        0 -1 32288 1.2796268856618553e-04</internalNodes>
      <leafValues>
        -2.8814092278480530e-01 3.0347970128059387e-01</leafValues></_>
    <_>
      <internalNodes>
        0 -1 16627 5.5216327309608459e-02</internalNodes>
      <leafValues>
        -1.4298216998577118e-01 6.7126667499542236e-01</leafValues></_>
    <_>
      <internalNodes>
        0 -1 10925 -1.9357312470674515e-02</internalNodes>
      <leafValues>
        -4.7781077027320862e-01 2.3434223234653473e-01</leafValues></_>
    <_>
      <internalNodes>
        0 -1 3880 -1.2058700667694211e-03</internalNodes>
      <leafValues>
        2.1839554607868195e-01 -5.9912842512130737e-01</leafValues></_>
    <_>
      <internalNodes>
        0 -1 375 1.5638303756713867e-01</internalNodes>
      <leafValues>
        -2.4505738914012909e-01 3.4324544668197632e-01</leafValues></_>
    <_>
      <internalNodes>
        0 -1 11956 -3.5195380449295044e-02</internalNodes>
      <leafValues>
        3.4924671053886414e-01 -2.8055420517921448e-01</leafValues></_>
    <_>
      <internalNodes>
        0 -1 31276 -1.1121017159894109e-03</internalNodes>
      <leafValues>
        1.3459224998950958e-01 -5.6313902139663696e-01</leafValues></_>
    <_>
      <internalNodes>
        0 -1 5168 -3.4425068646669388e-02</internalNodes>
      <leafValues>
        -4.0205338597297668e-01 2.1556840837001801e-01</leafValues></_>
    <_>
      <internalNodes>
        0 -1 5492 -6.7481808364391327e-02</internalNodes>
      <leafValues>
        5.2734518051147461e-01 -1.8611426651477814e-01</leafValues></_></weakClassifiers></stage6>
</opencv_storage>
