<?xml version="1.0"?>
<opencv_storage>
<stage5>
  <maxWeakCount>13</maxWeakCount>
  <stageThreshold>-1.0468508005142212e+00</stageThreshold>
  <weakClassifiers>
    <_>
      <internalNodes>
        0 -1 961 5.8636558242142200e-04</internalNodes>
      <leafValues>
        -5.5033558607101440e-01 4.0796020627021790e-01</leafValues></_>
    <_>
      <internalNodes>
        0 -1 14405 3.3590249950066209e-04</internalNodes>
      <leafValues>
        -4.9155959486961365e-01 3.8501852750778198e-01</leafValues></_>
    <_>
      <internalNodes>
        0 -1 9502 -1.8777653574943542e-01</internalNodes>
      <leafValues>
        9.6372807025909424e-01 -1.2304230779409409e-01</leafValues></_>
    <_>
      <internalNodes>
        0 -1 31276 -2.6749771088361740e-02</internalNodes>
      <leafValues>
        -5.5855160951614380e-01 2.1101345121860504e-01</leafValues></_>
    <_>
      <internalNodes>
        0 -1 27615 -6.1056198319420218e-04</internalNodes>
      <leafValues>
        4.2440906167030334e-01 -2.5694969296455383e-01</leafValues></_>
    <_>
      <internalNodes>
        0 -1 14014 -8.0116409808397293e-03</internalNodes>
      <leafValues>
        -6.0823255777359009e-01 1.4611066877841949e-01</leafValues></_>
    <_>
      <internalNodes>
        0 -1 3930 -1.8368007149547338e-03</internalNodes>
      <leafValues>
        2.8694748878479004e-01 -4.4532141089439392e-01</leafValues></_>
    <_>
      <internalNodes>
        0 -1 22498 -1.7432022094726563e-01</internalNodes>
      <leafValues>
        8.3593195676803589e-01 -1.5104146301746368e-01</leafValues></_>
    <_>
      <internalNodes>
        0 -1 10857 -2.3159425705671310e-02</internalNodes>
      <leafValues>
        -2.9547861218452454e-01 3.1149369478225708e-01</leafValues></_>
    <_>
      <internalNodes>
        0 -1 10724 3.2755010761320591e-04</internalNodes>
      <leafValues>
        -2.5474971532821655e-01 3.8088172674179077e-01</leafValues></_>
    <_>
      <internalNodes>
        0 -1 25279 -7.6943702995777130e-02</internalNodes>
      <leafValues>
        6.3695460557937622e-01 -1.4826974272727966e-01</leafValues></_>
    <_>
      <internalNodes>
        0 -1 468 -1.2387331807985902e-03</internalNodes>
      <leafValues>
        1.7585670948028564e-01 -4.7487479448318481e-01</leafValues></_>
    <_>
      <internalNodes>
        0 -1 4362 -1.3270305469632149e-02</internalNodes>
      <leafValues>
        -4.2108160257339478e-01 3.2617181539535522e-01</leafValues></_></weakClassifiers></stage5>
</opencv_storage>
