<?xml version="1.0"?>
<opencv_storage>
<stage8>
  <maxWeakCount>20</maxWeakCount>
  <stageThreshold>-1.0338215827941895e+00</stageThreshold>
  <weakClassifiers>
    <_>
      <internalNodes>
        0 -1 9507 -2.3104837536811829e-01</internalNodes>
      <leafValues>
        8.9130437374114990e-01 -1.3486842811107635e-01</leafValues></_>
    <_>
      <internalNodes>
        0 -1 17854 -2.0901744067668915e-01</internalNodes>
      <leafValues>
        8.9037084579467773e-01 -1.1208992451429367e-01</leafValues></_>
    <_>
      <internalNodes>
        0 -1 11348 4.1374645661562681e-04</internalNodes>
      <leafValues>
        -3.8699951767921448e-01 2.3553235828876495e-01</leafValues></_>
    <_>
      <internalNodes>
        0 -1 503 6.1110367823857814e-05</internalNodes>
      <leafValues>
        -2.1677240729331970e-01 4.2711508274078369e-01</leafValues></_>
    <_>
      <internalNodes>
        0 -1 503 -1.3560493243858218e-04</internalNodes>
      <leafValues>
        3.1198281049728394e-01 -3.1687912344932556e-01</leafValues></_>
    <_>
      <internalNodes>
        0 -1 528 -1.6013633459806442e-02</internalNodes>
      <leafValues>
        -3.3795091509819031e-01 2.9291275143623352e-01</leafValues></_>
    <_>
      <internalNodes>
        0 -1 4382 1.1596388369798660e-01</internalNodes>
      <leafValues>
        -3.1156685948371887e-01 2.7125719189643860e-01</leafValues></_>
    <_>
      <internalNodes>
        0 -1 30626 -2.4031572043895721e-02</internalNodes>
      <leafValues>
        -3.8058829307556152e-01 2.6436737179756165e-01</leafValues></_>
    <_>
      <internalNodes>
        0 -1 528 -8.8751805014908314e-04</internalNodes>
      <leafValues>
        1.0449080169200897e-01 -5.3817737102508545e-01</leafValues></_>
    <_>
      <internalNodes>
        0 -1 4699 1.2886406481266022e-01</internalNodes>
      <leafValues>
        -1.6965068876743317e-01 5.4904252290725708e-01</leafValues></_>
    <_>
      <internalNodes>
        0 -1 28796 -5.2420455962419510e-02</internalNodes>
      <leafValues>
        -5.2166068553924561e-01 1.5109017491340637e-01</leafValues></_>
    <_>
      <internalNodes>
        0 -1 11288 6.7682728171348572e-02</internalNodes>
      <leafValues>
        -7.2682864964008331e-02 7.8112012147903442e-01</leafValues></_>
    <_>
      <internalNodes>
        0 -1 22629 -1.5004420652985573e-02</internalNodes>
      <leafValues>
        -7.5071012973785400e-01 9.7745746374130249e-02</leafValues></_>
    <_>
      <internalNodes>
        0 -1 12483 -2.7308014035224915e-01</internalNodes>
      <leafValues>
        9.5933526754379272e-01 -9.3015238642692566e-02</leafValues></_>
    <_>
      <internalNodes>
        0 -1 7581 2.8037138690706342e-05</internalNodes>
      <leafValues>
        -2.1551506221294403e-01 3.8020703196525574e-01</leafValues></_>
    <_>
      <internalNodes>
        0 -1 20087 4.9280315637588501e-02</internalNodes>
      <leafValues>
        -1.3367645442485809e-01 6.3046681880950928e-01</leafValues></_>
    <_>
      <internalNodes>
        0 -1 4374 -7.6900923158973455e-04</internalNodes>
      <leafValues>
        8.9680570363998413e-01 -7.0092052221298218e-02</leafValues></_>
    <_>
      <internalNodes>
        0 -1 7571 -2.2508128313347697e-04</internalNodes>
      <leafValues>
        2.0762465894222260e-01 -3.6036348342895508e-01</leafValues></_>
    <_>
      <internalNodes>
        0 -1 31268 -1.2985995970666409e-02</internalNodes>
      <leafValues>
        -3.6433914303779602e-01 1.9096006453037262e-01</leafValues></_>
    <_>
      <internalNodes>
        0 -1 31276 -1.3046737294644117e-03</internalNodes>
      <leafValues>
        1.3702505826950073e-01 -5.6577467918395996e-01</leafValues></_></weakClassifiers></stage8>
</opencv_storage>
