<?xml version="1.0"?>
<opencv_storage>
<stage1>
  <maxWeakCount>5</maxWeakCount>
  <stageThreshold>-1.1338530778884888e+00</stageThreshold>
  <weakClassifiers>
    <_>
      <internalNodes>
        0 -1 523 5.4392451420426369e-04</internalNodes>
      <leafValues>
        -6.3157892227172852e-01 4.8484849929809570e-01</leafValues></_>
    <_>
      <internalNodes>
        0 -1 468 -2.7077551931142807e-02</internalNodes>
      <leafValues>
        -7.7350211143493652e-01 4.4784021377563477e-01</leafValues></_>
    <_>
      <internalNodes>
        0 -1 7946 1.3301785802468657e-03</internalNodes>
      <leafValues>
        -5.7101082801818848e-01 5.1879698038101196e-01</leafValues></_>
    <_>
      <internalNodes>
        0 -1 52 -2.8547070920467377e-02</internalNodes>
      <leafValues>
        -7.0005983114242554e-01 4.1879054903984070e-01</leafValues></_>
    <_>
      <internalNodes>
        0 -1 3880 -2.8460822999477386e-02</internalNodes>
      <leafValues>
        -6.9297927618026733e-01 3.6277022957801819e-01</leafValues></_></weakClassifiers></stage1>
</opencv_storage>
