<?xml version="1.0"?>
<opencv_storage>
<stage2>
  <maxWeakCount>8</maxWeakCount>
  <stageThreshold>-1.1399298906326294e+00</stageThreshold>
  <weakClassifiers>
    <_>
      <internalNodes>
        0 -1 467 8.0498744500800967e-04</internalNodes>
      <leafValues>
        -6.7944252490997314e-01 4.7215497493743896e-01</leafValues></_>
    <_>
      <internalNodes>
        0 -1 32039 -5.2792718634009361e-04</internalNodes>
      <leafValues>
        4.6791949868202209e-01 -5.7783830165863037e-01</leafValues></_>
    <_>
      <internalNodes>
        0 -1 49 1.7983104335144162e-03</internalNodes>
      <leafValues>
        -5.2745896577835083e-01 3.4711146354675293e-01</leafValues></_>
    <_>
      <internalNodes>
        0 -1 17055 -4.0433515096083283e-04</internalNodes>
      <leafValues>
        4.9112051725387573e-01 -3.7136065959930420e-01</leafValues></_>
    <_>
      <internalNodes>
        0 -1 7525 -2.6846030727028847e-02</internalNodes>
      <leafValues>
        -6.4102923870086670e-01 2.8709885478019714e-01</leafValues></_>
    <_>
      <internalNodes>
        0 -1 7523 -6.8557809572666883e-04</internalNodes>
      <leafValues>
        2.0651601254940033e-01 -6.7699122428894043e-01</leafValues></_>
    <_>
      <internalNodes>
        0 -1 52 -2.3725621402263641e-02</internalNodes>
      <leafValues>
        -5.9607422351837158e-01 2.6175862550735474e-01</leafValues></_>
    <_>
      <internalNodes>
        0 -1 52 -1.3989228755235672e-03</internalNodes>
      <leafValues>
        2.8182318806648254e-01 -6.8624407052993774e-01</leafValues></_></weakClassifiers></stage2>
</opencv_storage>
