<?xml version="1.0"?>
<opencv_storage>
<stage10>
  <maxWeakCount>18</maxWeakCount>
  <stageThreshold>-9.3765461444854736e-01</stageThreshold>
  <weakClassifiers>
    <_>
      <internalNodes>
        0 -1 9760 -1.7318369448184967e-01</internalNodes>
      <leafValues>
        9.5180720090866089e-01 -1.2803889811038971e-01</leafValues></_>
    <_>
      <internalNodes>
        0 -1 17934 -3.2524347305297852e-01</internalNodes>
      <leafValues>
        7.8217631578445435e-01 -1.5655997395515442e-01</leafValues></_>
    <_>
      <internalNodes>
        0 -1 467 4.7474956954829395e-04</internalNodes>
      <leafValues>
        -4.4091314077377319e-01 2.5868356227874756e-01</leafValues></_>
    <_>
      <internalNodes>
        0 -1 49 1.1737775057554245e-03</internalNodes>
      <leafValues>
        -5.0319886207580566e-01 1.2122546136379242e-01</leafValues></_>
    <_>
      <internalNodes>
        0 -1 302 -1.3824194669723511e-02</internalNodes>
      <leafValues>
        -7.0207554101943970e-01 1.0356922447681427e-01</leafValues></_>
    <_>
      <internalNodes>
        0 -1 4092 3.7635136395692825e-02</internalNodes>
      <leafValues>
        -9.3294136226177216e-02 7.3585814237594604e-01</leafValues></_>
    <_>
      <internalNodes>
        0 -1 2644 6.2625542283058167e-02</internalNodes>
      <leafValues>
        -7.6577030122280121e-02 7.5342756509780884e-01</leafValues></_>
    <_>
      <internalNodes>
        0 -1 4336 -4.9058772856369615e-04</internalNodes>
      <leafValues>
        1.9071419537067413e-01 -3.5749921202659607e-01</leafValues></_>
    <_>
      <internalNodes>
        0 -1 5722 7.7017173171043396e-02</internalNodes>
      <leafValues>
        -2.5984883308410645e-01 2.6053062081336975e-01</leafValues></_>
    <_>
      <internalNodes>
        0 -1 17013 -1.2131936848163605e-02</internalNodes>
      <leafValues>
        -3.9646565914154053e-01 2.4059818685054779e-01</leafValues></_>
    <_>
      <internalNodes>
        0 -1 6465 -7.1106493123807013e-05</internalNodes>
      <leafValues>
        -1.9089633226394653e-01 3.3763584494590759e-01</leafValues></_>
    <_>
      <internalNodes>
        0 -1 503 1.0494614252820611e-04</internalNodes>
      <leafValues>
        -2.1976405382156372e-01 3.4839674830436707e-01</leafValues></_>
    <_>
      <internalNodes>
        0 -1 27781 -2.6054245608975179e-05</internalNodes>
      <leafValues>
        -2.1540011465549469e-01 3.1555137038230896e-01</leafValues></_>
    <_>
      <internalNodes>
        0 -1 18591 -6.9014221429824829e-02</internalNodes>
      <leafValues>
        5.0558155775070190e-01 -1.3596120476722717e-01</leafValues></_>
    <_>
      <internalNodes>
        0 -1 20168 -1.1685284972190857e-01</internalNodes>
      <leafValues>
        3.7544843554496765e-01 -1.7833155393600464e-01</leafValues></_>
    <_>
      <internalNodes>
        0 -1 27301 -4.2747784405946732e-02</internalNodes>
      <leafValues>
        3.6270099878311157e-01 -2.4688631296157837e-01</leafValues></_>
    <_>
      <internalNodes>
        0 -1 23571 -1.2395170517265797e-02</internalNodes>
      <leafValues>
        -5.1076602935791016e-01 1.1314860731363297e-01</leafValues></_>
    <_>
      <internalNodes>
        0 -1 17720 1.4635595493018627e-02</internalNodes>
      <leafValues>
        4.9118705093860626e-02 -8.8463270664215088e-01</leafValues></_></weakClassifiers></stage10>
</opencv_storage>
