<?xml version="1.0"?>
<opencv_storage>
<stage6>
  <maxWeakCount>12</maxWeakCount>
  <stageThreshold>-1.2476923465728760e+00</stageThreshold>
  <weakClassifiers>
    <_>
      <internalNodes>
        0 -1 161311 -1.5172088751569390e-03</internalNodes>
      <leafValues>
        3.1620554625988007e-02 -6.7279410362243652e-01</leafValues></_>
    <_>
      <internalNodes>
        0 -1 39854 1.3213967904448509e-03</internalNodes>
      <leafValues>
        -3.0979898571968079e-01 4.1086918115615845e-01</leafValues></_>
    <_>
      <internalNodes>
        0 -1 126662 -9.1914800577796996e-05</internalNodes>
      <leafValues>
        3.0126032233238220e-01 -4.0585246682167053e-01</leafValues></_>
    <_>
      <internalNodes>
        0 -1 2021 -2.3228237114381045e-04</internalNodes>
      <leafValues>
        1.5086637437343597e-01 -6.7957442998886108e-01</leafValues></_>
    <_>
      <internalNodes>
        0 -1 74759 1.0283447802066803e-02</internalNodes>
      <leafValues>
        1.7001865804195404e-01 -7.3813921213150024e-01</leafValues></_>
    <_>
      <internalNodes>
        0 -1 125752 1.3746846525464207e-04</internalNodes>
      <leafValues>
        -2.2293737530708313e-01 6.5820062160491943e-01</leafValues></_>
    <_>
      <internalNodes>
        0 -1 78461 -1.5294519066810608e-01</internalNodes>
      <leafValues>
        -8.6826872825622559e-01 1.7099459469318390e-01</leafValues></_>
    <_>
      <internalNodes>
        0 -1 86774 1.1306167289149016e-04</internalNodes>
      <leafValues>
        -2.2601361572742462e-01 5.1924401521682739e-01</leafValues></_>
    <_>
      <internalNodes>
        0 -1 159208 -1.5660875942558050e-04</internalNodes>
      <leafValues>
        5.4114073514938354e-01 -1.8791553378105164e-01</leafValues></_>
    <_>
      <internalNodes>
        0 -1 66066 -1.6785198450088501e-01</internalNodes>
      <leafValues>
        -9.0359789133071899e-01 1.2472909688949585e-01</leafValues></_>
    <_>
      <internalNodes>
        0 -1 12649 -4.3761456618085504e-04</internalNodes>
      <leafValues>
        5.5061298608779907e-01 -2.1383692324161530e-01</leafValues></_>
    <_>
      <internalNodes>
        0 -1 125609 -1.3601174578070641e-04</internalNodes>
      <leafValues>
        5.7589298486709595e-01 -2.0632095634937286e-01</leafValues></_></weakClassifiers></stage6>
</opencv_storage>
