<?xml version="1.0"?>
<opencv_storage>
<stage1>
  <maxWeakCount>7</maxWeakCount>
  <stageThreshold>-1.7320865392684937e+00</stageThreshold>
  <weakClassifiers>
    <_>
      <internalNodes>
        0 -1 25601 -9.0298894792795181e-03</internalNodes>
      <leafValues>
        3.8797813653945923e-01 -7.1929824352264404e-01</leafValues></_>
    <_>
      <internalNodes>
        0 -1 14356 2.6679752045311034e-04</internalNodes>
      <leafValues>
        -6.2484049797058105e-01 5.4996454715728760e-01</leafValues></_>
    <_>
      <internalNodes>
        0 -1 159913 -7.1164441760629416e-04</internalNodes>
      <leafValues>
        5.4234302043914795e-01 -4.7532221674919128e-01</leafValues></_>
    <_>
      <internalNodes>
        0 -1 2189 2.3542470298707485e-03</internalNodes>
      <leafValues>
        -3.7673261761665344e-01 6.3956552743911743e-01</leafValues></_>
    <_>
      <internalNodes>
        0 -1 497 -4.7839768230915070e-02</internalNodes>
      <leafValues>
        -8.5547566413879395e-01 2.5886043906211853e-01</leafValues></_>
    <_>
      <internalNodes>
        0 -1 152952 -1.1885028652613983e-04</internalNodes>
      <leafValues>
        4.4975566864013672e-01 -4.4478073716163635e-01</leafValues></_>
    <_>
      <internalNodes>
        0 -1 37600 -5.7654560077935457e-04</internalNodes>
      <leafValues>
        4.8457777500152588e-01 -3.6763787269592285e-01</leafValues></_></weakClassifiers></stage1>
</opencv_storage>
