<?xml version="1.0"?>
<opencv_storage>
<stage18>
  <maxWeakCount>11</maxWeakCount>
  <stageThreshold>-1.0102150440216064e+00</stageThreshold>
  <weakClassifiers>
    <_>
      <internalNodes>
        0 -1 95635 -2.1662500512320548e-04</internalNodes>
      <leafValues>
        1. -4.8936170339584351e-01</leafValues></_>
    <_>
      <internalNodes>
        0 -1 159903 -2.9434282332658768e-03</internalNodes>
      <leafValues>
        6.9115006923675537e-01 -2.9351571202278137e-01</leafValues></_>
    <_>
      <internalNodes>
        0 -1 33908 -7.5460009975358844e-04</internalNodes>
      <leafValues>
        5.7296109199523926e-01 -2.7412343025207520e-01</leafValues></_>
    <_>
      <internalNodes>
        0 -1 14721 1.6453874995931983e-03</internalNodes>
      <leafValues>
        -3.1356453895568848e-01 5.8322465419769287e-01</leafValues></_>
    <_>
      <internalNodes>
        0 -1 49355 -2.1974961273372173e-03</internalNodes>
      <leafValues>
        7.0740789175033569e-01 -1.9724006950855255e-01</leafValues></_>
    <_>
      <internalNodes>
        0 -1 151029 4.1488332499284297e-05</internalNodes>
      <leafValues>
        -2.3298953473567963e-01 7.3692172765731812e-01</leafValues></_>
    <_>
      <internalNodes>
        0 -1 44759 9.8560964688658714e-03</internalNodes>
      <leafValues>
        4.3534702062606812e-01 -4.1052395105361938e-01</leafValues></_>
    <_>
      <internalNodes>
        0 -1 157279 8.6986750829964876e-05</internalNodes>
      <leafValues>
        -1.9062379002571106e-01 9.2012321949005127e-01</leafValues></_>
    <_>
      <internalNodes>
        0 -1 133032 8.1560850958339870e-05</internalNodes>
      <leafValues>
        -2.0272335410118103e-01 8.4785211086273193e-01</leafValues></_>
    <_>
      <internalNodes>
        0 -1 97594 7.3576364666223526e-03</internalNodes>
      <leafValues>
        3.8268649578094482e-01 -4.3088284134864807e-01</leafValues></_>
    <_>
      <internalNodes>
        0 -1 91118 8.0611929297447205e-02</internalNodes>
      <leafValues>
        3.6589363217353821e-01 -5.3069382905960083e-01</leafValues></_></weakClassifiers></stage18>
</opencv_storage>
