<?xml version="1.0"?>
<opencv_storage>
<stage4>
  <maxWeakCount>9</maxWeakCount>
  <stageThreshold>-1.0563563108444214e+00</stageThreshold>
  <weakClassifiers>
    <_>
      <internalNodes>
        0 -1 1966 5.6427274830639362e-04</internalNodes>
      <leafValues>
        -6.2403696775436401e-01 1.3715711236000061e-01</leafValues></_>
    <_>
      <internalNodes>
        0 -1 152962 -2.9738841112703085e-04</internalNodes>
      <leafValues>
        3.6362436413764954e-01 -4.1540226340293884e-01</leafValues></_>
    <_>
      <internalNodes>
        0 -1 25784 -3.5153090720996261e-04</internalNodes>
      <leafValues>
        3.1423887610435486e-01 -4.4263225793838501e-01</leafValues></_>
    <_>
      <internalNodes>
        0 -1 104398 1.0774852125905454e-04</internalNodes>
      <leafValues>
        -2.0225644111633301e-01 7.1053373813629150e-01</leafValues></_>
    <_>
      <internalNodes>
        0 -1 87237 -1.0953345190500841e-04</internalNodes>
      <leafValues>
        6.0216468572616577e-01 -1.9890633225440979e-01</leafValues></_>
    <_>
      <internalNodes>
        0 -1 22178 5.9196259826421738e-04</internalNodes>
      <leafValues>
        -2.9851222038269043e-01 4.5094025135040283e-01</leafValues></_>
    <_>
      <internalNodes>
        0 -1 1085 -1.5462790615856647e-02</internalNodes>
      <leafValues>
        -5.9180086851119995e-01 2.0415398478507996e-01</leafValues></_>
    <_>
      <internalNodes>
        0 -1 161222 -1.7087747983168811e-04</internalNodes>
      <leafValues>
        4.7155478596687317e-01 -2.6355004310607910e-01</leafValues></_>
    <_>
      <internalNodes>
        0 -1 113081 -1.4896229549776763e-04</internalNodes>
      <leafValues>
        5.5769354104995728e-01 -2.7242898941040039e-01</leafValues></_></weakClassifiers></stage4>
</opencv_storage>
