<?xml version="1.0"?>
<opencv_storage>
<stage4>
  <maxWeakCount>11</maxWeakCount>
  <stageThreshold>-8.9862883090972900e-01</stageThreshold>
  <weakClassifiers>
    <_>
      <internalNodes>
        0 -1 13368 -4.3944641947746277e-03</internalNodes>
      <leafValues>
        2.7586206793785095e-01 -4.5525291562080383e-01</leafValues></_>
    <_>
      <internalNodes>
        0 -1 161237 -4.6131396666169167e-03</internalNodes>
      <leafValues>
        4.5369464159011841e-01 -3.1147322058677673e-01</leafValues></_>
    <_>
      <internalNodes>
        0 -1 132554 4.6825552999507636e-05</internalNodes>
      <leafValues>
        -1.8261021375656128e-01 6.0490077733993530e-01</leafValues></_>
    <_>
      <internalNodes>
        0 -1 132554 -2.6548612368060276e-05</internalNodes>
      <leafValues>
        6.2454730272293091e-01 -2.2807389497756958e-01</leafValues></_>
    <_>
      <internalNodes>
        0 -1 6160 -7.4396245181560516e-02</internalNodes>
      <leafValues>
        -8.9665073156356812e-01 1.6008566319942474e-01</leafValues></_>
    <_>
      <internalNodes>
        0 -1 1809 1.3649353059008718e-04</internalNodes>
      <leafValues>
        -2.9556068778038025e-01 3.9874434471130371e-01</leafValues></_>
    <_>
      <internalNodes>
        0 -1 1085 -9.1184610500931740e-03</internalNodes>
      <leafValues>
        -3.4322562813758850e-01 3.8565072417259216e-01</leafValues></_>
    <_>
      <internalNodes>
        0 -1 61737 2.4848949396982789e-04</internalNodes>
      <leafValues>
        -2.2331708669662476e-01 5.2721881866455078e-01</leafValues></_>
    <_>
      <internalNodes>
        0 -1 38652 -2.2447027731686831e-05</internalNodes>
      <leafValues>
        2.9780203104019165e-01 -3.6779165267944336e-01</leafValues></_>
    <_>
      <internalNodes>
        0 -1 81836 -7.8889220952987671e-02</internalNodes>
      <leafValues>
        -7.0947152376174927e-01 1.9255189597606659e-01</leafValues></_>
    <_>
      <internalNodes>
        0 -1 79894 -6.5240106778219342e-05</internalNodes>
      <leafValues>
        6.2018090486526489e-01 -2.0385979115962982e-01</leafValues></_></weakClassifiers></stage4>
</opencv_storage>
