<?xml version="1.0"?>
<opencv_storage>
<stage0>
  <maxWeakCount>5</maxWeakCount>
  <stageThreshold>-1.8669703006744385e+00</stageThreshold>
  <weakClassifiers>
    <_>
      <internalNodes>
        0 -1 3260 1.1851869057863951e-03</internalNodes>
      <leafValues>
        -8.1583195924758911e-01 3.5962876677513123e-01</leafValues></_>
    <_>
      <internalNodes>
        0 -1 104276 -2.3181532742455602e-04</internalNodes>
      <leafValues>
        3.9056378602981567e-01 -8.2975131273269653e-01</leafValues></_>
    <_>
      <internalNodes>
        0 -1 161238 -3.2436454785056412e-04</internalNodes>
      <leafValues>
        4.5687100291252136e-01 -6.1922752857208252e-01</leafValues></_>
    <_>
      <internalNodes>
        0 -1 50068 -1.0131593626283575e-05</internalNodes>
      <leafValues>
        5.1594173908233643e-01 -4.7586503624916077e-01</leafValues></_>
    <_>
      <internalNodes>
        0 -1 53444 2.3617627448402345e-04</internalNodes>
      <leafValues>
        -3.4660959243774414e-01 6.7968124151229858e-01</leafValues></_></weakClassifiers></stage0>
</opencv_storage>
