<?xml version="1.0"?>
<opencv_storage>
<stage2>
  <maxWeakCount>10</maxWeakCount>
  <stageThreshold>-1.8152111768722534e+00</stageThreshold>
  <weakClassifiers>
    <_>
      <internalNodes>
        0 -1 25785 -6.7122571635991335e-04</internalNodes>
      <leafValues>
        1.4526316523551941e-01 -7.2869563102722168e-01</leafValues></_>
    <_>
      <internalNodes>
        0 -1 1252 4.5363013632595539e-03</internalNodes>
      <leafValues>
        -6.1216974258422852e-01 3.0803984403610229e-01</leafValues></_>
    <_>
      <internalNodes>
        0 -1 111050 -2.7632543351501226e-03</internalNodes>
      <leafValues>
        2.6108944416046143e-01 -6.7132669687271118e-01</leafValues></_>
    <_>
      <internalNodes>
        0 -1 161235 -3.2576202647760510e-04</internalNodes>
      <leafValues>
        3.9569118618965149e-01 -4.2824679613113403e-01</leafValues></_>
    <_>
      <internalNodes>
        0 -1 5610 2.6735186111181974e-04</internalNodes>
      <leafValues>
        -3.4265065193176270e-01 4.8268741369247437e-01</leafValues></_>
    <_>
      <internalNodes>
        0 -1 77821 2.5304578593932092e-04</internalNodes>
      <leafValues>
        -2.5848492980003357e-01 6.0835820436477661e-01</leafValues></_>
    <_>
      <internalNodes>
        0 -1 61246 4.7485437244176865e-03</internalNodes>
      <leafValues>
        -3.9080184698104858e-01 4.0394884347915649e-01</leafValues></_>
    <_>
      <internalNodes>
        0 -1 37606 -3.3938180422410369e-04</internalNodes>
      <leafValues>
        4.0805071592330933e-01 -3.2957863807678223e-01</leafValues></_>
    <_>
      <internalNodes>
        0 -1 7146 5.7045905850827694e-03</internalNodes>
      <leafValues>
        -4.0604066848754883e-01 3.6547741293907166e-01</leafValues></_>
    <_>
      <internalNodes>
        0 -1 50068 -1.0131593626283575e-05</internalNodes>
      <leafValues>
        3.4731358289718628e-01 -3.7380000948905945e-01</leafValues></_></weakClassifiers></stage2>
</opencv_storage>
