<?xml version="1.0"?>
<opencv_storage>
<stage5>
  <maxWeakCount>8</maxWeakCount>
  <stageThreshold>-9.7786015272140503e-01</stageThreshold>
  <weakClassifiers>
    <_>
      <internalNodes>
        0 -1 236 3.4938674420118332e-02</internalNodes>
      <leafValues>
        -5.8431375026702881e-01 3.4035086631774902e-01</leafValues></_>
    <_>
      <internalNodes>
        0 -1 14356 2.2424291819334030e-04</internalNodes>
      <leafValues>
        -4.9508839845657349e-01 3.0602616071701050e-01</leafValues></_>
    <_>
      <internalNodes>
        0 -1 3197 3.0184672214090824e-03</internalNodes>
      <leafValues>
        -3.5509309172630310e-01 4.2026150226593018e-01</leafValues></_>
    <_>
      <internalNodes>
        0 -1 49278 -7.2435811161994934e-03</internalNodes>
      <leafValues>
        3.5633817315101624e-01 -3.9090508222579956e-01</leafValues></_>
    <_>
      <internalNodes>
        0 -1 6160 -6.5252393484115601e-02</internalNodes>
      <leafValues>
        -8.4859746694564819e-01 2.0325915515422821e-01</leafValues></_>
    <_>
      <internalNodes>
        0 -1 98250 -1.3297205441631377e-04</internalNodes>
      <leafValues>
        2.8846609592437744e-01 -3.9853847026824951e-01</leafValues></_>
    <_>
      <internalNodes>
        0 -1 132554 1.1656314018182456e-04</internalNodes>
      <leafValues>
        -1.4930288493633270e-01 6.8045377731323242e-01</leafValues></_>
    <_>
      <internalNodes>
        0 -1 149164 -7.9483404988422990e-05</internalNodes>
      <leafValues>
        5.0511777400970459e-01 -2.1812680363655090e-01</leafValues></_></weakClassifiers></stage5>
</opencv_storage>
