<?xml version="1.0"?>
<opencv_storage>
<stage8>
  <maxWeakCount>11</maxWeakCount>
  <stageThreshold>-1.1125911474227905e+00</stageThreshold>
  <weakClassifiers>
    <_>
      <internalNodes>
        0 -1 88807 9.0378256572876126e-05</internalNodes>
      <leafValues>
        -4.7629797458648682e-01 4.3902438879013062e-01</leafValues></_>
    <_>
      <internalNodes>
        0 -1 88807 -1.6227379092015326e-04</internalNodes>
      <leafValues>
        6.5281671285629272e-01 -2.1411871910095215e-01</leafValues></_>
    <_>
      <internalNodes>
        0 -1 4055 -2.4116121232509613e-01</internalNodes>
      <leafValues>
        -8.4421098232269287e-01 1.5156732499599457e-01</leafValues></_>
    <_>
      <internalNodes>
        0 -1 161238 -2.7421093545854092e-04</internalNodes>
      <leafValues>
        2.7043268084526062e-01 -4.6830147504806519e-01</leafValues></_>
    <_>
      <internalNodes>
        0 -1 63544 -3.6023214459419250e-02</internalNodes>
      <leafValues>
        1.8791186809539795e-01 -5.7753616571426392e-01</leafValues></_>
    <_>
      <internalNodes>
        0 -1 99951 -7.7419463195838034e-05</internalNodes>
      <leafValues>
        7.2390532493591309e-01 -1.8894514441490173e-01</leafValues></_>
    <_>
      <internalNodes>
        0 -1 5030 4.1265422478318214e-03</internalNodes>
      <leafValues>
        -2.3259238898754120e-01 4.6793264150619507e-01</leafValues></_>
    <_>
      <internalNodes>
        0 -1 54943 1.0518623457755893e-04</internalNodes>
      <leafValues>
        -1.7449261248111725e-01 5.5165106058120728e-01</leafValues></_>
    <_>
      <internalNodes>
        0 -1 49457 -3.1871013343334198e-03</internalNodes>
      <leafValues>
        3.4448081254959106e-01 -2.9200366139411926e-01</leafValues></_>
    <_>
      <internalNodes>
        0 -1 137365 1.2591508857440203e-04</internalNodes>
      <leafValues>
        -1.5540006756782532e-01 6.7270433902740479e-01</leafValues></_>
    <_>
      <internalNodes>
        0 -1 33198 -2.4391920864582062e-01</internalNodes>
      <leafValues>
        -9.6703094244003296e-01 1.1359724402427673e-01</leafValues></_></weakClassifiers></stage8>
</opencv_storage>
