<?xml version="1.0"?>
<opencv_storage>
<stage8>
  <maxWeakCount>15</maxWeakCount>
  <stageThreshold>-9.0834534168243408e-01</stageThreshold>
  <weakClassifiers>
    <_>
      <internalNodes>
        0 -1 126628 3.3686711685732007e-04</internalNodes>
      <leafValues>
        -3.4276729822158813e-01 3.8095238804817200e-01</leafValues></_>
    <_>
      <internalNodes>
        0 -1 49287 -7.1611711755394936e-03</internalNodes>
      <leafValues>
        2.2324146330356598e-01 -3.7395220994949341e-01</leafValues></_>
    <_>
      <internalNodes>
        0 -1 78461 -1.5332406759262085e-01</internalNodes>
      <leafValues>
        -8.2241374254226685e-01 9.9657967686653137e-02</leafValues></_>
    <_>
      <internalNodes>
        0 -1 10375 1.0441303998231888e-01</internalNodes>
      <leafValues>
        1.1400734633207321e-01 -7.5985985994338989e-01</leafValues></_>
    <_>
      <internalNodes>
        0 -1 126628 -8.8239132310263813e-05</internalNodes>
      <leafValues>
        5.1685470342636108e-01 -1.8409977853298187e-01</leafValues></_>
    <_>
      <internalNodes>
        0 -1 123961 2.8974487213417888e-04</internalNodes>
      <leafValues>
        -1.6050128638744354e-01 4.3187722563743591e-01</leafValues></_>
    <_>
      <internalNodes>
        0 -1 1085 -1.3313041999936104e-02</internalNodes>
      <leafValues>
        -3.9995053410530090e-01 1.8215355277061462e-01</leafValues></_>
    <_>
      <internalNodes>
        0 -1 14316 2.1833782375324517e-04</internalNodes>
      <leafValues>
        -4.4274184107780457e-01 2.2686207294464111e-01</leafValues></_>
    <_>
      <internalNodes>
        0 -1 46096 5.3000263869762421e-04</internalNodes>
      <leafValues>
        -2.1127112209796906e-01 3.9704838395118713e-01</leafValues></_>
    <_>
      <internalNodes>
        0 -1 159925 -9.8710088059306145e-04</internalNodes>
      <leafValues>
        2.6643729209899902e-01 -3.3417865633964539e-01</leafValues></_>
    <_>
      <internalNodes>
        0 -1 160128 -1.1956779286265373e-02</internalNodes>
      <leafValues>
        -3.9703759551048279e-01 1.7965583503246307e-01</leafValues></_>
    <_>
      <internalNodes>
        0 -1 117232 -1.3673493638634682e-02</internalNodes>
      <leafValues>
        1.1148767918348312e-01 -7.7180957794189453e-01</leafValues></_>
    <_>
      <internalNodes>
        0 -1 64264 9.2425456386990845e-05</internalNodes>
      <leafValues>
        -1.5994991362094879e-01 5.7660114765167236e-01</leafValues></_>
    <_>
      <internalNodes>
        0 -1 17231 -6.9035654887557030e-03</internalNodes>
      <leafValues>
        8.8216066360473633e-01 -6.9567672908306122e-02</leafValues></_>
    <_>
      <internalNodes>
        0 -1 3265 -3.2069832086563110e-02</internalNodes>
      <leafValues>
        -4.2173585295677185e-01 2.7400627732276917e-01</leafValues></_></weakClassifiers></stage8>
</opencv_storage>
