<?xml version="1.0"?>
<opencv_storage>
<cascade>
  <stageType>BOOST</stageType>
  <featureType>HAAR</featureType>
  <height>16</height>
  <width>16</width>
  <stageParams>
    <boostType>GAB</boostType>
    <minHitRate>9.9500000476837158e-01</minHitRate>
    <maxFalseAlarm>5.0000000000000000e-01</maxFalseAlarm>
    <weightTrimRate>9.4999999999999996e-01</weightTrimRate>
    <maxDepth>1</maxDepth>
    <maxWeakCount>100</maxWeakCount></stageParams>
  <featureParams>
    <maxCatCount>0</maxCatCount>
    <featSize>1</featSize>
    <mode>BASIC</mode></featureParams>
  <stageNum>10</stageNum>
  <stages>
    <!-- stage 0 -->
    <_>
      <maxWeakCount>2</maxWeakCount>
      <stageThreshold>-3.1096303462982178e-01</stageThreshold>
      <weakClassifiers>
        <_>
          <internalNodes>
            0 -1 27 -6.6414533648639917e-04</internalNodes>
          <leafValues>
            6.9191920757293701e-01 -9.0131580829620361e-01</leafValues></_>
        <_>
          <internalNodes>
            0 -1 56 -6.5410474780946970e-04</internalNodes>
          <leafValues>
            5.9035277366638184e-01 -8.6750745773315430e-01</leafValues></_></weakClassifiers></_>
    <!-- stage 1 -->
    <_>
      <maxWeakCount>2</maxWeakCount>
      <stageThreshold>-1.6894319653511047e-01</stageThreshold>
      <weakClassifiers>
        <_>
          <internalNodes>
            0 -1 2 1.3223928399384022e-03</internalNodes>
          <leafValues>
            -6.8072289228439331e-01 6.1413043737411499e-01</leafValues></_>
        <_>
          <internalNodes>
            0 -1 44 -3.6728461273014545e-03</internalNodes>
          <leafValues>
            5.1177966594696045e-01 -7.2250032424926758e-01</leafValues></_></weakClassifiers></_>
    <!-- stage 2 -->
    <_>
      <maxWeakCount>6</maxWeakCount>
      <stageThreshold>-1.0536936521530151e+00</stageThreshold>
      <weakClassifiers>
        <_>
          <internalNodes>
            0 -1 40 4.5413640327751637e-04</internalNodes>
          <leafValues>
            -4.9509802460670471e-01 6.9178080558776855e-01</leafValues></_>
        <_>
          <internalNodes>
            0 -1 37 -3.7881035357713699e-02</internalNodes>
          <leafValues>
            5.5677443742752075e-01 -5.9437215328216553e-01</leafValues></_>
        <_>
          <internalNodes>
            0 -1 11 -2.6660602539777756e-02</internalNodes>
          <leafValues>
            7.7681112289428711e-01 -4.3676751852035522e-01</leafValues></_>
        <_>
          <internalNodes>
            0 -1 0 7.9873943468555808e-04</internalNodes>
          <leafValues>
            -4.9313870072364807e-01 6.5424418449401855e-01</leafValues></_>
        <_>
          <internalNodes>
            0 -1 55 -5.9826899087056518e-04</internalNodes>
          <leafValues>
            4.8427569866180420e-01 -5.6142997741699219e-01</leafValues></_>
        <_>
          <internalNodes>
            0 -1 6 6.0235112905502319e-03</internalNodes>
          <leafValues>
            -6.6973960399627686e-01 5.2265787124633789e-01</leafValues></_></weakClassifiers></_>
    <!-- stage 3 -->
    <_>
      <maxWeakCount>7</maxWeakCount>
      <stageThreshold>-1.2657688856124878e+00</stageThreshold>
      <weakClassifiers>
        <_>
          <internalNodes>
            0 -1 48 2.4463580921292305e-03</internalNodes>
          <leafValues>
            -5.2542370557785034e-01 5.3757226467132568e-01</leafValues></_>
        <_>
          <internalNodes>
            0 -1 8 -6.0669833328574896e-04</internalNodes>
          <leafValues>
            3.5492163896560669e-01 -7.0026916265487671e-01</leafValues></_>
        <_>
          <internalNodes>
            0 -1 23 2.5414355332031846e-04</internalNodes>
          <leafValues>
            -3.0633744597434998e-01 7.5591105222702026e-01</leafValues></_>
        <_>
          <internalNodes>
            0 -1 19 -1.2336827814579010e-02</internalNodes>
          <leafValues>
            2.9365408420562744e-01 -7.4466580152511597e-01</leafValues></_>
        <_>
          <internalNodes>
            0 -1 46 -9.1476980596780777e-03</internalNodes>
          <leafValues>
            5.8202093839645386e-01 -4.2108434438705444e-01</leafValues></_>
        <_>
          <internalNodes>
            0 -1 16 -5.9095270931720734e-02</internalNodes>
          <leafValues>
            5.1965349912643433e-01 -3.7804257869720459e-01</leafValues></_>
        <_>
          <internalNodes>
            0 -1 45 2.0092485647182912e-04</internalNodes>
          <leafValues>
            -2.8345647454261780e-01 7.0965701341629028e-01</leafValues></_></weakClassifiers></_>
    <!-- stage 4 -->
    <_>
      <maxWeakCount>8</maxWeakCount>
      <stageThreshold>-1.2897833585739136e+00</stageThreshold>
      <weakClassifiers>
        <_>
          <internalNodes>
            0 -1 52 -2.1374232601374388e-03</internalNodes>
          <leafValues>
            4.1043084859848022e-01 -6.9884169101715088e-01</leafValues></_>
        <_>
          <internalNodes>
            0 -1 36 -3.3132886164821684e-04</internalNodes>
          <leafValues>
            6.9397795200347900e-01 -3.3680558204650879e-01</leafValues></_>
        <_>
          <internalNodes>
            0 -1 28 -1.7585343448445201e-04</internalNodes>
          <leafValues>
            8.1604677438735962e-01 -2.1668078005313873e-01</leafValues></_>
        <_>
          <internalNodes>
            0 -1 28 3.0795962084084749e-04</internalNodes>
          <leafValues>
            -3.1435877084732056e-01 7.2650992870330811e-01</leafValues></_>
        <_>
          <internalNodes>
            0 -1 10 -2.6765497401356697e-02</internalNodes>
          <leafValues>
            6.6468256711959839e-01 -3.1602713465690613e-01</leafValues></_>
        <_>
          <internalNodes>
            0 -1 3 -3.9358285721391439e-04</internalNodes>
          <leafValues>
            6.6348892450332642e-01 -2.8508141636848450e-01</leafValues></_>
        <_>
          <internalNodes>
            0 -1 20 -9.7762078046798706e-02</internalNodes>
          <leafValues>
            -9.0689593553543091e-01 3.1956684589385986e-01</leafValues></_>
        <_>
          <internalNodes>
            0 -1 33 1.2798060197383165e-04</internalNodes>
          <leafValues>
            -4.3651148676872253e-01 5.5844521522521973e-01</leafValues></_></weakClassifiers></_>
    <!-- stage 5 -->
    <_>
      <maxWeakCount>7</maxWeakCount>
      <stageThreshold>-8.0514800548553467e-01</stageThreshold>
      <weakClassifiers>
        <_>
          <internalNodes>
            0 -1 17 4.0274305501952767e-04</internalNodes>
          <leafValues>
            -4.4186046719551086e-01 7.0370370149612427e-01</leafValues></_>
        <_>
          <internalNodes>
            0 -1 1 5.3192940540611744e-03</internalNodes>
          <leafValues>
            -4.1545394062995911e-01 5.4293006658554077e-01</leafValues></_>
        <_>
          <internalNodes>
            0 -1 51 -1.5064855106174946e-03</internalNodes>
          <leafValues>
            3.0536770820617676e-01 -7.0226871967315674e-01</leafValues></_>
        <_>
          <internalNodes>
            0 -1 34 -1.6209462773986161e-04</internalNodes>
          <leafValues>
            7.1180194616317749e-01 -2.9354909062385559e-01</leafValues></_>
        <_>
          <internalNodes>
            0 -1 34 2.1118856966495514e-04</internalNodes>
          <leafValues>
            -3.8033351302146912e-01 6.9569033384323120e-01</leafValues></_>
        <_>
          <internalNodes>
            0 -1 9 2.5861157337203622e-04</internalNodes>
          <leafValues>
            -2.6794981956481934e-01 7.0161581039428711e-01</leafValues></_>
        <_>
          <internalNodes>
            0 -1 43 -1.8894899403676391e-04</internalNodes>
          <leafValues>
            7.5216472148895264e-01 -2.6975291967391968e-01</leafValues></_></weakClassifiers></_>
    <!-- stage 6 -->
    <_>
      <maxWeakCount>7</maxWeakCount>
      <stageThreshold>-1.2530235052108765e+00</stageThreshold>
      <weakClassifiers>
        <_>
          <internalNodes>
            0 -1 53 -3.8838258478790522e-03</internalNodes>
          <leafValues>
            6.2637364864349365e-01 -4.0046837925910950e-01</leafValues></_>
        <_>
          <internalNodes>
            0 -1 12 -6.1372329946607351e-04</internalNodes>
          <leafValues>
            4.1152766346931458e-01 -6.0312664508819580e-01</leafValues></_>
        <_>
          <internalNodes>
            0 -1 5 1.0892136394977570e-01</internalNodes>
          <leafValues>
            2.4139454960823059e-01 -8.9366406202316284e-01</leafValues></_>
        <_>
          <internalNodes>
            0 -1 30 2.0672791288234293e-04</internalNodes>
          <leafValues>
            -3.4381201863288879e-01 6.0039174556732178e-01</leafValues></_>
        <_>
          <internalNodes>
            0 -1 35 1.1674534529447556e-02</internalNodes>
          <leafValues>
            -2.5686129927635193e-01 7.9978919029235840e-01</leafValues></_>
        <_>
          <internalNodes>
            0 -1 14 3.7422543391585350e-04</internalNodes>
          <leafValues>
            -2.8723031282424927e-01 6.5145111083984375e-01</leafValues></_>
        <_>
          <internalNodes>
            0 -1 18 -1.1889338493347168e-03</internalNodes>
          <leafValues>
            3.7610888481140137e-01 -6.1757373809814453e-01</leafValues></_></weakClassifiers></_>
    <!-- stage 7 -->
    <_>
      <maxWeakCount>8</maxWeakCount>
      <stageThreshold>-1.0094616413116455e+00</stageThreshold>
      <weakClassifiers>
        <_>
          <internalNodes>
            0 -1 41 9.6701467409729958e-03</internalNodes>
          <leafValues>
            -2.4324324727058411e-01 6.9230771064758301e-01</leafValues></_>
        <_>
          <internalNodes>
            0 -1 7 1.8736330093815923e-04</internalNodes>
          <leafValues>
            -3.9002248644828796e-01 4.2820170521736145e-01</leafValues></_>
        <_>
          <internalNodes>
            0 -1 24 -1.5035891556181014e-04</internalNodes>
          <leafValues>
            7.4922347068786621e-01 -1.9734156131744385e-01</leafValues></_>
        <_>
          <internalNodes>
            0 -1 39 -4.2721867561340332e-02</internalNodes>
          <leafValues>
            -8.2920342683792114e-01 1.8697544932365417e-01</leafValues></_>
        <_>
          <internalNodes>
            0 -1 38 4.1770219802856445e-02</internalNodes>
          <leafValues>
            1.6938747465610504e-01 -9.0461826324462891e-01</leafValues></_>
        <_>
          <internalNodes>
            0 -1 32 -1.0053445398807526e-01</internalNodes>
          <leafValues>
            -8.7377536296844482e-01 1.8113414943218231e-01</leafValues></_>
        <_>
          <internalNodes>
            0 -1 50 -1.7795446910895407e-04</internalNodes>
          <leafValues>
            5.9441822767257690e-01 -3.3779299259185791e-01</leafValues></_>
        <_>
          <internalNodes>
            0 -1 29 -5.7833699975162745e-04</internalNodes>
          <leafValues>
            4.5800971984863281e-01 -3.7855836749076843e-01</leafValues></_></weakClassifiers></_>
    <!-- stage 8 -->
    <_>
      <maxWeakCount>6</maxWeakCount>
      <stageThreshold>-4.1936472058296204e-01</stageThreshold>
      <weakClassifiers>
        <_>
          <internalNodes>
            0 -1 31 6.3500426709651947e-02</internalNodes>
          <leafValues>
            1.8632479012012482e-01 -9.4782608747482300e-01</leafValues></_>
        <_>
          <internalNodes>
            0 -1 47 1.1803389526903629e-02</internalNodes>
          <leafValues>
            -2.8772345185279846e-01 7.2764837741851807e-01</leafValues></_>
        <_>
          <internalNodes>
            0 -1 21 -1.0445275902748108e-01</internalNodes>
          <leafValues>
            -8.9844089746475220e-01 2.0195278525352478e-01</leafValues></_>
        <_>
          <internalNodes>
            0 -1 42 -2.6289862580597401e-04</internalNodes>
          <leafValues>
            7.0162451267242432e-01 -2.5356271862983704e-01</leafValues></_>
        <_>
          <internalNodes>
            0 -1 22 -9.9530354142189026e-02</internalNodes>
          <leafValues>
            -8.5284554958343506e-01 2.0439055562019348e-01</leafValues></_>
        <_>
          <internalNodes>
            0 -1 25 -1.8949442892335355e-04</internalNodes>
          <leafValues>
            7.6248687505722046e-01 -2.8367593884468079e-01</leafValues></_></weakClassifiers></_>
    <!-- stage 9 -->
    <_>
      <maxWeakCount>10</maxWeakCount>
      <stageThreshold>-8.6414372920989990e-01</stageThreshold>
      <weakClassifiers>
        <_>
          <internalNodes>
            0 -1 54 -6.3535086810588837e-02</internalNodes>
          <leafValues>
            8.3216780424118042e-01 -2.1364451944828033e-01</leafValues></_>
        <_>
          <internalNodes>
            0 -1 4 9.6289493143558502e-02</internalNodes>
          <leafValues>
            2.4739058315753937e-01 -8.6240142583847046e-01</leafValues></_>
        <_>
          <internalNodes>
            0 -1 15 -3.8250745274126530e-04</internalNodes>
          <leafValues>
            8.4337425231933594e-01 -2.4526309967041016e-01</leafValues></_>
        <_>
          <internalNodes>
            0 -1 49 1.2969417730346322e-04</internalNodes>
          <leafValues>
            -1.8198770284652710e-01 6.9253271818161011e-01</leafValues></_>
        <_>
          <internalNodes>
            0 -1 49 -2.5484786601737142e-04</internalNodes>
          <leafValues>
            5.4922962188720703e-01 -2.7287605404853821e-01</leafValues></_>
        <_>
          <internalNodes>
            0 -1 26 -1.8454111705068499e-04</internalNodes>
          <leafValues>
            5.8724915981292725e-01 -2.2600443661212921e-01</leafValues></_>
        <_>
          <internalNodes>
            0 -1 13 -8.9669153094291687e-02</internalNodes>
          <leafValues>
            -9.3899232149124146e-01 1.2069129198789597e-01</leafValues></_>
        <_>
          <internalNodes>
            0 -1 58 -2.4842653423547745e-02</internalNodes>
          <leafValues>
            1. -1.7346243560314178e-01</leafValues></_>
        <_>
          <internalNodes>
            0 -1 59 8.9498155284672976e-04</internalNodes>
          <leafValues>
            -1.3141807913780212e-01 8.2026523351669312e-01</leafValues></_>
        <_>
          <internalNodes>
            0 -1 57 2.1304478650563397e-05</internalNodes>
          <leafValues>
            2.1243073046207428e-01 -8.0285996198654175e-01</leafValues></_></weakClassifiers></_></stages>
  <features>
    <_>
      <rects>
        <_>
          0 0 2 10 -1.</_>
        <_>
          1 0 1 10 2.</_></rects>
      <tilted>0</tilted></_>
    <_>
      <rects>
        <_>
          0 0 4 5 -1.</_>
        <_>
          2 0 2 5 2.</_></rects>
      <tilted>0</tilted></_>
    <_>
      <rects>
        <_>
          0 0 4 8 -1.</_>
        <_>
          2 0 2 8 2.</_></rects>
      <tilted>0</tilted></_>
    <_>
      <rects>
        <_>
          0 1 8 2 -1.</_>
        <_>
          0 1 4 1 2.</_>
        <_>
          4 2 4 1 2.</_></rects>
      <tilted>0</tilted></_>
    <_>
      <rects>
        <_>
          0 4 12 8 -1.</_>
        <_>
          0 4 6 4 2.</_>
        <_>
          6 8 6 4 2.</_></rects>
      <tilted>0</tilted></_>
    <_>
      <rects>
        <_>
          0 4 9 10 -1.</_>
        <_>
          0 9 9 5 2.</_></rects>
      <tilted>0</tilted></_>
    <_>
      <rects>
        <_>
          0 5 6 4 -1.</_>
        <_>
          3 5 3 4 2.</_></rects>
      <tilted>0</tilted></_>
    <_>
      <rects>
        <_>
          0 6 6 1 -1.</_>
        <_>
          3 6 3 1 2.</_></rects>
      <tilted>0</tilted></_>
    <_>
      <rects>
        <_>
          0 8 6 4 -1.</_>
        <_>
          2 8 2 4 2.</_></rects>
      <tilted>0</tilted></_>
    <_>
      <rects>
        <_>
          0 11 8 2 -1.</_>
        <_>
          0 12 8 1 2.</_></rects>
      <tilted>0</tilted></_>
    <_>
      <rects>
        <_>
          0 12 10 4 -1.</_>
        <_>
          0 14 10 2 2.</_></rects>
      <tilted>0</tilted></_>
    <_>
      <rects>
        <_>
          0 12 16 4 -1.</_>
        <_>
          0 14 16 2 2.</_></rects>
      <tilted>0</tilted></_>
    <_>
      <rects>
        <_>
          0 13 8 3 -1.</_>
        <_>
          0 14 8 1 2.</_></rects>
      <tilted>0</tilted></_>
    <_>
      <rects>
        <_>
          1 2 12 6 -1.</_>
        <_>
          1 2 6 3 2.</_>
        <_>
          7 5 6 3 2.</_></rects>
      <tilted>0</tilted></_>
    <_>
      <rects>
        <_>
          1 6 4 2 -1.</_>
        <_>
          1 6 2 1 2.</_>
        <_>
          3 7 2 1 2.</_></rects>
      <tilted>0</tilted></_>
    <_>
      <rects>
        <_>
          1 7 2 1 -1.</_>
        <_>
          2 7 1 1 2.</_></rects>
      <tilted>0</tilted></_>
    <_>
      <rects>
        <_>
          1 8 15 3 -1.</_>
        <_>
          1 9 15 1 2.</_></rects>
      <tilted>0</tilted></_>
    <_>
      <rects>
        <_>
          1 11 4 5 -1.</_>
        <_>
          3 11 2 5 2.</_></rects>
      <tilted>0</tilted></_>
    <_>
      <rects>
        <_>
          1 12 12 3 -1.</_>
        <_>
          5 12 4 3 2.</_></rects>
      <tilted>0</tilted></_>
    <_>
      <rects>
        <_>
          2 1 6 6 -1.</_>
        <_>
          4 1 2 6 2.</_></rects>
      <tilted>0</tilted></_>
    <_>
      <rects>
        <_>
          2 2 8 10 -1.</_>
        <_>
          6 2 4 10 2.</_></rects>
      <tilted>0</tilted></_>
    <_>
      <rects>
        <_>
          3 0 8 14 -1.</_>
        <_>
          3 0 4 7 2.</_>
        <_>
          7 7 4 7 2.</_></rects>
      <tilted>0</tilted></_>
    <_>
      <rects>
        <_>
          3 0 4 16 -1.</_>
        <_>
          3 8 4 8 2.</_></rects>
      <tilted>0</tilted></_>
    <_>
      <rects>
        <_>
          3 8 2 2 -1.</_>
        <_>
          3 9 2 1 2.</_></rects>
      <tilted>0</tilted></_>
    <_>
      <rects>
        <_>
          3 9 2 1 -1.</_>
        <_>
          4 9 1 1 2.</_></rects>
      <tilted>0</tilted></_>
    <_>
      <rects>
        <_>
          4 1 2 2 -1.</_>
        <_>
          4 1 1 1 2.</_>
        <_>
          5 2 1 1 2.</_></rects>
      <tilted>0</tilted></_>
    <_>
      <rects>
        <_>
          4 6 4 1 -1.</_>
        <_>
          6 6 2 1 2.</_></rects>
      <tilted>0</tilted></_>
    <_>
      <rects>
        <_>
          5 0 3 8 -1.</_>
        <_>
          6 0 1 8 2.</_></rects>
      <tilted>0</tilted></_>
    <_>
      <rects>
        <_>
          5 4 1 2 -1.</_>
        <_>
          5 5 1 1 2.</_></rects>
      <tilted>0</tilted></_>
    <_>
      <rects>
        <_>
          5 5 5 2 -1.</_>
        <_>
          5 6 5 1 2.</_></rects>
      <tilted>0</tilted></_>
    <_>
      <rects>
        <_>
          5 9 2 2 -1.</_>
        <_>
          5 9 1 1 2.</_>
        <_>
          6 10 1 1 2.</_></rects>
      <tilted>0</tilted></_>
    <_>
      <rects>
        <_>
          6 0 6 8 -1.</_>
        <_>
          9 0 3 8 2.</_></rects>
      <tilted>0</tilted></_>
    <_>
      <rects>
        <_>
          6 0 4 16 -1.</_>
        <_>
          6 8 4 8 2.</_></rects>
      <tilted>0</tilted></_>
    <_>
      <rects>
        <_>
          6 6 2 2 -1.</_>
        <_>
          6 7 2 1 2.</_></rects>
      <tilted>0</tilted></_>
    <_>
      <rects>
        <_>
          6 8 2 2 -1.</_>
        <_>
          6 8 1 1 2.</_>
        <_>
          7 9 1 1 2.</_></rects>
      <tilted>0</tilted></_>
    <_>
      <rects>
        <_>
          7 0 6 2 -1.</_>
        <_>
          7 1 6 1 2.</_></rects>
      <tilted>0</tilted></_>
    <_>
      <rects>
        <_>
          7 1 2 4 -1.</_>
        <_>
          7 1 1 2 2.</_>
        <_>
          8 3 1 2 2.</_></rects>
      <tilted>0</tilted></_>
    <_>
      <rects>
        <_>
          7 3 3 13 -1.</_>
        <_>
          8 3 1 13 2.</_></rects>
      <tilted>0</tilted></_>
    <_>
      <rects>
        <_>
          7 5 3 10 -1.</_>
        <_>
          7 10 3 5 2.</_></rects>
      <tilted>0</tilted></_>
    <_>
      <rects>
        <_>
          7 6 2 8 -1.</_>
        <_>
          7 10 2 4 2.</_></rects>
      <tilted>0</tilted></_>
    <_>
      <rects>
        <_>
          8 0 1 6 -1.</_>
        <_>
          8 3 1 3 2.</_></rects>
      <tilted>0</tilted></_>
    <_>
      <rects>
        <_>
          9 0 5 2 -1.</_>
        <_>
          9 1 5 1 2.</_></rects>
      <tilted>0</tilted></_>
    <_>
      <rects>
        <_>
          9 4 1 2 -1.</_>
        <_>
          9 5 1 1 2.</_></rects>
      <tilted>0</tilted></_>
    <_>
      <rects>
        <_>
          9 5 2 2 -1.</_>
        <_>
          9 5 1 1 2.</_>
        <_>
          10 6 1 1 2.</_></rects>
      <tilted>0</tilted></_>
    <_>
      <rects>
        <_>
          9 7 3 3 -1.</_>
        <_>
          9 8 3 1 2.</_></rects>
      <tilted>0</tilted></_>
    <_>
      <rects>
        <_>
          9 8 1 2 -1.</_>
        <_>
          9 9 1 1 2.</_></rects>
      <tilted>0</tilted></_>
    <_>
      <rects>
        <_>
          9 12 7 4 -1.</_>
        <_>
          9 14 7 2 2.</_></rects>
      <tilted>0</tilted></_>
    <_>
      <rects>
        <_>
          10 0 6 2 -1.</_>
        <_>
          10 1 6 1 2.</_></rects>
      <tilted>0</tilted></_>
    <_>
      <rects>
        <_>
          10 0 6 4 -1.</_>
        <_>
          10 2 6 2 2.</_></rects>
      <tilted>0</tilted></_>
    <_>
      <rects>
        <_>
          10 10 2 1 -1.</_>
        <_>
          11 10 1 1 2.</_></rects>
      <tilted>0</tilted></_>
    <_>
      <rects>
        <_>
          11 6 2 2 -1.</_>
        <_>
          11 6 1 1 2.</_>
        <_>
          12 7 1 1 2.</_></rects>
      <tilted>0</tilted></_>
    <_>
      <rects>
        <_>
          11 7 4 6 -1.</_>
        <_>
          11 9 4 2 2.</_></rects>
      <tilted>0</tilted></_>
    <_>
      <rects>
        <_>
          11 8 4 3 -1.</_>
        <_>
          11 9 4 1 2.</_></rects>
      <tilted>0</tilted></_>
    <_>
      <rects>
        <_>
          12 0 4 5 -1.</_>
        <_>
          14 0 2 5 2.</_></rects>
      <tilted>0</tilted></_>
    <_>
      <rects>
        <_>
          12 5 4 10 -1.</_>
        <_>
          14 5 2 10 2.</_></rects>
      <tilted>0</tilted></_>
    <_>
      <rects>
        <_>
          12 7 4 3 -1.</_>
        <_>
          12 8 4 1 2.</_></rects>
      <tilted>0</tilted></_>
    <_>
      <rects>
        <_>
          13 1 3 14 -1.</_>
        <_>
          14 1 1 14 2.</_></rects>
      <tilted>0</tilted></_>
    <_>
      <rects>
        <_>
          13 14 3 2 -1.</_>
        <_>
          13 15 3 1 2.</_></rects>
      <tilted>0</tilted></_>
    <_>
      <rects>
        <_>
          14 5 2 9 -1.</_>
        <_>
          15 5 1 9 2.</_></rects>
      <tilted>0</tilted></_>
    <_>
      <rects>
        <_>
          14 7 2 7 -1.</_>
        <_>
          15 7 1 7 2.</_></rects>
      <tilted>0</tilted></_></features></cascade>
</opencv_storage>
