<?xml version="1.0"?>
<opencv_storage>
<cascade>
  <stageType>BOOST</stageType>
  <featureType>HAAR</featureType>
  <height>16</height>
  <width>16</width>
  <stageParams>
    <boostType>GAB</boostType>
    <minHitRate>9.9500000476837158e-01</minHitRate>
    <maxFalseAlarm>5.0000000000000000e-01</maxFalseAlarm>
    <weightTrimRate>9.4999999999999996e-01</weightTrimRate>
    <maxDepth>1</maxDepth>
    <maxWeakCount>100</maxWeakCount></stageParams>
  <featureParams>
    <maxCatCount>0</maxCatCount>
    <featSize>1</featSize>
    <mode>BASIC</mode></featureParams>
  <stageNum>20</stageNum>
  <stages>
    <!-- stage 0 -->
    <_>
      <maxWeakCount>2</maxWeakCount>
      <stageThreshold>-3.1096303462982178e-01</stageThreshold>
      <weakClassifiers>
        <_>
          <internalNodes>
            0 -1 78 -6.6414533648639917e-04</internalNodes>
          <leafValues>
            6.9191920757293701e-01 -9.0131580829620361e-01</leafValues></_>
        <_>
          <internalNodes>
            0 -1 172 -6.5410474780946970e-04</internalNodes>
          <leafValues>
            5.9035277366638184e-01 -8.6750745773315430e-01</leafValues></_></weakClassifiers></_>
    <!-- stage 1 -->
    <_>
      <maxWeakCount>2</maxWeakCount>
      <stageThreshold>-1.6894319653511047e-01</stageThreshold>
      <weakClassifiers>
        <_>
          <internalNodes>
            0 -1 4 1.3223928399384022e-03</internalNodes>
          <leafValues>
            -6.8072289228439331e-01 6.1413043737411499e-01</leafValues></_>
        <_>
          <internalNodes>
            0 -1 135 -3.6728461273014545e-03</internalNodes>
          <leafValues>
            5.1177966594696045e-01 -7.2250032424926758e-01</leafValues></_></weakClassifiers></_>
    <!-- stage 2 -->
    <_>
      <maxWeakCount>6</maxWeakCount>
      <stageThreshold>-1.0536936521530151e+00</stageThreshold>
      <weakClassifiers>
        <_>
          <internalNodes>
            0 -1 121 4.5413640327751637e-04</internalNodes>
          <leafValues>
            -4.9509802460670471e-01 6.9178080558776855e-01</leafValues></_>
        <_>
          <internalNodes>
            0 -1 111 -3.7881035357713699e-02</internalNodes>
          <leafValues>
            5.5677443742752075e-01 -5.9437215328216553e-01</leafValues></_>
        <_>
          <internalNodes>
            0 -1 29 -2.6660602539777756e-02</internalNodes>
          <leafValues>
            7.7681112289428711e-01 -4.3676751852035522e-01</leafValues></_>
        <_>
          <internalNodes>
            0 -1 1 7.9873943468555808e-04</internalNodes>
          <leafValues>
            -4.9313870072364807e-01 6.5424418449401855e-01</leafValues></_>
        <_>
          <internalNodes>
            0 -1 168 -5.9826899087056518e-04</internalNodes>
          <leafValues>
            4.8427569866180420e-01 -5.6142997741699219e-01</leafValues></_>
        <_>
          <internalNodes>
            0 -1 21 6.0235112905502319e-03</internalNodes>
          <leafValues>
            -6.6973960399627686e-01 5.2265787124633789e-01</leafValues></_></weakClassifiers></_>
    <!-- stage 3 -->
    <_>
      <maxWeakCount>7</maxWeakCount>
      <stageThreshold>-1.2657688856124878e+00</stageThreshold>
      <weakClassifiers>
        <_>
          <internalNodes>
            0 -1 142 2.4463580921292305e-03</internalNodes>
          <leafValues>
            -5.2542370557785034e-01 5.3757226467132568e-01</leafValues></_>
        <_>
          <internalNodes>
            0 -1 25 -6.0669833328574896e-04</internalNodes>
          <leafValues>
            3.5492163896560669e-01 -7.0026916265487671e-01</leafValues></_>
        <_>
          <internalNodes>
            0 -1 59 2.5414355332031846e-04</internalNodes>
          <leafValues>
            -3.0633744597434998e-01 7.5591105222702026e-01</leafValues></_>
        <_>
          <internalNodes>
            0 -1 44 -1.2336827814579010e-02</internalNodes>
          <leafValues>
            2.9365408420562744e-01 -7.4466580152511597e-01</leafValues></_>
        <_>
          <internalNodes>
            0 -1 138 -9.1476980596780777e-03</internalNodes>
          <leafValues>
            5.8202093839645386e-01 -4.2108434438705444e-01</leafValues></_>
        <_>
          <internalNodes>
            0 -1 39 -5.9095270931720734e-02</internalNodes>
          <leafValues>
            5.1965349912643433e-01 -3.7804257869720459e-01</leafValues></_>
        <_>
          <internalNodes>
            0 -1 136 2.0092485647182912e-04</internalNodes>
          <leafValues>
            -2.8345647454261780e-01 7.0965701341629028e-01</leafValues></_></weakClassifiers></_>
    <!-- stage 4 -->
    <_>
      <maxWeakCount>8</maxWeakCount>
      <stageThreshold>-1.2897833585739136e+00</stageThreshold>
      <weakClassifiers>
        <_>
          <internalNodes>
            0 -1 159 -2.1374232601374388e-03</internalNodes>
          <leafValues>
            4.1043084859848022e-01 -6.9884169101715088e-01</leafValues></_>
        <_>
          <internalNodes>
            0 -1 108 -3.3132886164821684e-04</internalNodes>
          <leafValues>
            6.9397795200347900e-01 -3.3680558204650879e-01</leafValues></_>
        <_>
          <internalNodes>
            0 -1 80 -1.7585343448445201e-04</internalNodes>
          <leafValues>
            8.1604677438735962e-01 -2.1668078005313873e-01</leafValues></_>
        <_>
          <internalNodes>
            0 -1 80 3.0795962084084749e-04</internalNodes>
          <leafValues>
            -3.1435877084732056e-01 7.2650992870330811e-01</leafValues></_>
        <_>
          <internalNodes>
            0 -1 28 -2.6765497401356697e-02</internalNodes>
          <leafValues>
            6.6468256711959839e-01 -3.1602713465690613e-01</leafValues></_>
        <_>
          <internalNodes>
            0 -1 14 -3.9358285721391439e-04</internalNodes>
          <leafValues>
            6.6348892450332642e-01 -2.8508141636848450e-01</leafValues></_>
        <_>
          <internalNodes>
            0 -1 45 -9.7762078046798706e-02</internalNodes>
          <leafValues>
            -9.0689593553543091e-01 3.1956684589385986e-01</leafValues></_>
        <_>
          <internalNodes>
            0 -1 101 1.2798060197383165e-04</internalNodes>
          <leafValues>
            -4.3651148676872253e-01 5.5844521522521973e-01</leafValues></_></weakClassifiers></_>
    <!-- stage 5 -->
    <_>
      <maxWeakCount>7</maxWeakCount>
      <stageThreshold>-8.0514800548553467e-01</stageThreshold>
      <weakClassifiers>
        <_>
          <internalNodes>
            0 -1 40 4.0274305501952767e-04</internalNodes>
          <leafValues>
            -4.4186046719551086e-01 7.0370370149612427e-01</leafValues></_>
        <_>
          <internalNodes>
            0 -1 2 5.3192940540611744e-03</internalNodes>
          <leafValues>
            -4.1545394062995911e-01 5.4293006658554077e-01</leafValues></_>
        <_>
          <internalNodes>
            0 -1 158 -1.5064855106174946e-03</internalNodes>
          <leafValues>
            3.0536770820617676e-01 -7.0226871967315674e-01</leafValues></_>
        <_>
          <internalNodes>
            0 -1 102 -1.6209462773986161e-04</internalNodes>
          <leafValues>
            7.1180194616317749e-01 -2.9354909062385559e-01</leafValues></_>
        <_>
          <internalNodes>
            0 -1 102 2.1118856966495514e-04</internalNodes>
          <leafValues>
            -3.8033351302146912e-01 6.9569033384323120e-01</leafValues></_>
        <_>
          <internalNodes>
            0 -1 27 2.5861157337203622e-04</internalNodes>
          <leafValues>
            -2.6794981956481934e-01 7.0161581039428711e-01</leafValues></_>
        <_>
          <internalNodes>
            0 -1 133 -1.8894899403676391e-04</internalNodes>
          <leafValues>
            7.5216472148895264e-01 -2.6975291967391968e-01</leafValues></_></weakClassifiers></_>
    <!-- stage 6 -->
    <_>
      <maxWeakCount>7</maxWeakCount>
      <stageThreshold>-1.2530235052108765e+00</stageThreshold>
      <weakClassifiers>
        <_>
          <internalNodes>
            0 -1 162 -3.8838258478790522e-03</internalNodes>
          <leafValues>
            6.2637364864349365e-01 -4.0046837925910950e-01</leafValues></_>
        <_>
          <internalNodes>
            0 -1 30 -6.1372329946607351e-04</internalNodes>
          <leafValues>
            4.1152766346931458e-01 -6.0312664508819580e-01</leafValues></_>
        <_>
          <internalNodes>
            0 -1 20 1.0892136394977570e-01</internalNodes>
          <leafValues>
            2.4139454960823059e-01 -8.9366406202316284e-01</leafValues></_>
        <_>
          <internalNodes>
            0 -1 89 2.0672791288234293e-04</internalNodes>
          <leafValues>
            -3.4381201863288879e-01 6.0039174556732178e-01</leafValues></_>
        <_>
          <internalNodes>
            0 -1 107 1.1674534529447556e-02</internalNodes>
          <leafValues>
            -2.5686129927635193e-01 7.9978919029235840e-01</leafValues></_>
        <_>
          <internalNodes>
            0 -1 35 3.7422543391585350e-04</internalNodes>
          <leafValues>
            -2.8723031282424927e-01 6.5145111083984375e-01</leafValues></_>
        <_>
          <internalNodes>
            0 -1 41 -1.1889338493347168e-03</internalNodes>
          <leafValues>
            3.7610888481140137e-01 -6.1757373809814453e-01</leafValues></_></weakClassifiers></_>
    <!-- stage 7 -->
    <_>
      <maxWeakCount>8</maxWeakCount>
      <stageThreshold>-1.0094616413116455e+00</stageThreshold>
      <weakClassifiers>
        <_>
          <internalNodes>
            0 -1 128 9.6701467409729958e-03</internalNodes>
          <leafValues>
            -2.4324324727058411e-01 6.9230771064758301e-01</leafValues></_>
        <_>
          <internalNodes>
            0 -1 22 1.8736330093815923e-04</internalNodes>
          <leafValues>
            -3.9002248644828796e-01 4.2820170521736145e-01</leafValues></_>
        <_>
          <internalNodes>
            0 -1 60 -1.5035891556181014e-04</internalNodes>
          <leafValues>
            7.4922347068786621e-01 -1.9734156131744385e-01</leafValues></_>
        <_>
          <internalNodes>
            0 -1 116 -4.2721867561340332e-02</internalNodes>
          <leafValues>
            -8.2920342683792114e-01 1.8697544932365417e-01</leafValues></_>
        <_>
          <internalNodes>
            0 -1 114 4.1770219802856445e-02</internalNodes>
          <leafValues>
            1.6938747465610504e-01 -9.0461826324462891e-01</leafValues></_>
        <_>
          <internalNodes>
            0 -1 95 -1.0053445398807526e-01</internalNodes>
          <leafValues>
            -8.7377536296844482e-01 1.8113414943218231e-01</leafValues></_>
        <_>
          <internalNodes>
            0 -1 157 -1.7795446910895407e-04</internalNodes>
          <leafValues>
            5.9441822767257690e-01 -3.3779299259185791e-01</leafValues></_>
        <_>
          <internalNodes>
            0 -1 83 -5.7833699975162745e-04</internalNodes>
          <leafValues>
            4.5800971984863281e-01 -3.7855836749076843e-01</leafValues></_></weakClassifiers></_>
    <!-- stage 8 -->
    <_>
      <maxWeakCount>6</maxWeakCount>
      <stageThreshold>-4.1936472058296204e-01</stageThreshold>
      <weakClassifiers>
        <_>
          <internalNodes>
            0 -1 94 6.3500426709651947e-02</internalNodes>
          <leafValues>
            1.8632479012012482e-01 -9.4782608747482300e-01</leafValues></_>
        <_>
          <internalNodes>
            0 -1 141 1.1803389526903629e-02</internalNodes>
          <leafValues>
            -2.8772345185279846e-01 7.2764837741851807e-01</leafValues></_>
        <_>
          <internalNodes>
            0 -1 52 -1.0445275902748108e-01</internalNodes>
          <leafValues>
            -8.9844089746475220e-01 2.0195278525352478e-01</leafValues></_>
        <_>
          <internalNodes>
            0 -1 131 -2.6289862580597401e-04</internalNodes>
          <leafValues>
            7.0162451267242432e-01 -2.5356271862983704e-01</leafValues></_>
        <_>
          <internalNodes>
            0 -1 53 -9.9530354142189026e-02</internalNodes>
          <leafValues>
            -8.5284554958343506e-01 2.0439055562019348e-01</leafValues></_>
        <_>
          <internalNodes>
            0 -1 64 -1.8949442892335355e-04</internalNodes>
          <leafValues>
            7.6248687505722046e-01 -2.8367593884468079e-01</leafValues></_></weakClassifiers></_>
    <!-- stage 9 -->
    <_>
      <maxWeakCount>10</maxWeakCount>
      <stageThreshold>-8.6414372920989990e-01</stageThreshold>
      <weakClassifiers>
        <_>
          <internalNodes>
            0 -1 166 -6.3535086810588837e-02</internalNodes>
          <leafValues>
            8.3216780424118042e-01 -2.1364451944828033e-01</leafValues></_>
        <_>
          <internalNodes>
            0 -1 19 9.6289493143558502e-02</internalNodes>
          <leafValues>
            2.4739058315753937e-01 -8.6240142583847046e-01</leafValues></_>
        <_>
          <internalNodes>
            0 -1 37 -3.8250745274126530e-04</internalNodes>
          <leafValues>
            8.4337425231933594e-01 -2.4526309967041016e-01</leafValues></_>
        <_>
          <internalNodes>
            0 -1 149 1.2969417730346322e-04</internalNodes>
          <leafValues>
            -1.8198770284652710e-01 6.9253271818161011e-01</leafValues></_>
        <_>
          <internalNodes>
            0 -1 149 -2.5484786601737142e-04</internalNodes>
          <leafValues>
            5.4922962188720703e-01 -2.7287605404853821e-01</leafValues></_>
        <_>
          <internalNodes>
            0 -1 69 -1.8454111705068499e-04</internalNodes>
          <leafValues>
            5.8724915981292725e-01 -2.2600443661212921e-01</leafValues></_>
        <_>
          <internalNodes>
            0 -1 31 -8.9669153094291687e-02</internalNodes>
          <leafValues>
            -9.3899232149124146e-01 1.2069129198789597e-01</leafValues></_>
        <_>
          <internalNodes>
            0 -1 177 -2.4842653423547745e-02</internalNodes>
          <leafValues>
            1. -1.7346243560314178e-01</leafValues></_>
        <_>
          <internalNodes>
            0 -1 179 8.9498155284672976e-04</internalNodes>
          <leafValues>
            -1.3141807913780212e-01 8.2026523351669312e-01</leafValues></_>
        <_>
          <internalNodes>
            0 -1 175 2.1304478650563397e-05</internalNodes>
          <leafValues>
            2.1243073046207428e-01 -8.0285996198654175e-01</leafValues></_></weakClassifiers></_>
    <!-- stage 10 -->
    <_>
      <maxWeakCount>11</maxWeakCount>
      <stageThreshold>-1.3156894445419312e+00</stageThreshold>
      <weakClassifiers>
        <_>
          <internalNodes>
            0 -1 12 2.0921030954923481e-04</internalNodes>
          <leafValues>
            -3.1065759062767029e-01 5.2895754575729370e-01</leafValues></_>
        <_>
          <internalNodes>
            0 -1 140 6.5227839513681829e-05</internalNodes>
          <leafValues>
            -1.5048365294933319e-01 9.5371133089065552e-01</leafValues></_>
        <_>
          <internalNodes>
            0 -1 139 1.5033064119052142e-04</internalNodes>
          <leafValues>
            -1.9746339321136475e-01 6.4213889837265015e-01</leafValues></_>
        <_>
          <internalNodes>
            0 -1 84 -2.9698380967602134e-04</internalNodes>
          <leafValues>
            5.4732531309127808e-01 -2.2209092974662781e-01</leafValues></_>
        <_>
          <internalNodes>
            0 -1 54 4.8256228910759091e-04</internalNodes>
          <leafValues>
            -2.2748076915740967e-01 6.2103217840194702e-01</leafValues></_>
        <_>
          <internalNodes>
            0 -1 17 -3.1596608459949493e-02</internalNodes>
          <leafValues>
            -9.3627464771270752e-01 1.6386653482913971e-01</leafValues></_>
        <_>
          <internalNodes>
            0 -1 154 -1.3663488789461553e-04</internalNodes>
          <leafValues>
            6.0263413190841675e-01 -2.4379177391529083e-01</leafValues></_>
        <_>
          <internalNodes>
            0 -1 105 -1.9423619960434735e-04</internalNodes>
          <leafValues>
            6.1295855045318604e-01 -2.1166220307350159e-01</leafValues></_>
        <_>
          <internalNodes>
            0 -1 120 1.5155776054598391e-04</internalNodes>
          <leafValues>
            -2.3305532336235046e-01 5.7701665163040161e-01</leafValues></_>
        <_>
          <internalNodes>
            0 -1 137 -1.0868438403122127e-04</internalNodes>
          <leafValues>
            5.4429441690444946e-01 -2.4799597263336182e-01</leafValues></_>
        <_>
          <internalNodes>
            0 -1 88 1.0635882790666074e-04</internalNodes>
          <leafValues>
            -2.8338730335235596e-01 4.8963421583175659e-01</leafValues></_></weakClassifiers></_>
    <!-- stage 11 -->
    <_>
      <maxWeakCount>11</maxWeakCount>
      <stageThreshold>-5.9630703926086426e-01</stageThreshold>
      <weakClassifiers>
        <_>
          <internalNodes>
            0 -1 152 2.1149854001123458e-04</internalNodes>
          <leafValues>
            -2.5553318858146667e-01 6.2561577558517456e-01</leafValues></_>
        <_>
          <internalNodes>
            0 -1 62 9.5161827630363405e-05</internalNodes>
          <leafValues>
            -2.3380969464778900e-01 5.0870907306671143e-01</leafValues></_>
        <_>
          <internalNodes>
            0 -1 163 -2.0216405391693115e-02</internalNodes>
          <leafValues>
            6.0960721969604492e-01 -2.1716164052486420e-01</leafValues></_>
        <_>
          <internalNodes>
            0 -1 165 7.6502613956108689e-04</internalNodes>
          <leafValues>
            -2.2108325362205505e-01 5.7870626449584961e-01</leafValues></_>
        <_>
          <internalNodes>
            0 -1 113 4.7027043998241425e-02</internalNodes>
          <leafValues>
            1.6461738944053650e-01 -8.9561152458190918e-01</leafValues></_>
        <_>
          <internalNodes>
            0 -1 34 3.5837135510519147e-04</internalNodes>
          <leafValues>
            -1.9712190330028534e-01 6.0198265314102173e-01</leafValues></_>
        <_>
          <internalNodes>
            0 -1 148 -1.0605607531033456e-04</internalNodes>
          <leafValues>
            3.6631175875663757e-01 -3.0678150057792664e-01</leafValues></_>
        <_>
          <internalNodes>
            0 -1 160 3.2419391209259629e-04</internalNodes>
          <leafValues>
            -1.8347804248332977e-01 6.6246229410171509e-01</leafValues></_>
        <_>
          <internalNodes>
            0 -1 103 -1.6007728409022093e-03</internalNodes>
          <leafValues>
            6.4140707254409790e-01 -2.0582160353660583e-01</leafValues></_>
        <_>
          <internalNodes>
            0 -1 64 -1.9250708282925189e-04</internalNodes>
          <leafValues>
            5.6285148859024048e-01 -1.8888610601425171e-01</leafValues></_>
        <_>
          <internalNodes>
            0 -1 156 -6.2775060534477234e-02</internalNodes>
          <leafValues>
            7.3821389675140381e-01 -1.6685955226421356e-01</leafValues></_></weakClassifiers></_>
    <!-- stage 12 -->
    <_>
      <maxWeakCount>12</maxWeakCount>
      <stageThreshold>-1.0301244258880615e+00</stageThreshold>
      <weakClassifiers>
        <_>
          <internalNodes>
            0 -1 151 1.4277013018727303e-02</internalNodes>
          <leafValues>
            -3.3497536182403564e-01 4.6258503198623657e-01</leafValues></_>
        <_>
          <internalNodes>
            0 -1 76 -2.8959533665329218e-04</internalNodes>
          <leafValues>
            5.2398610115051270e-01 -2.2224339842796326e-01</leafValues></_>
        <_>
          <internalNodes>
            0 -1 127 -2.8644315898418427e-04</internalNodes>
          <leafValues>
            5.6350713968276978e-01 -2.0899312198162079e-01</leafValues></_>
        <_>
          <internalNodes>
            0 -1 16 1.2129974551498890e-02</internalNodes>
          <leafValues>
            -2.4121974408626556e-01 6.2038457393646240e-01</leafValues></_>
        <_>
          <internalNodes>
            0 -1 134 -2.1864820155315101e-04</internalNodes>
          <leafValues>
            5.2697795629501343e-01 -2.2093619406223297e-01</leafValues></_>
        <_>
          <internalNodes>
            0 -1 134 2.4216115707531571e-04</internalNodes>
          <leafValues>
            -2.0444057881832123e-01 4.9659267067909241e-01</leafValues></_>
        <_>
          <internalNodes>
            0 -1 67 8.2437142729759216e-02</internalNodes>
          <leafValues>
            1.3236102461814880e-01 -8.3949357271194458e-01</leafValues></_>
        <_>
          <internalNodes>
            0 -1 147 1.2720956874545664e-04</internalNodes>
          <leafValues>
            -2.7973079681396484e-01 4.3078804016113281e-01</leafValues></_>
        <_>
          <internalNodes>
            0 -1 96 5.0684186862781644e-04</internalNodes>
          <leafValues>
            -2.0219278335571289e-01 5.2437484264373779e-01</leafValues></_>
        <_>
          <internalNodes>
            0 -1 99 -2.6652755215764046e-02</internalNodes>
          <leafValues>
            -5.5891674757003784e-01 2.0911686122417450e-01</leafValues></_>
        <_>
          <internalNodes>
            0 -1 58 7.5324967503547668e-02</internalNodes>
          <leafValues>
            1.4362311363220215e-01 -9.4828617572784424e-01</leafValues></_>
        <_>
          <internalNodes>
            0 -1 24 2.1245222887955606e-04</internalNodes>
          <leafValues>
            -2.9089283943176270e-01 5.2727204561233521e-01</leafValues></_></weakClassifiers></_>
    <!-- stage 13 -->
    <_>
      <maxWeakCount>12</maxWeakCount>
      <stageThreshold>-1.0449748039245605e+00</stageThreshold>
      <weakClassifiers>
        <_>
          <internalNodes>
            0 -1 13 5.0694996025413275e-04</internalNodes>
          <leafValues>
            -5.0406503677368164e-01 2.7312776446342468e-01</leafValues></_>
        <_>
          <internalNodes>
            0 -1 178 1.4351980760693550e-02</internalNodes>
          <leafValues>
            -1.5875969827175140e-01 8.3950757980346680e-01</leafValues></_>
        <_>
          <internalNodes>
            0 -1 145 1.4394486788660288e-04</internalNodes>
          <leafValues>
            -2.9687353968620300e-01 4.3455141782760620e-01</leafValues></_>
        <_>
          <internalNodes>
            0 -1 71 4.1062176227569580e-02</internalNodes>
          <leafValues>
            1.8691642582416534e-01 -7.8645282983779907e-01</leafValues></_>
        <_>
          <internalNodes>
            0 -1 38 2.8525062953121960e-04</internalNodes>
          <leafValues>
            -2.2386433184146881e-01 6.1787915229797363e-01</leafValues></_>
        <_>
          <internalNodes>
            0 -1 153 2.9524898855015635e-04</internalNodes>
          <leafValues>
            -2.2065278887748718e-01 5.6851011514663696e-01</leafValues></_>
        <_>
          <internalNodes>
            0 -1 91 -2.4234462529420853e-02</internalNodes>
          <leafValues>
            -6.3881152868270874e-01 1.9729386270046234e-01</leafValues></_>
        <_>
          <internalNodes>
            0 -1 7 5.0164431333541870e-02</internalNodes>
          <leafValues>
            -4.2487010359764099e-01 2.5330567359924316e-01</leafValues></_>
        <_>
          <internalNodes>
            0 -1 100 -1.8729222938418388e-04</internalNodes>
          <leafValues>
            4.3502685427665710e-01 -2.5656834244728088e-01</leafValues></_>
        <_>
          <internalNodes>
            0 -1 109 -1.2550483644008636e-01</internalNodes>
          <leafValues>
            -9.5279377698898315e-01 1.1983510106801987e-01</leafValues></_>
        <_>
          <internalNodes>
            0 -1 88 -1.3855277211405337e-04</internalNodes>
          <leafValues>
            4.4586151838302612e-01 -2.5610437989234924e-01</leafValues></_>
        <_>
          <internalNodes>
            0 -1 126 1.5357858501374722e-04</internalNodes>
          <leafValues>
            -2.0552922785282135e-01 4.8920768499374390e-01</leafValues></_></weakClassifiers></_>
    <!-- stage 14 -->
    <_>
      <maxWeakCount>13</maxWeakCount>
      <stageThreshold>-8.8710910081863403e-01</stageThreshold>
      <weakClassifiers>
        <_>
          <internalNodes>
            0 -1 122 -2.1301399101503193e-04</internalNodes>
          <leafValues>
            5.3926700353622437e-01 -2.0235756039619446e-01</leafValues></_>
        <_>
          <internalNodes>
            0 -1 73 -3.5486351698637009e-02</internalNodes>
          <leafValues>
            2.7503076195716858e-01 -4.1767561435699463e-01</leafValues></_>
        <_>
          <internalNodes>
            0 -1 70 -3.1742490828037262e-02</internalNodes>
          <leafValues>
            -7.4294692277908325e-01 1.6122321784496307e-01</leafValues></_>
        <_>
          <internalNodes>
            0 -1 106 -1.5401953714899719e-04</internalNodes>
          <leafValues>
            4.3593040108680725e-01 -2.6087453961372375e-01</leafValues></_>
        <_>
          <internalNodes>
            0 -1 85 -6.5960109233856201e-02</internalNodes>
          <leafValues>
            -8.6179071664810181e-01 1.1806505173444748e-01</leafValues></_>
        <_>
          <internalNodes>
            0 -1 92 4.0170896798372269e-02</internalNodes>
          <leafValues>
            1.3594387471675873e-01 -8.0895143747329712e-01</leafValues></_>
        <_>
          <internalNodes>
            0 -1 112 -1.0452881455421448e-01</internalNodes>
          <leafValues>
            2.8276649117469788e-01 -3.7921577692031860e-01</leafValues></_>
        <_>
          <internalNodes>
            0 -1 11 -1.6059204936027527e-02</internalNodes>
          <leafValues>
            -2.4583953619003296e-01 4.8941296339035034e-01</leafValues></_>
        <_>
          <internalNodes>
            0 -1 3 1.4304723590612411e-02</internalNodes>
          <leafValues>
            -3.5626995563507080e-01 3.1141144037246704e-01</leafValues></_>
        <_>
          <internalNodes>
            0 -1 74 1.4496914809569716e-04</internalNodes>
          <leafValues>
            -2.1990436315536499e-01 4.6735152602195740e-01</leafValues></_>
        <_>
          <internalNodes>
            0 -1 65 3.0804495327174664e-04</internalNodes>
          <leafValues>
            -3.0149248242378235e-01 3.7899482250213623e-01</leafValues></_>
        <_>
          <internalNodes>
            0 -1 150 2.0021386444568634e-04</internalNodes>
          <leafValues>
            -1.4908324182033539e-01 5.9489560127258301e-01</leafValues></_>
        <_>
          <internalNodes>
            0 -1 49 5.6108728051185608e-02</internalNodes>
          <leafValues>
            1.8487590551376343e-01 -5.9358900785446167e-01</leafValues></_></weakClassifiers></_>
    <!-- stage 15 -->
    <_>
      <maxWeakCount>15</maxWeakCount>
      <stageThreshold>-1.1089484691619873e+00</stageThreshold>
      <weakClassifiers>
        <_>
          <internalNodes>
            0 -1 171 -3.1370873330160975e-04</internalNodes>
          <leafValues>
            3.6283186078071594e-01 -3.4072023630142212e-01</leafValues></_>
        <_>
          <internalNodes>
            0 -1 167 -1.5630957204848528e-04</internalNodes>
          <leafValues>
            4.7062307596206665e-01 -2.5662392377853394e-01</leafValues></_>
        <_>
          <internalNodes>
            0 -1 155 -2.5733374059200287e-04</internalNodes>
          <leafValues>
            4.7971212863922119e-01 -1.9264215230941772e-01</leafValues></_>
        <_>
          <internalNodes>
            0 -1 169 -1.9234881619922817e-04</internalNodes>
          <leafValues>
            5.1672267913818359e-01 -1.9739469885826111e-01</leafValues></_>
        <_>
          <internalNodes>
            0 -1 77 -1.0179344099014997e-04</internalNodes>
          <leafValues>
            5.3074026107788086e-01 -2.1612003445625305e-01</leafValues></_>
        <_>
          <internalNodes>
            0 -1 56 -2.4040691554546356e-02</internalNodes>
          <leafValues>
            -4.4623246788978577e-01 2.4505470693111420e-01</leafValues></_>
        <_>
          <internalNodes>
            0 -1 48 -1.4812019071541727e-04</internalNodes>
          <leafValues>
            3.8867685198783875e-01 -2.3887069523334503e-01</leafValues></_>
        <_>
          <internalNodes>
            0 -1 5 -9.5797777175903320e-02</internalNodes>
          <leafValues>
            -8.7837839126586914e-01 8.5106343030929565e-02</leafValues></_>
        <_>
          <internalNodes>
            0 -1 42 2.7255679015070200e-04</internalNodes>
          <leafValues>
            -2.1214491128921509e-01 4.8397502303123474e-01</leafValues></_>
        <_>
          <internalNodes>
            0 -1 63 -1.1706224177032709e-04</internalNodes>
          <leafValues>
            4.4980368018150330e-01 -1.6911232471466064e-01</leafValues></_>
        <_>
          <internalNodes>
            0 -1 176 -2.9221200384199619e-04</internalNodes>
          <leafValues>
            5.9536206722259521e-01 -1.7589981853961945e-01</leafValues></_>
        <_>
          <internalNodes>
            0 -1 123 -6.0694638639688492e-02</internalNodes>
          <leafValues>
            -8.3386534452438354e-01 1.1643824726343155e-01</leafValues></_>
        <_>
          <internalNodes>
            0 -1 143 -1.3810278847813606e-02</internalNodes>
          <leafValues>
            9.6372145414352417e-01 -1.1773438006639481e-01</leafValues></_>
        <_>
          <internalNodes>
            0 -1 51 -1.8513470422476530e-04</internalNodes>
          <leafValues>
            3.6007034778594971e-01 -2.6006028056144714e-01</leafValues></_>
        <_>
          <internalNodes>
            0 -1 36 2.5307279080152512e-02</internalNodes>
          <leafValues>
            1.4728651940822601e-01 -6.7966353893280029e-01</leafValues></_></weakClassifiers></_>
    <!-- stage 16 -->
    <_>
      <maxWeakCount>12</maxWeakCount>
      <stageThreshold>-7.4433547258377075e-01</stageThreshold>
      <weakClassifiers>
        <_>
          <internalNodes>
            0 -1 173 -2.4738011416047812e-04</internalNodes>
          <leafValues>
            6.1971831321716309e-01 -1.5770609676837921e-01</leafValues></_>
        <_>
          <internalNodes>
            0 -1 170 -4.7016819007694721e-04</internalNodes>
          <leafValues>
            5.4090774059295654e-01 -1.6683885455131531e-01</leafValues></_>
        <_>
          <internalNodes>
            0 -1 75 9.5807976322248578e-05</internalNodes>
          <leafValues>
            -2.1507023274898529e-01 4.8313006758689880e-01</leafValues></_>
        <_>
          <internalNodes>
            0 -1 173 1.0502550867386162e-04</internalNodes>
          <leafValues>
            -2.3702348768711090e-01 4.9517181515693665e-01</leafValues></_>
        <_>
          <internalNodes>
            0 -1 32 -1.5571626136079431e-04</internalNodes>
          <leafValues>
            7.5678455829620361e-01 -9.4143167138099670e-02</leafValues></_>
        <_>
          <internalNodes>
            0 -1 110 -6.0973450308665633e-04</internalNodes>
          <leafValues>
            5.3563904762268066e-01 -1.5594141185283661e-01</leafValues></_>
        <_>
          <internalNodes>
            0 -1 110 1.0423049388919026e-04</internalNodes>
          <leafValues>
            -2.9030987620353699e-01 3.9521932601928711e-01</leafValues></_>
        <_>
          <internalNodes>
            0 -1 79 3.9280228316783905e-02</internalNodes>
          <leafValues>
            1.5738144516944885e-01 -6.5905493497848511e-01</leafValues></_>
        <_>
          <internalNodes>
            0 -1 79 -3.8379520177841187e-02</internalNodes>
          <leafValues>
            -6.8604123592376709e-01 1.6841797530651093e-01</leafValues></_>
        <_>
          <internalNodes>
            0 -1 72 -2.8505956288427114e-04</internalNodes>
          <leafValues>
            4.5434537529945374e-01 -2.5690209865570068e-01</leafValues></_>
        <_>
          <internalNodes>
            0 -1 23 4.6397238969802856e-02</internalNodes>
          <leafValues>
            1.2433426827192307e-01 -6.8523132801055908e-01</leafValues></_>
        <_>
          <internalNodes>
            0 -1 93 9.6443109214305878e-05</internalNodes>
          <leafValues>
            -1.8782706558704376e-01 4.9299439787864685e-01</leafValues></_></weakClassifiers></_>
    <!-- stage 17 -->
    <_>
      <maxWeakCount>14</maxWeakCount>
      <stageThreshold>-9.9026131629943848e-01</stageThreshold>
      <weakClassifiers>
        <_>
          <internalNodes>
            0 -1 174 -2.7341660112142563e-02</internalNodes>
          <leafValues>
            6.1764705181121826e-01 -1.4893616735935211e-01</leafValues></_>
        <_>
          <internalNodes>
            0 -1 18 2.6400125352665782e-04</internalNodes>
          <leafValues>
            -1.1762399971485138e-01 7.2257089614868164e-01</leafValues></_>
        <_>
          <internalNodes>
            0 -1 129 6.8776367697864771e-05</internalNodes>
          <leafValues>
            -1.5800572931766510e-01 5.0901359319686890e-01</leafValues></_>
        <_>
          <internalNodes>
            0 -1 61 -2.3797285393811762e-04</internalNodes>
          <leafValues>
            4.6426072716712952e-01 -1.9865567982196808e-01</leafValues></_>
        <_>
          <internalNodes>
            0 -1 47 -8.3096474409103394e-02</internalNodes>
          <leafValues>
            -9.4579815864562988e-01 1.1138173937797546e-01</leafValues></_>
        <_>
          <internalNodes>
            0 -1 68 -1.9661671831272542e-04</internalNodes>
          <leafValues>
            4.1423940658569336e-01 -2.2677102684974670e-01</leafValues></_>
        <_>
          <internalNodes>
            0 -1 50 4.5912787318229675e-02</internalNodes>
          <leafValues>
            1.4421041309833527e-01 -6.9215953350067139e-01</leafValues></_>
        <_>
          <internalNodes>
            0 -1 50 -2.2508822381496429e-02</internalNodes>
          <leafValues>
            -5.3736835718154907e-01 1.4123772084712982e-01</leafValues></_>
        <_>
          <internalNodes>
            0 -1 124 3.1669769668951631e-04</internalNodes>
          <leafValues>
            -2.0086562633514404e-01 4.6838018298149109e-01</leafValues></_>
        <_>
          <internalNodes>
            0 -1 10 -2.0267967134714127e-02</internalNodes>
          <leafValues>
            -1.9868364930152893e-01 4.1805046796798706e-01</leafValues></_>
        <_>
          <internalNodes>
            0 -1 130 1.2220095843076706e-02</internalNodes>
          <leafValues>
            -1.6465997695922852e-01 5.7471925020217896e-01</leafValues></_>
        <_>
          <internalNodes>
            0 -1 43 1.9436530768871307e-02</internalNodes>
          <leafValues>
            -1.3349080085754395e-01 7.2577965259552002e-01</leafValues></_>
        <_>
          <internalNodes>
            0 -1 146 -1.1827705893665552e-03</internalNodes>
          <leafValues>
            4.8153904080390930e-01 -1.6577933728694916e-01</leafValues></_>
        <_>
          <internalNodes>
            0 -1 125 -7.4781715869903564e-02</internalNodes>
          <leafValues>
            -6.7508983612060547e-01 1.4571647346019745e-01</leafValues></_></weakClassifiers></_>
    <!-- stage 18 -->
    <_>
      <maxWeakCount>15</maxWeakCount>
      <stageThreshold>-9.7153699398040771e-01</stageThreshold>
      <weakClassifiers>
        <_>
          <internalNodes>
            0 -1 66 -1.6719935834407806e-01</internalNodes>
          <leafValues>
            3.0729165673255920e-01 -3.7341773509979248e-01</leafValues></_>
        <_>
          <internalNodes>
            0 -1 97 -3.7778157740831375e-02</internalNodes>
          <leafValues>
            4.7025349736213684e-01 -1.8506579101085663e-01</leafValues></_>
        <_>
          <internalNodes>
            0 -1 82 -2.0355872809886932e-02</internalNodes>
          <leafValues>
            -8.0401498079299927e-01 1.2355236709117889e-01</leafValues></_>
        <_>
          <internalNodes>
            0 -1 46 -1.1022468097507954e-03</internalNodes>
          <leafValues>
            7.2541743516921997e-01 -1.3556884229183197e-01</leafValues></_>
        <_>
          <internalNodes>
            0 -1 121 4.4959277147427201e-04</internalNodes>
          <leafValues>
            -3.2903429865837097e-01 2.4251426756381989e-01</leafValues></_>
        <_>
          <internalNodes>
            0 -1 115 -2.6819302001968026e-04</internalNodes>
          <leafValues>
            3.8459178805351257e-01 -2.1657687425613403e-01</leafValues></_>
        <_>
          <internalNodes>
            0 -1 104 1.8813222413882613e-04</internalNodes>
          <leafValues>
            -1.7904992401599884e-01 4.7987064719200134e-01</leafValues></_>
        <_>
          <internalNodes>
            0 -1 90 1.8589748651720583e-04</internalNodes>
          <leafValues>
            -2.2099415957927704e-01 4.4656094908714294e-01</leafValues></_>
        <_>
          <internalNodes>
            0 -1 87 1.6705086454749107e-02</internalNodes>
          <leafValues>
            1.5990109741687775e-01 -6.6101795434951782e-01</leafValues></_>
        <_>
          <internalNodes>
            0 -1 161 2.3895286722108722e-04</internalNodes>
          <leafValues>
            -1.9586236774921417e-01 4.6013951301574707e-01</leafValues></_>
        <_>
          <internalNodes>
            0 -1 9 2.7606835588812828e-02</internalNodes>
          <leafValues>
            9.2118717730045319e-02 -8.3479392528533936e-01</leafValues></_>
        <_>
          <internalNodes>
            0 -1 119 -2.7977151330560446e-04</internalNodes>
          <leafValues>
            3.7638008594512939e-01 -2.3548530042171478e-01</leafValues></_>
        <_>
          <internalNodes>
            0 -1 8 -1.0826041921973228e-02</internalNodes>
          <leafValues>
            -6.4813858270645142e-01 1.4447671175003052e-01</leafValues></_>
        <_>
          <internalNodes>
            0 -1 26 6.7717465572059155e-04</internalNodes>
          <leafValues>
            -1.1686605215072632e-01 8.0683457851409912e-01</leafValues></_>
        <_>
          <internalNodes>
            0 -1 86 5.5443368852138519e-02</internalNodes>
          <leafValues>
            1.4068624377250671e-01 -6.6668361425399780e-01</leafValues></_></weakClassifiers></_>
    <!-- stage 19 -->
    <_>
      <maxWeakCount>14</maxWeakCount>
      <stageThreshold>-1.0303244590759277e+00</stageThreshold>
      <weakClassifiers>
        <_>
          <internalNodes>
            0 -1 57 -1.0251791775226593e-01</internalNodes>
          <leafValues>
            3.3742332458496094e-01 -2.9411765933036804e-01</leafValues></_>
        <_>
          <internalNodes>
            0 -1 33 -3.8270719232968986e-04</internalNodes>
          <leafValues>
            4.8739084601402283e-01 -1.9395729899406433e-01</leafValues></_>
        <_>
          <internalNodes>
            0 -1 15 -6.2770359218120575e-02</internalNodes>
          <leafValues>
            -8.3962655067443848e-01 1.2212637066841125e-01</leafValues></_>
        <_>
          <internalNodes>
            0 -1 132 1.4742217026650906e-03</internalNodes>
          <leafValues>
            -2.1240854263305664e-01 4.8770868778228760e-01</leafValues></_>
        <_>
          <internalNodes>
            0 -1 164 -6.6835083998739719e-04</internalNodes>
          <leafValues>
            5.3041821718215942e-01 -1.7104335129261017e-01</leafValues></_>
        <_>
          <internalNodes>
            0 -1 155 -4.1395504376851022e-04</internalNodes>
          <leafValues>
            4.0956205129623413e-01 -2.6169413328170776e-01</leafValues></_>
        <_>
          <internalNodes>
            0 -1 6 -2.6799375191330910e-02</internalNodes>
          <leafValues>
            -8.2497924566268921e-01 1.4980228245258331e-01</leafValues></_>
        <_>
          <internalNodes>
            0 -1 118 2.6544596767053008e-04</internalNodes>
          <leafValues>
            -2.3198379576206207e-01 4.2605751752853394e-01</leafValues></_>
        <_>
          <internalNodes>
            0 -1 117 1.4609689242206514e-04</internalNodes>
          <leafValues>
            -2.2755600512027740e-01 4.3489831686019897e-01</leafValues></_>
        <_>
          <internalNodes>
            0 -1 98 1.3533042510971427e-04</internalNodes>
          <leafValues>
            -2.0517143607139587e-01 4.4764110445976257e-01</leafValues></_>
        <_>
          <internalNodes>
            0 -1 81 -9.5255942142102867e-05</internalNodes>
          <leafValues>
            3.6924454569816589e-01 -2.4793426692485809e-01</leafValues></_>
        <_>
          <internalNodes>
            0 -1 0 2.1557283616857603e-05</internalNodes>
          <leafValues>
            1.8028420209884644e-01 -5.3981453180313110e-01</leafValues></_>
        <_>
          <internalNodes>
            0 -1 144 -9.4928505131974816e-04</internalNodes>
          <leafValues>
            4.0691027045249939e-01 -2.2605246305465698e-01</leafValues></_>
        <_>
          <internalNodes>
            0 -1 55 -3.4301325678825378e-02</internalNodes>
          <leafValues>
            -7.4283206462860107e-01 1.5784065425395966e-01</leafValues></_></weakClassifiers></_></stages>
  <features>
    <_>
      <rects>
        <_>
          0 0 2 2 -1.</_>
        <_>
          0 0 1 1 2.</_>
        <_>
          1 1 1 1 2.</_></rects>
      <tilted>0</tilted></_>
    <_>
      <rects>
        <_>
          0 0 2 10 -1.</_>
        <_>
          1 0 1 10 2.</_></rects>
      <tilted>0</tilted></_>
    <_>
      <rects>
        <_>
          0 0 4 5 -1.</_>
        <_>
          2 0 2 5 2.</_></rects>
      <tilted>0</tilted></_>
    <_>
      <rects>
        <_>
          0 0 4 6 -1.</_>
        <_>
          2 0 2 6 2.</_></rects>
      <tilted>0</tilted></_>
    <_>
      <rects>
        <_>
          0 0 4 8 -1.</_>
        <_>
          2 0 2 8 2.</_></rects>
      <tilted>0</tilted></_>
    <_>
      <rects>
        <_>
          0 0 3 15 -1.</_>
        <_>
          0 5 3 5 2.</_></rects>
      <tilted>0</tilted></_>
    <_>
      <rects>
        <_>
          0 0 6 9 -1.</_>
        <_>
          3 0 3 9 2.</_></rects>
      <tilted>0</tilted></_>
    <_>
      <rects>
        <_>
          0 0 6 16 -1.</_>
        <_>
          3 0 3 16 2.</_></rects>
      <tilted>0</tilted></_>
    <_>
      <rects>
        <_>
          0 0 8 9 -1.</_>
        <_>
          4 0 4 9 2.</_></rects>
      <tilted>0</tilted></_>
    <_>
      <rects>
        <_>
          0 0 16 1 -1.</_>
        <_>
          8 0 8 1 2.</_></rects>
      <tilted>0</tilted></_>
    <_>
      <rects>
        <_>
          0 0 14 3 -1.</_>
        <_>
          0 1 14 1 2.</_></rects>
      <tilted>0</tilted></_>
    <_>
      <rects>
        <_>
          0 0 15 3 -1.</_>
        <_>
          0 1 15 1 2.</_></rects>
      <tilted>0</tilted></_>
    <_>
      <rects>
        <_>
          0 1 2 4 -1.</_>
        <_>
          1 1 1 4 2.</_></rects>
      <tilted>0</tilted></_>
    <_>
      <rects>
        <_>
          0 1 4 5 -1.</_>
        <_>
          2 1 2 5 2.</_></rects>
      <tilted>0</tilted></_>
    <_>
      <rects>
        <_>
          0 1 8 2 -1.</_>
        <_>
          0 1 4 1 2.</_>
        <_>
          4 2 4 1 2.</_></rects>
      <tilted>0</tilted></_>
    <_>
      <rects>
        <_>
          0 1 6 8 -1.</_>
        <_>
          0 5 6 4 2.</_></rects>
      <tilted>0</tilted></_>
    <_>
      <rects>
        <_>
          0 2 2 5 -1.</_>
        <_>
          1 2 1 5 2.</_></rects>
      <tilted>0</tilted></_>
    <_>
      <rects>
        <_>
          0 3 3 8 -1.</_>
        <_>
          0 7 3 4 2.</_></rects>
      <tilted>0</tilted></_>
    <_>
      <rects>
        <_>
          0 4 3 3 -1.</_>
        <_>
          1 4 1 3 2.</_></rects>
      <tilted>0</tilted></_>
    <_>
      <rects>
        <_>
          0 4 12 8 -1.</_>
        <_>
          0 4 6 4 2.</_>
        <_>
          6 8 6 4 2.</_></rects>
      <tilted>0</tilted></_>
    <_>
      <rects>
        <_>
          0 4 9 10 -1.</_>
        <_>
          0 9 9 5 2.</_></rects>
      <tilted>0</tilted></_>
    <_>
      <rects>
        <_>
          0 5 6 4 -1.</_>
        <_>
          3 5 3 4 2.</_></rects>
      <tilted>0</tilted></_>
    <_>
      <rects>
        <_>
          0 6 6 1 -1.</_>
        <_>
          3 6 3 1 2.</_></rects>
      <tilted>0</tilted></_>
    <_>
      <rects>
        <_>
          0 6 8 8 -1.</_>
        <_>
          0 6 4 4 2.</_>
        <_>
          4 10 4 4 2.</_></rects>
      <tilted>0</tilted></_>
    <_>
      <rects>
        <_>
          0 8 2 3 -1.</_>
        <_>
          1 8 1 3 2.</_></rects>
      <tilted>0</tilted></_>
    <_>
      <rects>
        <_>
          0 8 6 4 -1.</_>
        <_>
          2 8 2 4 2.</_></rects>
      <tilted>0</tilted></_>
    <_>
      <rects>
        <_>
          0 10 3 1 -1.</_>
        <_>
          1 10 1 1 2.</_></rects>
      <tilted>0</tilted></_>
    <_>
      <rects>
        <_>
          0 11 8 2 -1.</_>
        <_>
          0 12 8 1 2.</_></rects>
      <tilted>0</tilted></_>
    <_>
      <rects>
        <_>
          0 12 10 4 -1.</_>
        <_>
          0 14 10 2 2.</_></rects>
      <tilted>0</tilted></_>
    <_>
      <rects>
        <_>
          0 12 16 4 -1.</_>
        <_>
          0 14 16 2 2.</_></rects>
      <tilted>0</tilted></_>
    <_>
      <rects>
        <_>
          0 13 8 3 -1.</_>
        <_>
          0 14 8 1 2.</_></rects>
      <tilted>0</tilted></_>
    <_>
      <rects>
        <_>
          1 2 12 6 -1.</_>
        <_>
          1 2 6 3 2.</_>
        <_>
          7 5 6 3 2.</_></rects>
      <tilted>0</tilted></_>
    <_>
      <rects>
        <_>
          1 4 2 1 -1.</_>
        <_>
          2 4 1 1 2.</_></rects>
      <tilted>0</tilted></_>
    <_>
      <rects>
        <_>
          1 4 2 2 -1.</_>
        <_>
          1 5 2 1 2.</_></rects>
      <tilted>0</tilted></_>
    <_>
      <rects>
        <_>
          1 5 2 2 -1.</_>
        <_>
          1 5 1 1 2.</_>
        <_>
          2 6 1 1 2.</_></rects>
      <tilted>0</tilted></_>
    <_>
      <rects>
        <_>
          1 6 4 2 -1.</_>
        <_>
          1 6 2 1 2.</_>
        <_>
          3 7 2 1 2.</_></rects>
      <tilted>0</tilted></_>
    <_>
      <rects>
        <_>
          1 6 4 8 -1.</_>
        <_>
          1 6 2 4 2.</_>
        <_>
          3 10 2 4 2.</_></rects>
      <tilted>0</tilted></_>
    <_>
      <rects>
        <_>
          1 7 2 1 -1.</_>
        <_>
          2 7 1 1 2.</_></rects>
      <tilted>0</tilted></_>
    <_>
      <rects>
        <_>
          1 7 2 2 -1.</_>
        <_>
          1 7 1 1 2.</_>
        <_>
          2 8 1 1 2.</_></rects>
      <tilted>0</tilted></_>
    <_>
      <rects>
        <_>
          1 8 15 3 -1.</_>
        <_>
          1 9 15 1 2.</_></rects>
      <tilted>0</tilted></_>
    <_>
      <rects>
        <_>
          1 11 4 5 -1.</_>
        <_>
          3 11 2 5 2.</_></rects>
      <tilted>0</tilted></_>
    <_>
      <rects>
        <_>
          1 12 12 3 -1.</_>
        <_>
          5 12 4 3 2.</_></rects>
      <tilted>0</tilted></_>
    <_>
      <rects>
        <_>
          1 13 4 2 -1.</_>
        <_>
          1 13 2 1 2.</_>
        <_>
          3 14 2 1 2.</_></rects>
      <tilted>0</tilted></_>
    <_>
      <rects>
        <_>
          1 14 11 2 -1.</_>
        <_>
          1 15 11 1 2.</_></rects>
      <tilted>0</tilted></_>
    <_>
      <rects>
        <_>
          2 1 6 6 -1.</_>
        <_>
          4 1 2 6 2.</_></rects>
      <tilted>0</tilted></_>
    <_>
      <rects>
        <_>
          2 2 8 10 -1.</_>
        <_>
          6 2 4 10 2.</_></rects>
      <tilted>0</tilted></_>
    <_>
      <rects>
        <_>
          2 3 2 1 -1.</_>
        <_>
          3 3 1 1 2.</_></rects>
      <tilted>0</tilted></_>
    <_>
      <rects>
        <_>
          2 3 6 10 -1.</_>
        <_>
          2 3 3 5 2.</_>
        <_>
          5 8 3 5 2.</_></rects>
      <tilted>0</tilted></_>
    <_>
      <rects>
        <_>
          2 4 3 2 -1.</_>
        <_>
          2 5 3 1 2.</_></rects>
      <tilted>0</tilted></_>
    <_>
      <rects>
        <_>
          2 4 12 10 -1.</_>
        <_>
          2 4 6 5 2.</_>
        <_>
          8 9 6 5 2.</_></rects>
      <tilted>0</tilted></_>
    <_>
      <rects>
        <_>
          2 6 8 6 -1.</_>
        <_>
          2 6 4 3 2.</_>
        <_>
          6 9 4 3 2.</_></rects>
      <tilted>0</tilted></_>
    <_>
      <rects>
        <_>
          2 15 9 1 -1.</_>
        <_>
          5 15 3 1 2.</_></rects>
      <tilted>0</tilted></_>
    <_>
      <rects>
        <_>
          3 0 8 14 -1.</_>
        <_>
          3 0 4 7 2.</_>
        <_>
          7 7 4 7 2.</_></rects>
      <tilted>0</tilted></_>
    <_>
      <rects>
        <_>
          3 0 4 16 -1.</_>
        <_>
          3 8 4 8 2.</_></rects>
      <tilted>0</tilted></_>
    <_>
      <rects>
        <_>
          3 3 2 2 -1.</_>
        <_>
          3 3 1 1 2.</_>
        <_>
          4 4 1 1 2.</_></rects>
      <tilted>0</tilted></_>
    <_>
      <rects>
        <_>
          3 3 3 6 -1.</_>
        <_>
          3 6 3 3 2.</_></rects>
      <tilted>0</tilted></_>
    <_>
      <rects>
        <_>
          3 5 6 8 -1.</_>
        <_>
          3 5 3 4 2.</_>
        <_>
          6 9 3 4 2.</_></rects>
      <tilted>0</tilted></_>
    <_>
      <rects>
        <_>
          3 7 9 8 -1.</_>
        <_>
          6 7 3 8 2.</_></rects>
      <tilted>0</tilted></_>
    <_>
      <rects>
        <_>
          3 7 8 8 -1.</_>
        <_>
          3 7 4 4 2.</_>
        <_>
          7 11 4 4 2.</_></rects>
      <tilted>0</tilted></_>
    <_>
      <rects>
        <_>
          3 8 2 2 -1.</_>
        <_>
          3 9 2 1 2.</_></rects>
      <tilted>0</tilted></_>
    <_>
      <rects>
        <_>
          3 9 2 1 -1.</_>
        <_>
          4 9 1 1 2.</_></rects>
      <tilted>0</tilted></_>
    <_>
      <rects>
        <_>
          3 9 2 2 -1.</_>
        <_>
          4 9 1 2 2.</_></rects>
      <tilted>0</tilted></_>
    <_>
      <rects>
        <_>
          3 11 2 1 -1.</_>
        <_>
          4 11 1 1 2.</_></rects>
      <tilted>0</tilted></_>
    <_>
      <rects>
        <_>
          3 13 2 2 -1.</_>
        <_>
          3 14 2 1 2.</_></rects>
      <tilted>0</tilted></_>
    <_>
      <rects>
        <_>
          4 1 2 2 -1.</_>
        <_>
          4 1 1 1 2.</_>
        <_>
          5 2 1 1 2.</_></rects>
      <tilted>0</tilted></_>
    <_>
      <rects>
        <_>
          4 1 2 4 -1.</_>
        <_>
          5 1 1 4 2.</_></rects>
      <tilted>0</tilted></_>
    <_>
      <rects>
        <_>
          4 1 9 13 -1.</_>
        <_>
          7 1 3 13 2.</_></rects>
      <tilted>0</tilted></_>
    <_>
      <rects>
        <_>
          4 1 8 10 -1.</_>
        <_>
          4 1 4 5 2.</_>
        <_>
          8 6 4 5 2.</_></rects>
      <tilted>0</tilted></_>
    <_>
      <rects>
        <_>
          4 6 2 2 -1.</_>
        <_>
          4 6 1 1 2.</_>
        <_>
          5 7 1 1 2.</_></rects>
      <tilted>0</tilted></_>
    <_>
      <rects>
        <_>
          4 6 4 1 -1.</_>
        <_>
          6 6 2 1 2.</_></rects>
      <tilted>0</tilted></_>
    <_>
      <rects>
        <_>
          4 6 6 3 -1.</_>
        <_>
          7 6 3 3 2.</_></rects>
      <tilted>0</tilted></_>
    <_>
      <rects>
        <_>
          4 6 12 2 -1.</_>
        <_>
          10 6 6 2 2.</_></rects>
      <tilted>0</tilted></_>
    <_>
      <rects>
        <_>
          4 7 2 2 -1.</_>
        <_>
          4 7 1 1 2.</_>
        <_>
          5 8 1 1 2.</_></rects>
      <tilted>0</tilted></_>
    <_>
      <rects>
        <_>
          4 7 9 3 -1.</_>
        <_>
          7 7 3 3 2.</_></rects>
      <tilted>0</tilted></_>
    <_>
      <rects>
        <_>
          4 8 2 1 -1.</_>
        <_>
          5 8 1 1 2.</_></rects>
      <tilted>0</tilted></_>
    <_>
      <rects>
        <_>
          4 9 1 2 -1.</_>
        <_>
          4 10 1 1 2.</_></rects>
      <tilted>0</tilted></_>
    <_>
      <rects>
        <_>
          4 9 2 2 -1.</_>
        <_>
          4 9 1 1 2.</_>
        <_>
          5 10 1 1 2.</_></rects>
      <tilted>0</tilted></_>
    <_>
      <rects>
        <_>
          4 12 2 1 -1.</_>
        <_>
          5 12 1 1 2.</_></rects>
      <tilted>0</tilted></_>
    <_>
      <rects>
        <_>
          5 0 3 8 -1.</_>
        <_>
          6 0 1 8 2.</_></rects>
      <tilted>0</tilted></_>
    <_>
      <rects>
        <_>
          5 2 6 8 -1.</_>
        <_>
          5 2 3 4 2.</_>
        <_>
          8 6 3 4 2.</_></rects>
      <tilted>0</tilted></_>
    <_>
      <rects>
        <_>
          5 4 1 2 -1.</_>
        <_>
          5 5 1 1 2.</_></rects>
      <tilted>0</tilted></_>
    <_>
      <rects>
        <_>
          5 4 2 2 -1.</_>
        <_>
          5 5 2 1 2.</_></rects>
      <tilted>0</tilted></_>
    <_>
      <rects>
        <_>
          5 5 1 6 -1.</_>
        <_>
          5 8 1 3 2.</_></rects>
      <tilted>0</tilted></_>
    <_>
      <rects>
        <_>
          5 5 5 2 -1.</_>
        <_>
          5 6 5 1 2.</_></rects>
      <tilted>0</tilted></_>
    <_>
      <rects>
        <_>
          5 6 2 2 -1.</_>
        <_>
          5 7 2 1 2.</_></rects>
      <tilted>0</tilted></_>
    <_>
      <rects>
        <_>
          5 6 8 8 -1.</_>
        <_>
          5 6 4 4 2.</_>
        <_>
          9 10 4 4 2.</_></rects>
      <tilted>0</tilted></_>
    <_>
      <rects>
        <_>
          5 6 10 8 -1.</_>
        <_>
          5 6 5 4 2.</_>
        <_>
          10 10 5 4 2.</_></rects>
      <tilted>0</tilted></_>
    <_>
      <rects>
        <_>
          5 7 2 8 -1.</_>
        <_>
          5 11 2 4 2.</_></rects>
      <tilted>0</tilted></_>
    <_>
      <rects>
        <_>
          5 8 2 2 -1.</_>
        <_>
          5 8 1 1 2.</_>
        <_>
          6 9 1 1 2.</_></rects>
      <tilted>0</tilted></_>
    <_>
      <rects>
        <_>
          5 9 2 2 -1.</_>
        <_>
          5 9 1 1 2.</_>
        <_>
          6 10 1 1 2.</_></rects>
      <tilted>0</tilted></_>
    <_>
      <rects>
        <_>
          5 10 2 2 -1.</_>
        <_>
          5 11 2 1 2.</_></rects>
      <tilted>0</tilted></_>
    <_>
      <rects>
        <_>
          5 10 6 2 -1.</_>
        <_>
          8 10 3 2 2.</_></rects>
      <tilted>0</tilted></_>
    <_>
      <rects>
        <_>
          5 10 10 2 -1.</_>
        <_>
          10 10 5 2 2.</_></rects>
      <tilted>0</tilted></_>
    <_>
      <rects>
        <_>
          5 12 2 1 -1.</_>
        <_>
          6 12 1 1 2.</_></rects>
      <tilted>0</tilted></_>
    <_>
      <rects>
        <_>
          6 0 6 8 -1.</_>
        <_>
          9 0 3 8 2.</_></rects>
      <tilted>0</tilted></_>
    <_>
      <rects>
        <_>
          6 0 4 16 -1.</_>
        <_>
          6 8 4 8 2.</_></rects>
      <tilted>0</tilted></_>
    <_>
      <rects>
        <_>
          6 2 1 2 -1.</_>
        <_>
          6 3 1 1 2.</_></rects>
      <tilted>0</tilted></_>
    <_>
      <rects>
        <_>
          6 3 6 3 -1.</_>
        <_>
          6 4 6 1 2.</_></rects>
      <tilted>0</tilted></_>
    <_>
      <rects>
        <_>
          6 4 1 2 -1.</_>
        <_>
          6 5 1 1 2.</_></rects>
      <tilted>0</tilted></_>
    <_>
      <rects>
        <_>
          6 4 1 12 -1.</_>
        <_>
          6 8 1 4 2.</_></rects>
      <tilted>0</tilted></_>
    <_>
      <rects>
        <_>
          6 5 2 2 -1.</_>
        <_>
          6 6 2 1 2.</_></rects>
      <tilted>0</tilted></_>
    <_>
      <rects>
        <_>
          6 6 2 2 -1.</_>
        <_>
          6 7 2 1 2.</_></rects>
      <tilted>0</tilted></_>
    <_>
      <rects>
        <_>
          6 8 2 2 -1.</_>
        <_>
          6 8 1 1 2.</_>
        <_>
          7 9 1 1 2.</_></rects>
      <tilted>0</tilted></_>
    <_>
      <rects>
        <_>
          6 10 2 1 -1.</_>
        <_>
          7 10 1 1 2.</_></rects>
      <tilted>0</tilted></_>
    <_>
      <rects>
        <_>
          6 11 2 1 -1.</_>
        <_>
          7 11 1 1 2.</_></rects>
      <tilted>0</tilted></_>
    <_>
      <rects>
        <_>
          6 11 2 2 -1.</_>
        <_>
          6 11 1 1 2.</_>
        <_>
          7 12 1 1 2.</_></rects>
      <tilted>0</tilted></_>
    <_>
      <rects>
        <_>
          6 13 2 2 -1.</_>
        <_>
          6 14 2 1 2.</_></rects>
      <tilted>0</tilted></_>
    <_>
      <rects>
        <_>
          7 0 6 2 -1.</_>
        <_>
          7 1 6 1 2.</_></rects>
      <tilted>0</tilted></_>
    <_>
      <rects>
        <_>
          7 1 2 4 -1.</_>
        <_>
          7 1 1 2 2.</_>
        <_>
          8 3 1 2 2.</_></rects>
      <tilted>0</tilted></_>
    <_>
      <rects>
        <_>
          7 1 3 15 -1.</_>
        <_>
          7 6 3 5 2.</_></rects>
      <tilted>0</tilted></_>
    <_>
      <rects>
        <_>
          7 3 1 2 -1.</_>
        <_>
          7 4 1 1 2.</_></rects>
      <tilted>0</tilted></_>
    <_>
      <rects>
        <_>
          7 3 3 13 -1.</_>
        <_>
          8 3 1 13 2.</_></rects>
      <tilted>0</tilted></_>
    <_>
      <rects>
        <_>
          7 3 8 9 -1.</_>
        <_>
          7 6 8 3 2.</_></rects>
      <tilted>0</tilted></_>
    <_>
      <rects>
        <_>
          7 4 8 3 -1.</_>
        <_>
          11 4 4 3 2.</_></rects>
      <tilted>0</tilted></_>
    <_>
      <rects>
        <_>
          7 5 3 10 -1.</_>
        <_>
          7 10 3 5 2.</_></rects>
      <tilted>0</tilted></_>
    <_>
      <rects>
        <_>
          7 6 1 2 -1.</_>
        <_>
          7 7 1 1 2.</_></rects>
      <tilted>0</tilted></_>
    <_>
      <rects>
        <_>
          7 6 2 8 -1.</_>
        <_>
          7 10 2 4 2.</_></rects>
      <tilted>0</tilted></_>
    <_>
      <rects>
        <_>
          7 7 2 1 -1.</_>
        <_>
          8 7 1 1 2.</_></rects>
      <tilted>0</tilted></_>
    <_>
      <rects>
        <_>
          7 7 2 2 -1.</_>
        <_>
          7 7 1 1 2.</_>
        <_>
          8 8 1 1 2.</_></rects>
      <tilted>0</tilted></_>
    <_>
      <rects>
        <_>
          7 8 2 2 -1.</_>
        <_>
          7 8 1 1 2.</_>
        <_>
          8 9 1 1 2.</_></rects>
      <tilted>0</tilted></_>
    <_>
      <rects>
        <_>
          7 10 2 1 -1.</_>
        <_>
          8 10 1 1 2.</_></rects>
      <tilted>0</tilted></_>
    <_>
      <rects>
        <_>
          8 0 1 6 -1.</_>
        <_>
          8 3 1 3 2.</_></rects>
      <tilted>0</tilted></_>
    <_>
      <rects>
        <_>
          8 1 2 2 -1.</_>
        <_>
          8 1 1 1 2.</_>
        <_>
          9 2 1 1 2.</_></rects>
      <tilted>0</tilted></_>
    <_>
      <rects>
        <_>
          8 3 8 6 -1.</_>
        <_>
          8 6 8 3 2.</_></rects>
      <tilted>0</tilted></_>
    <_>
      <rects>
        <_>
          8 4 2 2 -1.</_>
        <_>
          8 4 1 1 2.</_>
        <_>
          9 5 1 1 2.</_></rects>
      <tilted>0</tilted></_>
    <_>
      <rects>
        <_>
          8 5 3 9 -1.</_>
        <_>
          8 8 3 3 2.</_></rects>
      <tilted>0</tilted></_>
    <_>
      <rects>
        <_>
          8 7 2 2 -1.</_>
        <_>
          8 7 1 1 2.</_>
        <_>
          9 8 1 1 2.</_></rects>
      <tilted>0</tilted></_>
    <_>
      <rects>
        <_>
          8 8 1 2 -1.</_>
        <_>
          8 9 1 1 2.</_></rects>
      <tilted>0</tilted></_>
    <_>
      <rects>
        <_>
          9 0 5 2 -1.</_>
        <_>
          9 1 5 1 2.</_></rects>
      <tilted>0</tilted></_>
    <_>
      <rects>
        <_>
          9 1 2 1 -1.</_>
        <_>
          10 1 1 1 2.</_></rects>
      <tilted>0</tilted></_>
    <_>
      <rects>
        <_>
          9 1 5 2 -1.</_>
        <_>
          9 2 5 1 2.</_></rects>
      <tilted>0</tilted></_>
    <_>
      <rects>
        <_>
          9 4 1 2 -1.</_>
        <_>
          9 5 1 1 2.</_></rects>
      <tilted>0</tilted></_>
    <_>
      <rects>
        <_>
          9 4 2 2 -1.</_>
        <_>
          9 4 1 1 2.</_>
        <_>
          10 5 1 1 2.</_></rects>
      <tilted>0</tilted></_>
    <_>
      <rects>
        <_>
          9 5 2 2 -1.</_>
        <_>
          9 5 1 1 2.</_>
        <_>
          10 6 1 1 2.</_></rects>
      <tilted>0</tilted></_>
    <_>
      <rects>
        <_>
          9 6 2 2 -1.</_>
        <_>
          9 6 1 1 2.</_>
        <_>
          10 7 1 1 2.</_></rects>
      <tilted>0</tilted></_>
    <_>
      <rects>
        <_>
          9 7 3 3 -1.</_>
        <_>
          9 8 3 1 2.</_></rects>
      <tilted>0</tilted></_>
    <_>
      <rects>
        <_>
          9 8 1 2 -1.</_>
        <_>
          9 9 1 1 2.</_></rects>
      <tilted>0</tilted></_>
    <_>
      <rects>
        <_>
          9 9 1 2 -1.</_>
        <_>
          9 10 1 1 2.</_></rects>
      <tilted>0</tilted></_>
    <_>
      <rects>
        <_>
          9 12 7 4 -1.</_>
        <_>
          9 14 7 2 2.</_></rects>
      <tilted>0</tilted></_>
    <_>
      <rects>
        <_>
          9 13 2 2 -1.</_>
        <_>
          10 13 1 2 2.</_></rects>
      <tilted>0</tilted></_>
    <_>
      <rects>
        <_>
          10 0 1 3 -1.</_>
        <_>
          10 1 1 1 2.</_></rects>
      <tilted>0</tilted></_>
    <_>
      <rects>
        <_>
          10 0 6 2 -1.</_>
        <_>
          10 1 6 1 2.</_></rects>
      <tilted>0</tilted></_>
    <_>
      <rects>
        <_>
          10 0 6 4 -1.</_>
        <_>
          10 2 6 2 2.</_></rects>
      <tilted>0</tilted></_>
    <_>
      <rects>
        <_>
          10 3 3 1 -1.</_>
        <_>
          11 3 1 1 2.</_></rects>
      <tilted>0</tilted></_>
    <_>
      <rects>
        <_>
          10 5 2 2 -1.</_>
        <_>
          10 5 1 1 2.</_>
        <_>
          11 6 1 1 2.</_></rects>
      <tilted>0</tilted></_>
    <_>
      <rects>
        <_>
          10 5 2 3 -1.</_>
        <_>
          11 5 1 3 2.</_></rects>
      <tilted>0</tilted></_>
    <_>
      <rects>
        <_>
          10 7 2 1 -1.</_>
        <_>
          11 7 1 1 2.</_></rects>
      <tilted>0</tilted></_>
    <_>
      <rects>
        <_>
          10 8 2 3 -1.</_>
        <_>
          11 8 1 3 2.</_></rects>
      <tilted>0</tilted></_>
    <_>
      <rects>
        <_>
          10 9 4 1 -1.</_>
        <_>
          12 9 2 1 2.</_></rects>
      <tilted>0</tilted></_>
    <_>
      <rects>
        <_>
          10 10 2 1 -1.</_>
        <_>
          11 10 1 1 2.</_></rects>
      <tilted>0</tilted></_>
    <_>
      <rects>
        <_>
          10 11 2 1 -1.</_>
        <_>
          11 11 1 1 2.</_></rects>
      <tilted>0</tilted></_>
    <_>
      <rects>
        <_>
          11 0 5 4 -1.</_>
        <_>
          11 2 5 2 2.</_></rects>
      <tilted>0</tilted></_>
    <_>
      <rects>
        <_>
          11 2 2 2 -1.</_>
        <_>
          12 2 1 2 2.</_></rects>
      <tilted>0</tilted></_>
    <_>
      <rects>
        <_>
          11 4 2 2 -1.</_>
        <_>
          11 4 1 1 2.</_>
        <_>
          12 5 1 1 2.</_></rects>
      <tilted>0</tilted></_>
    <_>
      <rects>
        <_>
          11 5 1 2 -1.</_>
        <_>
          11 6 1 1 2.</_></rects>
      <tilted>0</tilted></_>
    <_>
      <rects>
        <_>
          11 5 2 2 -1.</_>
        <_>
          11 5 1 1 2.</_>
        <_>
          12 6 1 1 2.</_></rects>
      <tilted>0</tilted></_>
    <_>
      <rects>
        <_>
          11 5 3 9 -1.</_>
        <_>
          12 5 1 9 2.</_></rects>
      <tilted>0</tilted></_>
    <_>
      <rects>
        <_>
          11 6 2 2 -1.</_>
        <_>
          11 6 1 1 2.</_>
        <_>
          12 7 1 1 2.</_></rects>
      <tilted>0</tilted></_>
    <_>
      <rects>
        <_>
          11 7 4 6 -1.</_>
        <_>
          11 9 4 2 2.</_></rects>
      <tilted>0</tilted></_>
    <_>
      <rects>
        <_>
          11 8 4 3 -1.</_>
        <_>
          11 9 4 1 2.</_></rects>
      <tilted>0</tilted></_>
    <_>
      <rects>
        <_>
          11 9 2 1 -1.</_>
        <_>
          12 9 1 1 2.</_></rects>
      <tilted>0</tilted></_>
    <_>
      <rects>
        <_>
          11 11 2 2 -1.</_>
        <_>
          12 11 1 2 2.</_></rects>
      <tilted>0</tilted></_>
    <_>
      <rects>
        <_>
          12 0 4 5 -1.</_>
        <_>
          14 0 2 5 2.</_></rects>
      <tilted>0</tilted></_>
    <_>
      <rects>
        <_>
          12 2 2 10 -1.</_>
        <_>
          13 2 1 10 2.</_></rects>
      <tilted>0</tilted></_>
    <_>
      <rects>
        <_>
          12 5 2 2 -1.</_>
        <_>
          12 5 1 1 2.</_>
        <_>
          13 6 1 1 2.</_></rects>
      <tilted>0</tilted></_>
    <_>
      <rects>
        <_>
          12 5 2 5 -1.</_>
        <_>
          13 5 1 5 2.</_></rects>
      <tilted>0</tilted></_>
    <_>
      <rects>
        <_>
          12 5 4 10 -1.</_>
        <_>
          14 5 2 10 2.</_></rects>
      <tilted>0</tilted></_>
    <_>
      <rects>
        <_>
          12 7 2 1 -1.</_>
        <_>
          13 7 1 1 2.</_></rects>
      <tilted>0</tilted></_>
    <_>
      <rects>
        <_>
          12 7 4 3 -1.</_>
        <_>
          12 8 4 1 2.</_></rects>
      <tilted>0</tilted></_>
    <_>
      <rects>
        <_>
          12 10 2 2 -1.</_>
        <_>
          12 10 1 1 2.</_>
        <_>
          13 11 1 1 2.</_></rects>
      <tilted>0</tilted></_>
    <_>
      <rects>
        <_>
          12 11 2 2 -1.</_>
        <_>
          12 11 1 1 2.</_>
        <_>
          13 12 1 1 2.</_></rects>
      <tilted>0</tilted></_>
    <_>
      <rects>
        <_>
          12 12 4 4 -1.</_>
        <_>
          12 14 4 2 2.</_></rects>
      <tilted>0</tilted></_>
    <_>
      <rects>
        <_>
          13 1 3 14 -1.</_>
        <_>
          14 1 1 14 2.</_></rects>
      <tilted>0</tilted></_>
    <_>
      <rects>
        <_>
          13 3 1 2 -1.</_>
        <_>
          13 4 1 1 2.</_></rects>
      <tilted>0</tilted></_>
    <_>
      <rects>
        <_>
          13 4 2 10 -1.</_>
        <_>
          14 4 1 10 2.</_></rects>
      <tilted>0</tilted></_>
    <_>
      <rects>
        <_>
          13 14 3 2 -1.</_>
        <_>
          13 15 3 1 2.</_></rects>
      <tilted>0</tilted></_>
    <_>
      <rects>
        <_>
          14 4 2 2 -1.</_>
        <_>
          14 5 2 1 2.</_></rects>
      <tilted>0</tilted></_>
    <_>
      <rects>
        <_>
          14 5 2 9 -1.</_>
        <_>
          15 5 1 9 2.</_></rects>
      <tilted>0</tilted></_>
    <_>
      <rects>
        <_>
          14 5 2 10 -1.</_>
        <_>
          15 5 1 10 2.</_></rects>
      <tilted>0</tilted></_>
    <_>
      <rects>
        <_>
          14 7 2 7 -1.</_>
        <_>
          15 7 1 7 2.</_></rects>
      <tilted>0</tilted></_></features></cascade>
</opencv_storage>
